{"learner":{"attributes":{"scikit_learn":"{\"_estimator_type\": \"classifier\"}"},"feature_names":[],"feature_types":[],"gradient_booster":{"model":{"cats":{"enc":[],"feature_segments":[],"sorted_idx":[]},"gbtree_model_param":{"num_parallel_tree":"1","num_trees":"400"},"iteration_indptr":[0,1,2,3,4,5,6,7,8,9,10,11,12,13,14,15,16,17,18,19,20,21,22,23,24,25,26,27,28,29,30,31,32,33,34,35,36,37,38,39,40,41,42,43,44,45,46,47,48,49,50,51,52,53,54,55,56,57,58,59,60,61,62,63,64,65,66,67,68,69,70,71,72,73,74,75,76,77,78,79,80,81,82,83,84,85,86,87,88,89,90,91,92,93,94,95,96,97,98,99,100,101,102,103,104,105,106,107,108,109,110,111,112,113,114,115,116,117,118,119,120,121,122,123,124,125,126,127,128,129,130,131,132,133,134,135,136,137,138,139,140,141,142,143,144,145,146,147,148,149,150,151,152,153,154,155,156,157,158,159,160,161,162,163,164,165,166,167,168,169,170,171,172,173,174,175,176,177,178,179,180,181,182,183,184,185,186,187,188,189,190,191,192,193,194,195,196,197,198,199,200,201,202,203,204,205,206,207,208,209,210,211,212,213,214,215,216,217,218,219,220,221,222,223,224,225,226,227,228,229,230,231,232,233,234,235,236,237,238,239,240,241,242,243,244,245,246,247,248,249,250,251,252,253,254,255,256,257,258,259,260,261,262,263,264,265,266,267,268,269,270,271,272,273,274,275,276,277,278,279,280,281,282,283,284,285,286,287,288,289,290,291,292,293,294,295,296,297,298,299,300,301,302,303,304,305,306,307,308,309,310,311,312,313,314,315,316,317,318,319,320,321,322,323,324,325,326,327,328,329,330,331,332,333,334,335,336,337,338,339,340,341,342,343,344,345,346,347,348,349,350,351,352,353,354,355,356,357,358,359,360,361,362,363,364,365,366,367,368,369,370,371,372,373,374,375,376,377,378,379,380,381,382,383,384,385,386,387,388,389,390,391,392,393,394,395,396,397,398,399,400],"tree_info":[0,0,0,0,0,0,0,0,0,0,0,0,0,0,0,0,0,0,0,0,0,0,0,0,0,0,0,0,0,0,0,0,0,0,0,0,0,0,0,0,0,0,0,0,0,0,0,0,0,0,0,0,0,0,0,0,0,0,0,0,0,0,0,0,0,0,0,0,0,0,0,0,0,0,0,0,0,0,0,0,0,0,0,0,0,0,0,0,0,0,0,0,0,0,0,0,0,0,0,0,0,0,0,0,0,0,0,0,0,0,0,0,0,0,0,0,0,0,0,0,0,0,0,0,0,0,0,0,0,0,0,0,0,0,0,0,0,0,0,0,0,0,0,0,0,0,0,0,0,0,0,0,0,0,0,0,0,0,0,0,0,0,0,0,0,0,0,0,0,0,0,0,0,0,0,0,0,0,0,0,0,0,0,0,0,0,0,0,0,0,0,0,0,0,0,0,0,0,0,0,0,0,0,0,0,0,0,0,0,0,0,0,0,0,0,0,0,0,0,0,0,0,0,0,0,0,0,0,0,0,0,0,0,0,0,0,0,0,0,0,0,0,0,0,0,0,0,0,0,0,0,0,0,0,0,0,0,0,0,0,0,0,0,0,0,0,0,0,0,0,0,0,0,0,0,0,0,0,0,0,0,0,0,0,0,0,0,0,0,0,0,0,0,0,0,0,0,0,0,0,0,0,0,0,0,0,0,0,0,0,0,0,0,0,0,0,0,0,0,0,0,0,0,0,0,0,0,0,0,0,0,0,0,0,0,0,0,0,0,0,0,0,0,0,0,0,0,0,0,0,0,0,0,0,0,0,0,0,0,0,0,0,0,0,0,0,0,0,0,0,0,0,0,0,0,0,0,0,0,0,0,0,0,0,0,0,0,0,0,0,0,0,0,0,0,0,0,0,0,0],"trees":[{"base_weights":[-5.4864778E-8,-4.969424E-1,1.0810628E0,-9.643946E-1,7.670045E-1,1.9585557E-1,1.4330183E0,-1.3460356E0,4.8348993E-1,9.2773354E-1,-4.807532E-2,-6.1497647E-2,1.1276122E0,4.7478822E-1,7.4824445E-2,-1.5855798E0,2.1462262E-1,9.588481E-1,-9.081038E-2,1.2715575E0,1.2919787E-1,6.688589E-2,-5.079141E-3,4.150028E-2,-5.079141E-3,-1.924778E0,-2.851229E-1,-2.293204E-1,4.1443612E-2,-2.0263476E-2,1.2265819E0,7.1882516E-2,3.4019962E-1,7.0384467E-1,-7.257593E-1,-1.0909744E-1,4.3658953E-2,4.3658953E-2,-4.0022407E-2,1.9701404E-2,-3.698181E-2,6.969046E-2,-5.079141E-3,-2.8368851E-2,4.7871172E-2,-2.6267485E-3,5.5635598E-2,-4.807532E-2,-5.079141E-3],"categories":[],"categories_nodes":[],"categories_segments":[],"categories_sizes":[],"default_left":[0,0,0,0,0,0,0,0,0,0,0,0,0,0,0,0,0,0,0,0,0,0,0,0,0,0,0,0,0,0,0,0,0,0,0,0,0,0,0,0,0,0,0,0,0,0,0,0,0],"id":0,"left_children":[1,3,5,7,9,11,13,15,17,19,-1,-1,21,23,-1,25,27,29,-1,31,33,-1,-1,-1,-1,35,37,39,-1,-1,41,-1,43,45,47,-1,-1,-1,-1,-1,-1,-1,-1,-1,-1,-1,-1,-1,-1],"loss_changes":[7.057376E1,5.3913155E1,1.26082535E1,3.719916E1,7.7972565E0,1.8561117E1,1.080162E0,2.0008041E1,1.7628736E1,6.2189465E0,0E0,0E0,2.2897768E0,7.5866526E-1,0E0,1.9622398E1,2.3392227E0,5.134696E0,0E0,2.0074368E0,4.4955463E0,0E0,0E0,0E0,0E0,2.7876953E1,7.0462217E0,1.9958761E0,0E0,0E0,2.5543365E0,0E0,2.645282E0,1.7154987E0,4.544978E-1,0E0,0E0,0E0,0E0,0E0,0E0,0E0,0E0,0E0,0E0,0E0,0E0,0E0,0E0],"parents":[2147483647,0,0,1,1,2,2,3,3,4,4,5,5,6,6,7,7,8,8,9,9,12,12,13,13,15,15,16,16,17,17,19,19,20,20,25,25,26,26,27,27,30,30,32,32,33,33,34,34],"right_children":[2,4,6,8,10,12,14,16,18,20,-1,-1,22,24,-1,26,28,30,-1,32,34,-1,-1,-1,-1,36,38,40,-1,-1,42,-1,44,46,48,-1,-1,-1,-1,-1,-1,-1,-1,-1,-1,-1,-1,-1,-1],"split_conditions":[1E0,1E0,1E0,1E0,1E0,1E0,5E0,1E0,1E0,1E0,-4.807532E-2,-6.1497647E-2,1E0,1E0,7.4824445E-2,1E0,6.409E1,1E0,-9.081038E-2,1E0,4.61934E0,6.688589E-2,-5.079141E-3,4.150028E-2,-5.079141E-3,1E0,3.4253E0,1E0,4.1443612E-2,-2.0263476E-2,3.97454E2,7.1882516E-2,1E0,1E0,4.67585E2,-1.0909744E-1,4.3658953E-2,4.3658953E-2,-4.0022407E-2,1.9701404E-2,-3.698181E-2,6.969046E-2,-5.079141E-3,-2.8368851E-2,4.7871172E-2,-2.6267485E-3,5.5635598E-2,-4.807532E-2,-5.079141E-3],"split_indices":[1482,1939,407,1738,567,1261,2053,1923,259,1991,0,0,218,378,0,207,2052,1088,0,809,2049,0,0,0,0,1627,2049,378,0,0,2048,0,695,1096,2048,0,0,0,0,0,0,0,0,0,0,0,0,0,0],"split_type":[0,0,0,0,0,0,0,0,0,0,0,0,0,0,0,0,0,0,0,0,0,0,0,0,0,0,0,0,0,0,0,0,0,0,0,0,0,0,0,0,0,0,0,0,0,0,0,0,0],"sum_hessian":[1.2936702E2,8.899717E1,4.036985E1,6.514226E1,2.385491E1,1.1927455E1,2.8442394E1,5.160918E1,1.3533074E1,2.2249292E1,1.605619E0,4.587483E0,7.3399725E0,2.2937415E0,2.6148651E1,4.472796E1,6.881224E0,1.1698081E1,1.8349931E0,1.5138693E1,7.1105986E0,6.193102E0,1.1468707E0,1.1468707E0,1.1468707E0,3.5094242E1,9.633714E0,4.3581085E0,2.5231156E0,1.8349931E0,9.863088E0,1.2386204E1,2.7524896E0,4.3581085E0,2.7524896E0,3.2341755E1,2.7524896E0,2.7524896E0,6.881224E0,2.0643673E0,2.2937415E0,8.716217E0,1.1468707E0,1.1468707E0,1.605619E0,1.8349931E0,2.5231156E0,1.605619E0,1.1468707E0],"tree_param":{"num_deleted":"0","num_feature":"2054","num_nodes":"49","size_leaf_vector":"1"}},{"base_weights":[1.3569817E-3,-4.689628E-1,1.0467312E0,-9.055116E-1,7.3911744E-1,1.8723834E-1,1.3943534E0,-1.2562864E0,4.6066502E-1,8.972891E-1,-4.6203565E-2,-1.1628606E0,1.0952032E0,4.6393746E-1,7.28402E-2,-1.4591476E0,3.1578645E-1,9.2731357E-1,-8.6465165E-2,1.2357855E0,1.2318851E-1,-6.590979E-1,-7.86885E-2,-6.123576E-3,6.536892E-2,4.1041773E-2,-5.450102E-3,-1.6254517E0,5.2618027E-1,-2.8113627E-1,5.3477913E-2,-1.9533189E-2,1.1915789E0,6.999032E-2,3.297591E-1,6.8391323E-1,-6.9918734E-1,-5.2949216E-2,4.6604727E-3,-9.871357E-2,-1.5512257E-2,5.376981E-2,-2.7823707E-2,2.4944383E-3,-2.7962629E-2,6.797444E-2,-5.7576224E-3,-2.7960962E-2,4.7060315E-2,-2.5404696E-3,5.4303247E-2,-4.6203565E-2,-4.9395408E-3],"categories":[],"categories_nodes":[],"categories_segments":[],"categories_sizes":[],"default_left":[0,0,0,0,0,0,0,0,0,0,0,0,0,0,0,0,0,0,0,0,0,0,0,0,0,0,0,0,0,0,0,0,0,0,0,0,0,0,0,0,0,0,0,0,0,0,0,0,0,0,0,0,0],"id":1,"left_children":[1,3,5,7,9,11,13,15,17,19,-1,21,23,25,-1,27,29,31,-1,33,35,37,-1,-1,-1,-1,-1,39,41,43,-1,-1,45,-1,47,49,51,-1,-1,-1,-1,-1,-1,-1,-1,-1,-1,-1,-1,-1,-1,-1,-1],"loss_changes":[6.45268E1,4.8408302E1,1.1906452E1,3.2658657E1,7.294917E0,1.7065813E1,9.9995804E-1,1.7533424E1,1.6327793E1,5.861643E0,0E0,1.3542604E-1,2.2832203E0,7.604509E-1,0E0,1.6569084E1,3.4235692E0,4.828988E0,0E0,1.8949718E0,4.210243E0,1.3819644E0,0E0,0E0,0E0,0E0,0E0,1.9646439E1,3.234959E0,4.5738974E-1,0E0,0E0,2.5004473E0,0E0,2.558672E0,1.6264138E0,4.184922E-1,0E0,0E0,0E0,0E0,0E0,0E0,0E0,0E0,0E0,0E0,0E0,0E0,0E0,0E0,0E0,0E0],"parents":[2147483647,0,0,1,1,2,2,3,3,4,4,5,5,6,6,7,7,8,8,9,9,11,11,12,12,13,13,15,15,16,16,17,17,19,19,20,20,21,21,27,27,28,28,29,29,32,32,34,34,35,35,36,36],"right_children":[2,4,6,8,10,12,14,16,18,20,-1,22,24,26,-1,28,30,32,-1,34,36,38,-1,-1,-1,-1,-1,40,42,44,-1,-1,46,-1,48,50,52,-1,-1,-1,-1,-1,-1,-1,-1,-1,-1,-1,-1,-1,-1,-1,-1],"split_conditions":[1E0,1E0,1E0,1E0,1E0,1E0,5E0,1E0,1E0,1E0,-4.6203565E-2,1E0,1E0,4.06551E2,7.28402E-2,1E0,4.57496E2,1E0,-8.6465165E-2,1E0,4.61934E0,4.49558E2,-7.86885E-2,-6.123576E-3,6.536892E-2,4.1041773E-2,-5.450102E-3,1E0,1E0,1E0,5.3477913E-2,-1.9533189E-2,4.2463E0,6.999032E-2,4.34515E2,1E0,4.67585E2,-5.2949216E-2,4.6604727E-3,-9.871357E-2,-1.5512257E-2,5.376981E-2,-2.7823707E-2,2.4944383E-3,-2.7962629E-2,6.797444E-2,-5.7576224E-3,-2.7960962E-2,4.7060315E-2,-2.5404696E-3,5.4303247E-2,-4.6203565E-2,-4.9395408E-3],"split_indices":[1482,1939,407,1738,567,1261,2053,1294,259,1991,0,807,378,2048,0,588,2048,1088,0,809,2049,2048,0,0,0,0,0,207,1791,378,0,0,2049,0,2048,1096,2048,0,0,0,0,0,0,0,0,0,0,0,0,0,0,0,0],"split_type":[0,0,0,0,0,0,0,0,0,0,0,0,0,0,0,0,0,0,0,0,0,0,0,0,0,0,0,0,0,0,0,0,0,0,0,0,0,0,0,0,0,0,0,0,0,0,0,0,0,0,0,0,0],"sum_hessian":[1.2924428E2,8.952008E1,3.9724197E1,6.5941925E1,2.3578154E1,1.188277E1,2.7841427E1,5.253393E1,1.3407994E1,2.1951075E1,1.6270778E0,4.6651654E0,7.2176046E0,2.2813733E0,2.5560053E1,4.6593334E1,5.9405985E0,1.1528097E1,1.8798972E0,1.485772E1,7.093354E0,3.2656157E0,1.3995496E0,1.133756E0,6.0838485E0,1.1391163E0,1.142257E0,4.3159294E1,3.434039E0,3.665145E0,2.2754533E0,1.8455305E0,9.682567E0,1.2118816E1,2.7389042E0,4.317738E0,2.7756162E0,1.8660661E0,1.3995496E0,3.371601E1,9.443283E0,2.28274E0,1.1512992E0,2.04807E0,1.617075E0,8.544284E0,1.1382823E0,1.1509556E0,1.5879487E0,1.8363752E0,2.4813628E0,1.6270778E0,1.1485384E0],"tree_param":{"num_deleted":"0","num_feature":"2054","num_nodes":"53","size_leaf_vector":"1"}},{"base_weights":[1.8232615E-3,-4.4420514E-1,1.0137835E0,-8.53865E-1,7.130747E-1,1.7412765E-1,1.3590028E0,-1.1782848E0,4.394931E-1,8.688531E-1,-4.443897E-2,-1.1170596E0,1.0646356E0,4.5339575E-1,7.103687E-2,-1.3845848E0,2.13219E-1,8.97698E-1,-8.255789E-2,1.202695E0,1.17614135E-1,-6.3391876E-1,-7.55304E-2,6.395277E-2,-7.1252743E-3,4.0597674E-2,-5.8090976E-3,-1.530396E0,6.215238E-1,-2.0959595E-1,4.0233243E-2,-1.8832646E-2,1.1589112E0,6.82578E-2,3.1979573E-1,6.6492784E-1,-6.7393404E-1,-5.077988E-2,4.5278347E-3,-9.424589E-2,-1.0063355E-2,7.9886615E-3,4.3242823E-2,1.904724E-2,-3.436288E-2,6.629054E-2,-5.5991434E-3,-2.7098227E-2,4.60422E-2,-2.4570485E-3,5.3045608E-2,-4.8451837E-2,-8.586111E-3],"categories":[],"categories_nodes":[],"categories_segments":[],"categories_sizes":[],"default_left":[0,0,0,0,0,0,0,0,0,0,0,0,0,0,0,0,0,0,0,0,0,0,0,0,0,0,0,0,0,0,0,0,0,0,0,0,0,0,0,0,0,0,0,0,0,0,0,0,0,0,0,0,0],"id":2,"left_children":[1,3,5,7,9,11,13,15,17,19,-1,21,23,25,-1,27,29,31,-1,33,35,37,-1,-1,-1,-1,-1,39,41,43,-1,-1,45,-1,47,49,51,-1,-1,-1,-1,-1,-1,-1,-1,-1,-1,-1,-1,-1,-1,-1,-1],"loss_changes":[5.903799E1,4.3650673E1,1.1361935E1,2.8843388E1,6.8310347E0,1.5912766E1,9.328995E-1,1.5866219E1,1.5148211E1,5.5350895E0,0E0,1.2898445E-1,2.2763615E0,7.6193756E-1,0E0,1.4807999E1,2.1367097E0,4.5472555E0,0E0,1.7955933E0,3.9451766E0,1.2777909E0,0E0,0E0,0E0,0E0,0E0,2.0566025E1,3.0238044E-1,1.7801111E0,0E0,0E0,2.3743105E0,0E0,2.4281733E0,1.543891E0,3.962444E-1,0E0,0E0,0E0,0E0,0E0,0E0,0E0,0E0,0E0,0E0,0E0,0E0,0E0,0E0,0E0,0E0],"parents":[2147483647,0,0,1,1,2,2,3,3,4,4,5,5,6,6,7,7,8,8,9,9,11,11,12,12,13,13,15,15,16,16,17,17,19,19,20,20,21,21,27,27,28,28,29,29,32,32,34,34,35,35,36,36],"right_children":[2,4,6,8,10,12,14,16,18,20,-1,22,24,26,-1,28,30,32,-1,34,36,38,-1,-1,-1,-1,-1,40,42,44,-1,-1,46,-1,48,50,52,-1,-1,-1,-1,-1,-1,-1,-1,-1,-1,-1,-1,-1,-1,-1,-1],"split_conditions":[1E0,1E0,1E0,1E0,1E0,1E0,5E0,1E0,1E0,1E0,-4.443897E-2,1E0,2E0,5E0,7.103687E-2,1E0,6.409E1,1E0,-8.255789E-2,1E0,4.61934E0,4.49558E2,-7.55304E-2,6.395277E-2,-7.1252743E-3,4.0597674E-2,-5.8090976E-3,1E0,1E0,1E0,4.0233243E-2,-1.8832646E-2,4.2463E0,6.82578E-2,4.34515E2,1E0,8E0,-5.077988E-2,4.5278347E-3,-9.424589E-2,-1.0063355E-2,7.9886615E-3,4.3242823E-2,1.904724E-2,-3.436288E-2,6.629054E-2,-5.5991434E-3,-2.7098227E-2,4.60422E-2,-2.4570485E-3,5.3045608E-2,-4.8451837E-2,-8.586111E-3],"split_indices":[1482,1939,407,1738,567,1261,2053,1923,259,1991,0,807,2050,2051,0,1627,2052,1088,0,809,2049,2048,0,0,0,0,0,207,448,378,0,0,2049,0,2048,1096,2053,0,0,0,0,0,0,0,0,0,0,0,0,0,0,0,0],"split_type":[0,0,0,0,0,0,0,0,0,0,0,0,0,0,0,0,0,0,0,0,0,0,0,0,0,0,0,0,0,0,0,0,0,0,0,0,0,0,0,0,0,0,0,0,0,0,0,0,0,0,0,0,0],"sum_hessian":[1.2880167E2,8.9788025E1,3.9013645E1,6.650752E1,2.3280499E1,1.1805137E1,2.7208508E1,5.3241627E1,1.3265901E1,2.1634195E1,1.6463041E0,4.71469E0,7.0904465E0,2.2689354E0,2.4939573E1,4.6371677E1,6.8699503E0,1.1349139E1,1.9167613E0,1.4562043E1,7.072151E0,3.2884243E0,1.4262656E0,5.9703784E0,1.1200682E0,1.1312566E0,1.1376787E0,4.345066E1,2.921016E0,4.3825545E0,2.4873955E0,1.8554126E0,9.493727E0,1.18376045E1,2.724439E0,4.275698E0,2.7964535E0,1.8905689E0,1.3978555E0,3.397126E1,9.479399E0,1.5797915E0,1.3412246E0,2.0502622E0,2.3322923E0,8.353496E0,1.1402304E0,1.1598257E0,1.5646131E0,1.8377074E0,2.4379907E0,1.1759316E0,1.6205219E0],"tree_param":{"num_deleted":"0","num_feature":"2054","num_nodes":"53","size_leaf_vector":"1"}},{"base_weights":[2.4033904E-3,-4.2160672E-1,9.831742E-1,-8.073216E-1,6.8841034E-1,1.6191593E-1,1.326538E0,-1.1087402E0,4.198485E-1,8.419314E-1,-4.2772513E-2,-1.0743972E0,1.0357105E0,4.4315153E-1,6.9391124E-2,-1.3009874E0,2.0646916E-1,8.6989385E-1,-7.9028286E-2,1.1720055E0,1.1148631E-1,-6.100669E-1,-7.2630875E-2,6.256355E-2,-7.693086E-3,3.998245E-2,-5.902516E-3,-1.4373101E0,6.072155E-1,-2.01563E-1,3.9160956E-2,-1.8160326E-2,1.1284513E0,6.6664875E-2,3.1037948E-1,6.468112E-1,-6.522431E-1,-4.874845E-2,4.398979E-3,-8.8266335E-2,-9.583902E-3,7.036528E-3,4.295823E-2,1.848004E-2,-3.295633E-2,6.483372E-2,-6.212247E-3,-2.6705325E-2,4.5304064E-2,-2.3763913E-3,5.1855464E-2,-4.684892E-2,-8.308426E-3],"categories":[],"categories_nodes":[],"categories_segments":[],"categories_sizes":[],"default_left":[0,0,0,0,0,0,0,0,0,0,0,0,0,0,0,0,0,0,0,0,0,0,0,0,0,0,0,0,0,0,0,0,0,0,0,0,0,0,0,0,0,0,0,0,0,0,0,0,0,0,0,0,0],"id":3,"left_children":[1,3,5,7,9,11,13,15,17,19,-1,21,23,25,-1,27,29,31,-1,33,35,37,-1,-1,-1,-1,-1,39,41,43,-1,-1,45,-1,47,49,51,-1,-1,-1,-1,-1,-1,-1,-1,-1,-1,-1,-1,-1,-1,-1,-1],"loss_changes":[5.410201E1,3.944628E1,1.0858158E1,2.5570107E1,6.39999E0,1.4849758E1,8.765373E-1,1.411483E1,1.4076462E1,5.2459536E0,0E0,1.2476778E-1,2.2335443E0,7.459073E-1,0E0,1.3336899E1,2.0044823E0,4.28755E0,0E0,1.7061329E0,3.7113578E0,1.1831528E0,0E0,0E0,0E0,0E0,0E0,1.805503E1,3.372017E-1,1.6524957E0,0E0,0E0,2.3311615E0,0E0,2.3496597E0,1.4672472E0,3.7210143E-1,0E0,0E0,0E0,0E0,0E0,0E0,0E0,0E0,0E0,0E0,0E0,0E0,0E0,0E0,0E0,0E0],"parents":[2147483647,0,0,1,1,2,2,3,3,4,4,5,5,6,6,7,7,8,8,9,9,11,11,12,12,13,13,15,15,16,16,17,17,19,19,20,20,21,21,27,27,28,28,29,29,32,32,34,34,35,35,36,36],"right_children":[2,4,6,8,10,12,14,16,18,20,-1,22,24,26,-1,28,30,32,-1,34,36,38,-1,-1,-1,-1,-1,40,42,44,-1,-1,46,-1,48,50,52,-1,-1,-1,-1,-1,-1,-1,-1,-1,-1,-1,-1,-1,-1,-1,-1],"split_conditions":[1E0,1E0,1E0,1E0,1E0,1E0,5E0,1E0,1E0,1E0,-4.2772513E-2,1E0,1E0,4.06551E2,6.9391124E-2,1E0,6.409E1,1E0,-7.9028286E-2,1E0,4.61934E0,4.49558E2,-7.2630875E-2,6.256355E-2,-7.693086E-3,3.998245E-2,-5.902516E-3,1E0,1E0,1E0,3.9160956E-2,-1.8160326E-2,3.97454E2,6.6664875E-2,1E0,1E0,8E0,-4.874845E-2,4.398979E-3,-8.8266335E-2,-9.583902E-3,7.036528E-3,4.295823E-2,1.848004E-2,-3.295633E-2,6.483372E-2,-6.212247E-3,-2.6705325E-2,4.5304064E-2,-2.3763913E-3,5.1855464E-2,-4.684892E-2,-8.308426E-3],"split_indices":[1482,1939,407,1738,567,1261,2053,1923,259,1991,0,807,265,2048,0,1627,2052,1088,0,809,2049,2048,0,0,0,0,0,207,1928,378,0,0,2048,0,695,1096,2053,0,0,0,0,0,0,0,0,0,0,0,0,0,0,0,0],"split_type":[0,0,0,0,0,0,0,0,0,0,0,0,0,0,0,0,0,0,0,0,0,0,0,0,0,0,0,0,0,0,0,0,0,0,0,0,0,0,0,0,0,0,0,0,0,0,0,0,0,0,0,0,0],"sum_hessian":[1.2810094E2,8.983382E1,3.8267124E1,6.687011E1,2.2963703E1,1.1716097E1,2.655103E1,5.3761635E1,1.3108476E1,2.1300268E1,1.663434E0,4.756562E0,6.959534E0,2.2564502E0,2.4294579E1,4.6914806E1,6.84683E0,1.1162355E1,1.94612E0,1.4254449E1,7.0458198E0,3.3081872E0,1.4483749E0,5.847967E0,1.1115674E0,1.1200584E0,1.1363918E0,4.4016987E1,2.897818E0,4.390916E0,2.4559135E0,1.8646779E0,9.297678E0,1.1545728E1,2.708721E0,4.2323236E0,2.8134964E0,1.9119891E0,1.3961983E0,3.4511692E1,9.505295E0,1.5628189E0,1.3349991E0,2.0385244E0,2.3523917E0,8.165972E0,1.1317062E0,1.1631714E0,1.5455495E0,1.8389914E0,2.3933322E0,1.1892236E0,1.6242728E0],"tree_param":{"num_deleted":"0","num_feature":"2054","num_nodes":"53","size_leaf_vector":"1"}},{"base_weights":[2.9549138E-3,-4.0102276E-1,9.5463985E-1,-6.9681466E-1,9.3211436E-1,1.5053594E-1,1.2966092E0,-4.0056723E-1,-1.7494127E0,1.2926307E0,-4.5852792E-1,-1.0345654E0,1.0083389E0,4.3323988E-1,6.788336E-2,-7.439402E-1,3.5178864E-1,-2.0128934E-2,-1.9286017E0,6.77269E-2,1.5322088E-2,-4.5503143E-2,8.8063255E-3,-5.874415E-1,-6.9961146E-2,6.120933E-2,-7.85953E-3,3.95691E-2,-6.2384936E-3,-1.3173828E0,4.2503166E-1,-3.6172897E-1,9.14405E-1,-1.0078086E-1,-2.6266102E-2,-4.6841722E-2,4.273778E-3,-7.519758E-2,1.8308466E-2,4.5150824E-2,-5.1560976E-2,1.7746473E-2,-6.2968634E-2,5.518026E-2,-8.434877E-4],"categories":[],"categories_nodes":[],"categories_segments":[],"categories_sizes":[],"default_left":[0,0,0,0,0,0,0,0,0,0,0,0,0,0,0,0,0,0,0,0,0,0,0,0,0,0,0,0,0,0,0,0,0,0,0,0,0,0,0,0,0,0,0,0,0],"id":4,"left_children":[1,3,5,7,9,11,13,15,17,19,21,23,25,27,-1,29,31,-1,33,-1,-1,-1,-1,35,-1,-1,-1,-1,-1,37,39,41,43,-1,-1,-1,-1,-1,-1,-1,-1,-1,-1,-1,-1],"loss_changes":[4.9662148E1,3.64099E1,1.03892975E1,2.2621277E1,9.063095E0,1.3869144E1,8.285446E-1,1.5674609E1,3.1162262E0,4.200325E-1,1.3685799E0,1.2228727E-1,2.1611342E0,7.469944E-1,0E0,2.8235695E1,8.108739E0,0E0,6.471863E-1,0E0,0E0,0E0,0E0,1.0969653E0,0E0,0E0,0E0,0E0,0E0,9.3274E0,1.0915375E1,6.40312E0,1.9773474E0,0E0,0E0,0E0,0E0,0E0,0E0,0E0,0E0,0E0,0E0,0E0,0E0],"parents":[2147483647,0,0,1,1,2,2,3,3,4,4,5,5,6,6,7,7,8,8,9,9,10,10,11,11,12,12,13,13,15,15,16,16,18,18,23,23,29,29,30,30,31,31,32,32],"right_children":[2,4,6,8,10,12,14,16,18,20,22,24,26,28,-1,30,32,-1,34,-1,-1,-1,-1,36,-1,-1,-1,-1,-1,38,40,42,44,-1,-1,-1,-1,-1,-1,-1,-1,-1,-1,-1,-1],"split_conditions":[1E0,1E0,1E0,1E0,4.8015E0,1E0,5E0,1E0,3.57461E2,1E0,5.0119E0,1E0,2E0,5E0,6.788336E-2,1E0,4E0,-2.0128934E-2,1E0,6.77269E-2,1.5322088E-2,-4.5503143E-2,8.8063255E-3,4.49558E2,-6.9961146E-2,6.120933E-2,-7.85953E-3,3.95691E-2,-6.2384936E-3,1E0,1E0,1E0,1E0,-1.0078086E-1,-2.6266102E-2,-4.6841722E-2,4.273778E-3,-7.519758E-2,1.8308466E-2,4.5150824E-2,-5.1560976E-2,1.7746473E-2,-6.2968634E-2,5.518026E-2,-8.434877E-4],"split_indices":[1482,476,407,1683,2049,1261,2053,1508,2048,1447,2049,807,2050,2051,0,1738,2053,0,538,0,0,0,0,2048,0,0,0,0,0,140,1171,1199,288,0,0,0,0,0,0,0,0,0,0,0,0],"split_type":[0,0,0,0,0,0,0,0,0,0,0,0,0,0,0,0,0,0,0,0,0,0,0,0,0,0,0,0,0,0,0,0,0,0,0,0,0,0,0,0,0,0,0,0,0],"sum_hessian":[1.2717818E2,8.968619E1,3.7491985E1,7.379101E1,1.5895184E1,1.1616722E1,2.5875261E1,5.8661602E1,1.5129405E1,1.2678763E1,3.21642E0,4.791265E0,6.8254566E0,2.2437544E0,2.3631508E1,4.028626E1,1.8375341E1,2.1577597E0,1.2971645E1,1.1578428E1,1.1003354E0,1.6257818E0,1.5906382E0,3.3251185E0,1.4661466E0,5.71648E0,1.1089767E0,1.111895E0,1.1318593E0,2.694255E1,1.3343708E1,8.258659E0,1.0116683E1,1.1803372E1,1.168273E0,1.9305414E0,1.3945771E0,2.4350721E1,2.5918305E0,1.0332258E1,3.01145E0,4.928475E0,3.3301842E0,8.254608E0,1.8620751E0],"tree_param":{"num_deleted":"0","num_feature":"2054","num_nodes":"45","size_leaf_vector":"1"}},{"base_weights":[2.44813E-3,-3.8324326E-1,9.2794234E-1,-6.638042E-1,9.0415376E-1,1.3992977E-1,1.2688986E0,-3.8153446E-1,-1.6579872E0,1.2624226E0,-4.4277E-1,-9.9729013E-1,9.8243195E-1,4.236033E-1,6.649699E-2,-6.3127273E-1,5.702352E-1,-1.9397048E-2,-1.8256038E0,6.619389E-2,1.4963011E-2,-4.378938E-2,8.550113E-3,-5.659507E-1,-6.7496054E-2,-8.752796E-3,6.006038E-2,3.8990125E-2,-6.3177156E-3,-8.0872315E-1,5.6664985E-2,7.930694E-1,-3.7718706E-2,-9.5301844E-2,-2.5465945E-2,-4.5048054E-2,4.1521485E-3,-5.463441E-2,2.9477477E-2,4.9337596E-2,-2.5610626E-2],"categories":[],"categories_nodes":[],"categories_segments":[],"categories_sizes":[],"default_left":[0,0,0,0,0,0,0,0,0,0,0,0,0,0,0,0,0,0,0,0,0,0,0,0,0,0,0,0,0,0,0,0,0,0,0,0,0,0,0,0,0],"id":5,"left_children":[1,3,5,7,9,11,13,15,17,19,21,23,25,27,-1,29,31,-1,33,-1,-1,-1,-1,35,-1,-1,-1,-1,-1,37,-1,39,-1,-1,-1,-1,-1,-1,-1,-1,-1],"loss_changes":[4.574382E1,3.327322E1,9.950298E0,2.037217E1,8.574043E0,1.2963949E1,7.8782654E-1,1.4525594E1,2.7517128E0,3.957615E-1,1.2740045E0,1.211462E-1,2.1573296E0,7.3147786E-1,0E0,1.5847374E1,4.4096937E0,0E0,5.2077484E-1,0E0,0E0,0E0,0E0,1.0182949E0,0E0,0E0,0E0,0E0,0E0,1.8079132E1,0E0,3.423048E0,0E0,0E0,0E0,0E0,0E0,0E0,0E0,0E0,0E0],"parents":[2147483647,0,0,1,1,2,2,3,3,4,4,5,5,6,6,7,7,8,8,9,9,10,10,11,11,12,12,13,13,15,15,16,16,18,18,23,23,29,29,31,31],"right_children":[2,4,6,8,10,12,14,16,18,20,22,24,26,28,-1,30,32,-1,34,-1,-1,-1,-1,36,-1,-1,-1,-1,-1,38,-1,40,-1,-1,-1,-1,-1,-1,-1,-1,-1],"split_conditions":[1E0,1E0,1E0,1E0,4.8015E0,1E0,5E0,1E0,3.57461E2,1E0,5.0119E0,1E0,1E0,4.06551E2,6.649699E-2,1E0,1E0,-1.9397048E-2,1E0,6.619389E-2,1.4963011E-2,-4.378938E-2,8.550113E-3,4.49558E2,-6.7496054E-2,-8.752796E-3,6.006038E-2,3.8990125E-2,-6.3177156E-3,1E0,5.6664985E-2,1E0,-3.7718706E-2,-9.5301844E-2,-2.5465945E-2,-4.5048054E-2,4.1521485E-3,-5.463441E-2,2.9477477E-2,4.9337596E-2,-2.5610626E-2],"split_indices":[1482,476,407,1683,2049,1261,2053,231,2048,1447,2049,807,378,2048,0,1781,1309,0,538,0,0,0,0,2048,0,0,0,0,0,750,0,1440,0,0,0,0,0,0,0,0,0],"split_type":[0,0,0,0,0,0,0,0,0,0,0,0,0,0,0,0,0,0,0,0,0,0,0,0,0,0,0,0,0,0,0,0,0,0,0,0,0,0,0,0,0],"sum_hessian":[1.2615377E2,8.94586E1,3.6695168E1,7.384914E1,1.5609472E1,1.1508143E1,2.5187023E1,5.8596195E1,1.5252939E1,1.2379405E1,3.2300673E0,4.8192863E0,6.688857E0,2.2310581E0,2.2955965E1,4.6683483E1,1.1912712E1,2.1647656E0,1.3088174E1,1.1284856E1,1.0945495E0,1.6436062E0,1.586461E0,3.3394258E0,1.4798605E0,1.0950506E0,5.5938063E0,1.1004083E0,1.1306498E0,4.291002E1,3.773464E0,1.0540758E1,1.3719531E0,1.1912221E1,1.1759526E0,1.9464338E0,1.392992E0,3.5848377E1,7.0616436E0,9.391278E0,1.1494806E0],"tree_param":{"num_deleted":"0","num_feature":"2054","num_nodes":"41","size_leaf_vector":"1"}},{"base_weights":[2.5167298E-3,-3.6561856E-1,9.0284544E-1,-6.3162583E-1,8.7785923E-1,1.2996541E-1,1.2431552E0,-3.6200795E-1,-1.5775089E0,1.2342974E0,-4.2768866E-1,-9.623286E-1,9.5769083E-1,4.1427445E-1,6.52179E-2,-6.8546647E-1,3.515231E-1,-1.8694973E-2,-1.7358329E0,6.477473E-2,1.4613035E-2,-4.216896E-2,8.3013885E-3,-5.455116E-1,-6.52136E-2,5.8918327E-2,-9.248256E-3,3.8604524E-2,-6.6320444E-3,-1.2045649E0,4.0043995E-1,-3.173895E-1,8.9011234E-1,-9.055459E-2,-2.469483E-2,-4.3357193E-2,4.0339767E-3,-6.888928E-2,1.8505441E-2,4.318806E-2,-4.8131116E-2,5.151052E-2,-3.710837E-2,5.349609E-2,9.652194E-4],"categories":[],"categories_nodes":[],"categories_segments":[],"categories_sizes":[],"default_left":[0,0,0,0,0,0,0,0,0,0,0,0,0,0,0,0,0,0,0,0,0,0,0,0,0,0,0,0,0,0,0,0,0,0,0,0,0,0,0,0,0,0,0,0,0],"id":6,"left_children":[1,3,5,7,9,11,13,15,17,19,21,23,25,27,-1,29,31,-1,33,-1,-1,-1,-1,35,-1,-1,-1,-1,-1,37,39,41,43,-1,-1,-1,-1,-1,-1,-1,-1,-1,-1,-1,-1],"loss_changes":[4.2122875E1,3.0393694E1,9.539417E0,1.8529072E1,8.120329E0,1.2125659E1,7.5278854E-1,1.3991787E1,2.4599686E0,3.7508392E-1,1.1869104E0,1.2102461E-1,2.1220155E0,7.32199E-1,0E0,2.3782282E1,7.2159357E0,0E0,4.2748642E-1,0E0,0E0,0E0,0E0,9.463285E-1,0E0,0E0,0E0,0E0,0E0,8.20612E0,9.748194E0,6.1003113E0,1.6898127E0,0E0,0E0,0E0,0E0,0E0,0E0,0E0,0E0,0E0,0E0,0E0,0E0],"parents":[2147483647,0,0,1,1,2,2,3,3,4,4,5,5,6,6,7,7,8,8,9,9,10,10,11,11,12,12,13,13,15,15,16,16,18,18,23,23,29,29,30,30,31,31,32,32],"right_children":[2,4,6,8,10,12,14,16,18,20,22,24,26,28,-1,30,32,-1,34,-1,-1,-1,-1,36,-1,-1,-1,-1,-1,38,40,42,44,-1,-1,-1,-1,-1,-1,-1,-1,-1,-1,-1,-1],"split_conditions":[1E0,1E0,1E0,1E0,4.8015E0,1E0,5E0,1E0,3.57461E2,1E0,5.0119E0,1E0,1E0,5E0,6.52179E-2,1E0,4E0,-1.8694973E-2,1E0,6.477473E-2,1.4613035E-2,-4.216896E-2,8.3013885E-3,4.49558E2,-6.52136E-2,5.8918327E-2,-9.248256E-3,3.8604524E-2,-6.6320444E-3,1E0,1E0,3.13401E2,1E0,-9.055459E-2,-2.469483E-2,-4.3357193E-2,4.0339767E-3,-6.888928E-2,1.8505441E-2,4.318806E-2,-4.8131116E-2,5.151052E-2,-3.710837E-2,5.349609E-2,9.652194E-4],"split_indices":[1482,476,407,1683,2049,1261,2053,1508,2048,1447,2049,807,265,2051,0,1738,2053,0,538,0,0,0,0,2048,0,0,0,0,0,140,1171,2048,288,0,0,0,0,0,0,0,0,0,0,0,0],"split_type":[0,0,0,0,0,0,0,0,0,0,0,0,0,0,0,0,0,0,0,0,0,0,0,0,0,0,0,0,0,0,0,0,0,0,0,0,0,0,0,0,0,0,0,0,0],"sum_hessian":[1.2509349E2,8.9210236E1,3.5883255E1,7.38946E1,1.5315633E1,1.1392217E1,2.449104E1,5.857959E1,1.5315013E1,1.2073833E1,3.2417996E0,4.8411093E0,6.551107E0,2.218212E0,2.2272827E1,4.033447E1,1.8245123E1,2.1711457E0,1.31438675E1,1.0985012E1,1.0888209E0,1.6594367E0,1.5823629E0,3.3513088E0,1.4898007E0,5.4645185E0,1.0865884E0,1.0920358E0,1.1261761E0,2.7215366E1,1.3119101E1,8.321168E0,9.923954E0,1.1960788E1,1.1830797E0,1.9598663E0,1.3914425E0,2.46309E1,2.584467E0,1.0064399E1,3.0547023E0,1.652704E0,6.668464E0,8.035984E0,1.8879699E0],"tree_param":{"num_deleted":"0","num_feature":"2054","num_nodes":"45","size_leaf_vector":"1"}},{"base_weights":[2.573666E-3,-3.4971675E-1,8.7917745E-1,-6.028336E-1,8.5304505E-1,1.2060707E-1,1.2191429E0,-3.4447852E-1,-1.5060127E0,1.2080134E0,-4.1324487E-1,-9.29465E-1,9.3407214E-1,4.0520078E-1,6.403395E-2,-6.529177E-1,3.4034282E-1,-1.8021163E-2,-1.6568213E0,6.345627E-2,1.4271887E-2,-4.0634304E-2,8.059918E-3,-5.260486E-1,-6.309453E-2,5.789729E-2,-1.0074232E-2,3.805847E-2,-6.6981385E-3,-1.1417519E0,3.8424462E-1,-2.9902402E-1,8.6425614E-1,-8.6399615E-2,-2.3951348E-2,-4.176004E-2,3.9191707E-3,-6.527986E-2,1.7889887E-2,4.1888922E-2,-4.5977585E-2,1.8756602E-2,-5.7073157E-2,1.482398E-2,5.961094E-2],"categories":[],"categories_nodes":[],"categories_segments":[],"categories_sizes":[],"default_left":[0,0,0,0,0,0,0,0,0,0,0,0,0,0,0,0,0,0,0,0,0,0,0,0,0,0,0,0,0,0,0,0,0,0,0,0,0,0,0,0,0,0,0,0,0],"id":7,"left_children":[1,3,5,7,9,11,13,15,17,19,21,23,25,27,-1,29,31,-1,33,-1,-1,-1,-1,35,-1,-1,-1,-1,-1,37,39,41,43,-1,-1,-1,-1,-1,-1,-1,-1,-1,-1,-1,-1],"loss_changes":[3.88483E1,2.783437E1,9.152786E0,1.6917183E1,7.6982765E0,1.1349015E1,7.228012E-1,1.2768892E1,2.2230186E0,3.5739517E-1,1.1065941E0,1.2167072E-1,2.1177464E0,7.1716666E-1,0E0,2.1376122E1,6.657336E0,0E0,3.581047E-1,0E0,0E0,0E0,0E0,8.8036096E-1,0E0,0E0,0E0,0E0,0E0,7.425087E0,9.035241E0,5.7363334E0,1.6494741E0,0E0,0E0,0E0,0E0,0E0,0E0,0E0,0E0,0E0,0E0,0E0,0E0],"parents":[2147483647,0,0,1,1,2,2,3,3,4,4,5,5,6,6,7,7,8,8,9,9,10,10,11,11,12,12,13,13,15,15,16,16,18,18,23,23,29,29,30,30,31,31,32,32],"right_children":[2,4,6,8,10,12,14,16,18,20,22,24,26,28,-1,30,32,-1,34,-1,-1,-1,-1,36,-1,-1,-1,-1,-1,38,40,42,44,-1,-1,-1,-1,-1,-1,-1,-1,-1,-1,-1,-1],"split_conditions":[1E0,1E0,1E0,1E0,4.8015E0,1E0,5E0,1E0,3.57461E2,1E0,5.0119E0,1E0,1E0,4.06551E2,6.403395E-2,1E0,4E0,-1.8021163E-2,1E0,6.345627E-2,1.4271887E-2,-4.0634304E-2,8.059918E-3,4.49558E2,-6.309453E-2,5.789729E-2,-1.0074232E-2,3.805847E-2,-6.6981385E-3,1E0,1E0,1E0,4.24573E2,-8.6399615E-2,-2.3951348E-2,-4.176004E-2,3.9191707E-3,-6.527986E-2,1.7889887E-2,4.1888922E-2,-4.5977585E-2,1.8756602E-2,-5.7073157E-2,1.482398E-2,5.961094E-2],"split_indices":[1482,476,407,1683,2049,1261,2053,1508,2048,1447,2049,807,739,2048,0,1738,2053,0,538,0,0,0,0,2048,0,0,0,0,0,140,1171,1199,2048,0,0,0,0,0,0,0,0,0,0,0,0],"split_type":[0,0,0,0,0,0,0,0,0,0,0,0,0,0,0,0,0,0,0,0,0,0,0,0,0,0,0,0,0,0,0,0,0,0,0,0,0,0,0,0,0,0,0,0,0],"sum_hessian":[1.2380068E2,8.873916E1,3.5061527E1,7.3723175E1,1.5015985E1,1.1269801E1,2.3791727E1,5.8399384E1,1.5323788E1,1.1764236E1,3.2517478E0,4.857209E0,6.412592E0,2.205405E0,2.1586323E1,4.0296627E1,1.8102757E1,2.1769466E0,1.3146841E1,1.0681083E1,1.0831538E0,1.6734035E0,1.5783443E0,3.360959E0,1.4962503E0,5.3400846E0,1.0725075E0,1.0803635E0,1.1250415E0,2.731956E1,1.2977068E1,8.346368E0,9.756389E0,1.1957157E1,1.1896837E0,1.971031E0,1.3899281E0,2.474517E1,2.5743895E0,9.893116E0,3.083952E0,4.9443746E0,3.4019938E0,4.269293E0,5.4870954E0],"tree_param":{"num_deleted":"0","num_feature":"2054","num_nodes":"45","size_leaf_vector":"1"}},{"base_weights":[2.3941575E-3,-3.3532983E-1,8.567732E-1,-5.9514374E-1,7.541706E-1,1.1177258E-1,1.1966767E0,-7.643122E-1,6.84472E-1,1.0441529E0,-3.9940205E-1,-6.969534E-1,5.5889487E-2,3.964129E-1,6.293466E-2,-1.023004E0,3.2591096E-1,5.8756214E-2,-2.4383517E-2,-2.3924222E-2,1.2153686E0,-3.917861E-2,7.825482E-3,-1.0025216E0,4.115585E-3,3.7697982E-2,-6.9920816E-3,-1.1848469E0,4.55521E-2,6.974624E-1,-6.744372E-2,-6.028538E-1,4.1594934E-2,6.383262E-2,1.3523777E-2,-6.859396E-2,-5.1134735E-1,-7.233085E-2,9.7205205E-4,4.719865E-2,-3.1390812E-2,-4.376375E-2,-2.1212492E-3,-3.306076E-2,-4.2132153E-3],"categories":[],"categories_nodes":[],"categories_segments":[],"categories_sizes":[],"default_left":[0,0,0,0,0,0,0,0,0,0,0,0,0,0,0,0,0,0,0,0,0,0,0,0,0,0,0,0,0,0,0,0,0,0,0,0,0,0,0,0,0,0,0,0,0],"id":8,"left_children":[1,3,5,7,9,11,13,15,17,19,21,23,-1,25,-1,27,29,-1,31,-1,33,-1,-1,35,-1,-1,-1,37,-1,39,-1,41,-1,-1,-1,-1,43,-1,-1,-1,-1,-1,-1,-1,-1],"loss_changes":[3.5887676E1,2.5682732E1,8.788681E0,1.6225584E1,6.3065405E0,1.0657825E1,6.96743E-1,1.853598E1,3.1580195E0,4.321535E0,1.0324305E0,1.8319912E0,0E0,7.175523E-1,0E0,1.7482811E1,9.114842E0,0E0,2.8098063E0,0E0,4.1781235E-1,0E0,0E0,2.6971292E-1,0E0,0E0,0E0,1.5409927E1,0E0,4.320228E0,0E0,4.7600317E-1,0E0,0E0,0E0,0E0,1.933968E-1,0E0,0E0,0E0,0E0,0E0,0E0,0E0,0E0],"parents":[2147483647,0,0,1,1,2,2,3,3,4,4,5,5,6,6,7,7,8,8,9,9,10,10,11,11,13,13,15,15,16,16,18,18,20,20,23,23,27,27,29,29,31,31,36,36],"right_children":[2,4,6,8,10,12,14,16,18,20,22,24,-1,26,-1,28,30,-1,32,-1,34,-1,-1,36,-1,-1,-1,38,-1,40,-1,42,-1,-1,-1,-1,44,-1,-1,-1,-1,-1,-1,-1,-1],"split_conditions":[1E0,1E0,1E0,1E0,4.8015E0,1E0,5E0,1E0,6E0,1E0,5.0119E0,1E0,5.5889487E-2,5E0,6.293466E-2,1E0,1E0,5.8756214E-2,4.4653E2,-2.3924222E-2,1E0,-3.917861E-2,7.825482E-3,1E0,4.115585E-3,3.7697982E-2,-6.9920816E-3,1E0,4.55521E-2,1E0,-6.744372E-2,1E0,4.1594934E-2,6.383262E-2,1.3523777E-2,-6.859396E-2,4.49558E2,-7.233085E-2,9.7205205E-4,4.719865E-2,-3.1390812E-2,-4.376375E-2,-2.1212492E-3,-3.306076E-2,-4.2132153E-3],"split_indices":[1482,364,407,750,2049,802,2053,231,2051,1357,2049,1,0,2051,0,1781,1309,0,2048,0,1669,0,0,430,0,0,0,207,0,1440,0,1028,0,0,0,0,2048,0,0,0,0,0,0,0,0],"split_type":[0,0,0,0,0,0,0,0,0,0,0,0,0,0,0,0,0,0,0,0,0,0,0,0,0,0,0,0,0,0,0,0,0,0,0,0,0,0,0,0,0,0,0,0,0],"sum_hessian":[1.2237923E2,8.814447E1,3.423475E1,7.153841E1,1.6606068E1,1.1142172E1,2.3092579E1,6.3540844E1,7.99756E0,1.3346028E1,3.260039E0,6.347058E0,4.7951136E0,2.1925E0,2.0900078E1,5.140496E1,1.2135884E1,4.337484E0,3.6600761E0,1.1676228E0,1.2178406E1,1.6856334E0,1.5744058E0,4.353465E0,1.9935925E0,1.0718637E0,1.1206365E0,4.7792973E1,3.6119895E0,1.040998E1,1.7259047E0,2.361025E0,1.299051E0,1.1106928E1,1.0714781E0,1.4614283E0,2.892037E0,3.909407E1,8.698902E0,9.01993E0,1.3900497E0,1.2107105E0,1.1503145E0,1.7349968E0,1.1570402E0],"tree_param":{"num_deleted":"0","num_feature":"2054","num_nodes":"45","size_leaf_vector":"1"}},{"base_weights":[3.061437E-3,-3.2069418E-1,8.3525294E-1,-5.682139E-1,7.313852E-1,1.0373056E-1,1.1755772E0,-7.2974026E-1,6.650481E-1,1.0192217E0,-3.8612622E-1,-8.7566704E-1,8.9415747E-1,3.8786212E-1,6.191097E-2,-8.641295E-1,5.4861493E-2,5.7499267E-2,-2.4010021E-2,-2.3218764E-2,1.19079E0,-3.7795767E-2,7.5978697E-3,-4.8660845E-1,-6.0330667E-2,5.593897E-2,-9.946393E-3,3.7181895E-2,-7.04604E-3,-1.2053249E0,-4.840138E-2,-5.847034E-1,4.0779896E-2,6.2651984E-2,1.2709409E-2,-3.8756892E-2,3.8880673E-3,-6.452556E-2,1.8941896E-2,1.6664185E-2,-5.1308393E-2,-4.2394854E-2,-2.0639752E-3],"categories":[],"categories_nodes":[],"categories_segments":[],"categories_sizes":[],"default_left":[0,0,0,0,0,0,0,0,0,0,0,0,0,0,0,0,0,0,0,0,0,0,0,0,0,0,0,0,0,0,0,0,0,0,0,0,0,0,0,0,0,0,0],"id":9,"left_children":[1,3,5,7,9,11,13,15,17,19,21,23,25,27,-1,29,-1,-1,31,-1,33,-1,-1,35,-1,-1,-1,-1,-1,37,39,41,-1,-1,-1,-1,-1,-1,-1,-1,-1,-1,-1],"loss_changes":[3.3115417E1,2.3460056E1,8.447971E0,1.486816E1,5.9555254E0,1.0093346E1,6.742439E-1,1.6739544E1,2.9964116E0,4.1227856E0,9.6386313E-1,1.694951E-1,1.9781466E0,7.029789E-1,0E0,1.6771656E1,0E0,0E0,2.665687E0,0E0,4.307747E-1,0E0,0E0,7.730048E-1,0E0,0E0,0E0,0E0,0E0,6.2369347E0,7.3862176E0,4.4702947E-1,0E0,0E0,0E0,0E0,0E0,0E0,0E0,0E0,0E0,0E0,0E0],"parents":[2147483647,0,0,1,1,2,2,3,3,4,4,5,5,6,6,7,7,8,8,9,9,10,10,11,11,12,12,13,13,15,15,18,18,20,20,23,23,29,29,30,30,31,31],"right_children":[2,4,6,8,10,12,14,16,18,20,22,24,26,28,-1,30,-1,-1,32,-1,34,-1,-1,36,-1,-1,-1,-1,-1,38,40,42,-1,-1,-1,-1,-1,-1,-1,-1,-1,-1,-1],"split_conditions":[1E0,1E0,1E0,1E0,4.8015E0,1E0,5E0,1E0,6E0,1E0,5.0119E0,1E0,2E0,4.06551E2,6.191097E-2,1E0,5.4861493E-2,5.7499267E-2,4.4653E2,-2.3218764E-2,1E0,-3.7795767E-2,7.5978697E-3,4.49558E2,-6.0330667E-2,5.593897E-2,-9.946393E-3,3.7181895E-2,-7.04604E-3,1E0,4.43551E2,1E0,4.0779896E-2,6.2651984E-2,1.2709409E-2,-3.8756892E-2,3.8880673E-3,-6.452556E-2,1.8941896E-2,1.6664185E-2,-5.1308393E-2,-4.2394854E-2,-2.0639752E-3],"split_indices":[1482,364,407,750,2049,1261,2053,475,2051,1357,2049,807,2050,2048,0,1145,0,0,2048,0,1447,0,0,2048,0,0,0,0,0,1063,2048,1028,0,0,0,0,0,0,0,0,0,0,0],"split_type":[0,0,0,0,0,0,0,0,0,0,0,0,0,0,0,0,0,0,0,0,0,0,0,0,0,0,0,0,0,0,0,0,0,0,0,0,0,0,0,0,0,0,0],"sum_hessian":[1.20916504E2,8.749291E1,3.3423588E1,7.120146E1,1.6291449E1,1.1026681E1,2.2396906E1,6.331683E1,7.8846335E0,1.3024653E1,3.2667954E0,4.8764977E0,6.150183E0,2.179667E0,2.021724E1,5.9469368E1,3.847464E0,4.2351475E0,3.649486E0,1.1731827E0,1.1851471E1,1.6962482E0,1.5705472E0,3.3769403E0,1.4995575E0,5.0822983E0,1.0678853E0,1.0600944E0,1.1195725E0,4.1594143E1,1.7875225E1,2.370234E0,1.2792518E0,1.079607E1,1.0554001E0,1.9874272E0,1.3895131E0,3.9647514E1,1.9466255E0,1.3330581E1,4.544645E0,1.2193742E0,1.1508598E0],"tree_param":{"num_deleted":"0","num_feature":"2054","num_nodes":"43","size_leaf_vector":"1"}},{"base_weights":[4.06785E-3,-3.0600646E-1,8.1498903E-1,-5.415177E-1,7.096648E-1,9.586532E-2,1.1557057E0,-6.955246E-1,6.466467E-1,9.9553454E-1,-3.7338552E-1,-6.590433E-1,5.3933214E-2,3.7957752E-1,6.0954936E-2,-9.340342E-1,3.203703E-1,5.6312233E-2,-2.3540316E-2,-2.2537459E-2,1.1675886E0,-3.6480267E-2,7.37689E-3,-9.455416E-1,4.034191E-3,3.6844168E-2,-7.3207985E-3,-1.0841763E0,4.440883E-2,6.801655E-1,-6.370386E-2,-5.672843E-1,3.999566E-2,6.154867E-2,1.201111E-2,-6.513451E-2,-4.766912E-1,-6.662049E-2,2.2440993E-3,4.595423E-2,-2.9148001E-2,-4.109034E-2,-2.0082472E-3,-3.3197068E-2,-5.052264E-3],"categories":[],"categories_nodes":[],"categories_segments":[],"categories_sizes":[],"default_left":[0,0,0,0,0,0,0,0,0,0,0,0,0,0,0,0,0,0,0,0,0,0,0,0,0,0,0,0,0,0,0,0,0,0,0,0,0,0,0,0,0,0,0,0,0],"id":10,"left_children":[1,3,5,7,9,11,13,15,17,19,21,23,-1,25,-1,27,29,-1,31,-1,33,-1,-1,35,-1,-1,-1,37,-1,39,-1,41,-1,-1,-1,-1,43,-1,-1,-1,-1,-1,-1,-1,-1],"loss_changes":[3.054415E1,2.1406115E1,8.121571E0,1.3607876E1,5.62741E0,9.533744E0,6.5448E-1,1.5840105E1,2.8451316E0,3.9361286E0,9.0039515E-1,1.6332269E0,0E0,7.0305777E-1,0E0,1.5244072E1,8.289817E0,0E0,2.5301456E0,0E0,4.4050598E-1,0E0,0E0,2.7891064E-1,0E0,0E0,0E0,1.3702137E1,0E0,3.9186196E0,0E0,4.2021394E-1,0E0,0E0,0E0,0E0,2.0729226E-1,0E0,0E0,0E0,0E0,0E0,0E0,0E0,0E0],"parents":[2147483647,0,0,1,1,2,2,3,3,4,4,5,5,6,6,7,7,8,8,9,9,10,10,11,11,13,13,15,15,16,16,18,18,20,20,23,23,27,27,29,29,31,31,36,36],"right_children":[2,4,6,8,10,12,14,16,18,20,22,24,-1,26,-1,28,30,-1,32,-1,34,-1,-1,36,-1,-1,-1,38,-1,40,-1,42,-1,-1,-1,-1,44,-1,-1,-1,-1,-1,-1,-1,-1],"split_conditions":[1E0,1E0,1E0,1E0,4.8015E0,1E0,5E0,1E0,6E0,1E0,5.0119E0,1E0,5.3933214E-2,5E0,6.0954936E-2,1E0,1E0,5.6312233E-2,4.4653E2,-2.2537459E-2,1E0,-3.6480267E-2,7.37689E-3,1E0,4.034191E-3,3.6844168E-2,-7.3207985E-3,1E0,4.440883E-2,1E0,-6.370386E-2,1E0,3.999566E-2,6.154867E-2,1.201111E-2,-6.513451E-2,1E0,-6.662049E-2,2.2440993E-3,4.595423E-2,-2.9148001E-2,-4.109034E-2,-2.0082472E-3,-3.3197068E-2,-5.052264E-3],"split_indices":[1482,364,407,750,2049,802,2053,231,2051,1357,2049,1,0,2051,0,1781,1309,0,2048,0,1669,0,0,430,0,0,0,207,0,1440,0,1028,0,0,0,0,1088,0,0,0,0,0,0,0,0],"split_type":[0,0,0,0,0,0,0,0,0,0,0,0,0,0,0,0,0,0,0,0,0,0,0,0,0,0,0,0,0,0,0,0,0,0,0,0,0,0,0,0,0,0,0,0,0],"sum_hessian":[1.1948224E2,8.6883125E1,3.259911E1,7.0908E1,1.5975127E1,1.089187E1,2.1707243E1,6.3138737E1,7.7692623E0,1.2702993E1,3.2721336E0,6.3464494E0,4.5454197E0,2.1667798E0,1.9540462E1,5.1198936E1,1.1939799E1,4.131903E0,3.637359E0,1.1783118E0,1.1524681E1,1.7053645E0,1.5667691E0,4.3741136E0,1.9723358E0,1.0515374E0,1.1152425E0,4.7675694E1,3.523243E0,1.020941E1,1.7303898E0,2.378124E0,1.2592349E0,1.0480931E1,1.0437498E0,1.4733253E0,2.9007883E0,3.8935314E1,8.740379E0,8.814523E0,1.3948864E0,1.2267352E0,1.1513886E0,1.4236623E0,1.477126E0],"tree_param":{"num_deleted":"0","num_feature":"2054","num_nodes":"45","size_leaf_vector":"1"}},{"base_weights":[4.687243E-3,-2.9317322E-1,7.951538E-1,-5.6915622E-2,-1.2694783E0,8.842828E-2,1.1369226E0,-2.7088434E-1,8.4619194E-1,-1.349691E-2,-1.3984846E0,-8.267389E-1,8.5778403E-1,3.7151405E-1,6.0059614E-2,-5.52043E-1,3.526134E-1,1.0677911E0,-2.5235778E-2,-1.4667721E0,-1.5838789E-2,-4.492783E-1,-5.797506E-2,5.43028E-2,-1.0655433E-2,3.635545E-2,-7.3635355E-3,-9.6393454E-1,3.4864378E-1,-2.0512669E-1,8.2245153E-1,1.1250108E0,1.1248156E-2,-7.668293E-2,-2.1415493E-2,-3.6467917E-2,4.4134944E-3,-5.61131E-2,2.1392006E-2,3.902452E-2,-4.133224E-2,5.212277E-2,-3.0277206E-2,5.0275534E-2,-2.841302E-4,5.8944404E-2,1.5918834E-2],"categories":[],"categories_nodes":[],"categories_segments":[],"categories_sizes":[],"default_left":[0,0,0,0,0,0,0,0,0,0,0,0,0,0,0,0,0,0,0,0,0,0,0,0,0,0,0,0,0,0,0,0,0,0,0,0,0,0,0,0,0,0,0,0,0,0,0],"id":11,"left_children":[1,3,5,7,9,11,13,15,17,-1,19,21,23,25,-1,27,29,31,-1,33,-1,35,-1,-1,-1,-1,-1,37,39,41,43,45,-1,-1,-1,-1,-1,-1,-1,-1,-1,-1,-1,-1,-1,-1,-1],"loss_changes":[2.8221182E1,2.0010887E1,7.82255E0,1.3978162E1,1.8039684E0,9.001075E0,6.372547E-1,1.0411209E1,4.6913385E0,0E0,6.245003E-1,2.1861076E-1,1.9154677E0,6.8892145E-1,0E0,1.5382029E1,5.0750318E0,3.3707142E-1,0E0,2.8731155E-1,0E0,7.255138E-1,0E0,0E0,0E0,0E0,0E0,6.671173E0,7.4773617E0,5.3076158E0,1.5765586E0,1.11816406E-1,0E0,0E0,0E0,0E0,0E0,0E0,0E0,0E0,0E0,0E0,0E0,0E0,0E0,0E0,0E0],"parents":[2147483647,0,0,1,1,2,2,3,3,4,4,5,5,6,6,7,7,8,8,10,10,11,11,12,12,13,13,15,15,16,16,17,17,19,19,21,21,27,27,28,28,29,29,30,30,31,31],"right_children":[2,4,6,8,10,12,14,16,18,-1,20,22,24,26,-1,28,30,32,-1,34,-1,36,-1,-1,-1,-1,-1,38,40,42,44,46,-1,-1,-1,-1,-1,-1,-1,-1,-1,-1,-1,-1,-1,-1,-1],"split_conditions":[1E0,1E0,1E0,1E0,3.57461E2,1E0,5E0,1E0,4.58537E2,-1.349691E-2,1E0,1E0,1E0,4.06551E2,6.0059614E-2,1E0,4E0,1E0,-2.5235778E-2,1E0,-1.5838789E-2,4.49558E2,-5.797506E-2,5.43028E-2,-1.0655433E-2,3.635545E-2,-7.3635355E-3,1E0,1E0,2.867E0,1E0,4.7374E0,1.1248156E-2,-7.668293E-2,-2.1415493E-2,-3.6467917E-2,4.4134944E-3,-5.61131E-2,2.1392006E-2,3.902452E-2,-4.133224E-2,5.212277E-2,-3.0277206E-2,5.0275534E-2,-2.841302E-4,5.8944404E-2,1.5918834E-2],"split_indices":[1482,1683,407,476,2048,1261,2053,1508,2048,0,1937,807,265,2048,0,1738,2053,1447,0,538,0,2048,0,0,0,0,0,140,1171,2049,288,2049,0,0,0,0,0,0,0,0,0,0,0,0,0,0,0],"split_type":[0,0,0,0,0,0,0,0,0,0,0,0,0,0,0,0,0,0,0,0,0,0,0,0,0,0,0,0,0,0,0,0,0,0,0,0,0,0,0,0,0,0,0,0,0,0,0],"sum_hessian":[1.1787116E2,8.6068344E1,3.1802818E1,7.015075E1,1.5917594E1,1.0776793E1,2.1026024E1,5.727979E1,1.2870958E1,2.173073E0,1.3744521E1,4.8879147E0,5.8888783E0,2.1539915E0,1.8872034E1,3.955676E1,1.7723034E1,1.1237212E1,1.6337465E0,1.2593523E1,1.1509975E0,3.3912652E0,1.4966494E0,4.842491E0,1.0463871E0,1.039747E0,1.1142445E0,2.7095528E1,1.246123E1,8.361084E0,9.361949E0,1.0209296E1,1.027916E0,1.1383468E1,1.2100556E0,1.994988E0,1.3962772E0,2.4501856E1,2.5936708E0,9.358479E0,3.102752E0,1.6419213E0,6.719163E0,7.491716E0,1.8702325E0,9.137489E0,1.071807E0],"tree_param":{"num_deleted":"0","num_feature":"2054","num_nodes":"47","size_leaf_vector":"1"}},{"base_weights":[4.8937122E-3,-2.814596E-1,7.76586E-1,-5.303254E-2,-1.2238336E0,8.134258E-2,1.1191221E0,-2.5843316E-1,8.261105E-1,-1.302657E-2,-1.349456E0,-6.2641585E-1,5.2205335E-2,3.6369884E-1,5.9218865E-2,-5.2849585E-1,3.4203896E-1,1.0476869E0,-2.4363957E-2,-1.4156832E0,-1.5410242E-2,-8.935112E-1,3.7570128E-3,3.60384E-2,-7.620226E-3,-9.2018753E-1,3.349799E-1,-1.923948E-1,7.992403E-1,1.1060084E0,1.0622128E-2,-7.404768E-2,-2.0785775E-2,-6.2042635E-2,-4.450666E-1,-5.360346E-2,2.0675523E-2,3.7873495E-2,-3.9617922E-2,5.0871458E-2,-2.8877413E-2,4.6745464E-2,-9.315169E-3,5.802405E-2,1.5548698E-2,-3.7592296E-3,-3.197091E-2],"categories":[],"categories_nodes":[],"categories_segments":[],"categories_sizes":[],"default_left":[0,0,0,0,0,0,0,0,0,0,0,0,0,0,0,0,0,0,0,0,0,0,0,0,0,0,0,0,0,0,0,0,0,0,0,0,0,0,0,0,0,0,0,0,0,0,0],"id":12,"left_children":[1,3,5,7,9,11,13,15,17,-1,19,21,-1,23,-1,25,27,29,-1,31,-1,33,-1,-1,-1,35,37,39,41,43,-1,-1,-1,-1,45,-1,-1,-1,-1,-1,-1,-1,-1,-1,-1,-1,-1],"loss_changes":[2.6123493E1,1.8498545E1,7.528057E0,1.293624E1,1.6789627E0,8.584443E0,6.2194633E-1,9.565962E0,4.4630766E0,0E0,5.7079697E-1,1.4411142E0,0E0,6.8872046E-1,0E0,1.3942791E1,4.6890903E0,3.4660816E-1,0E0,2.6239586E-1,0E0,2.8702116E-1,0E0,0E0,0E0,6.115059E0,6.9411955E0,4.9508376E0,1.537653E0,1.1211872E-1,0E0,0E0,0E0,0E0,2.3308325E-1,0E0,0E0,0E0,0E0,0E0,0E0,0E0,0E0,0E0,0E0,0E0,0E0],"parents":[2147483647,0,0,1,1,2,2,3,3,4,4,5,5,6,6,7,7,8,8,10,10,11,11,13,13,15,15,16,16,17,17,19,19,21,21,25,25,26,26,27,27,28,28,29,29,34,34],"right_children":[2,4,6,8,10,12,14,16,18,-1,20,22,-1,24,-1,26,28,30,-1,32,-1,34,-1,-1,-1,36,38,40,42,44,-1,-1,-1,-1,46,-1,-1,-1,-1,-1,-1,-1,-1,-1,-1,-1,-1],"split_conditions":[1E0,1E0,1E0,1E0,3.57461E2,1E0,5E0,1E0,4.58537E2,-1.302657E-2,1E0,1E0,5.2205335E-2,5E0,5.9218865E-2,1E0,4E0,1E0,-2.4363957E-2,1E0,-1.5410242E-2,1E0,3.7570128E-3,3.60384E-2,-7.620226E-3,1E0,1E0,2.867E0,8.2E1,4.61934E0,1.0622128E-2,-7.404768E-2,-2.0785775E-2,-6.2042635E-2,4.9799E0,-5.360346E-2,2.0675523E-2,3.7873495E-2,-3.9617922E-2,5.0871458E-2,-2.8877413E-2,4.6745464E-2,-9.315169E-3,5.802405E-2,1.5548698E-2,-3.7592296E-3,-3.197091E-2],"split_indices":[1482,1683,407,476,2048,802,2053,1508,2048,0,1937,1,0,2051,0,1738,2053,1669,0,538,0,430,0,0,0,140,1171,2049,2052,2049,0,0,0,0,2049,0,0,0,0,0,0,0,0,0,0,0,0],"split_type":[0,0,0,0,0,0,0,0,0,0,0,0,0,0,0,0,0,0,0,0,0,0,0,0,0,0,0,0,0,0,0,0,0,0,0,0,0,0,0,0,0,0,0,0,0,0,0],"sum_hessian":[1.1622921E2,8.523585E1,3.0993357E1,6.945625E1,1.5779596E1,1.0638313E1,2.0355043E1,5.687433E1,1.2581926E1,2.175013E0,1.3604584E1,6.3324704E0,4.305843E0,2.1411862E0,1.8213858E1,3.9313103E1,1.7561224E1,1.0938791E1,1.6431341E0,1.2452936E1,1.1516474E0,4.3881917E0,1.9442786E0,1.0311924E0,1.1099938E0,2.6999744E1,1.2313359E1,8.363784E0,9.19744E0,9.92182E0,1.0169717E0,1.1238378E1,1.2145581E0,1.4770963E0,2.9110954E0,2.4415476E1,2.584269E0,9.195335E0,3.1180246E0,1.623261E0,6.740523E0,8.129692E0,1.0677482E0,8.855421E0,1.0663989E0,1.4804368E0,1.4306587E0],"tree_param":{"num_deleted":"0","num_feature":"2054","num_nodes":"47","size_leaf_vector":"1"}},{"base_weights":[5.0395844E-3,-3.9427063E-1,5.252299E-1,-7.210775E-1,5.064065E-1,6.298015E-1,-5.492462E-2,-9.651685E-1,6.0530025E-1,-2.5755227E-2,6.564486E-1,7.451434E-1,-4.7905464E-2,-1.0611739E0,3.2348114E-1,5.389889E-2,8.408071E-3,5.395902E-2,1.1250528E-2,8.458696E-1,-4.135041E-2,-4.1422954E-1,-1.2569742E0,4.3022636E-2,-2.4745166E-2,-5.142346E-1,3.9627068E-2,-5.500329E-1,4.8606512E-1,1.8448493E-1,9.9973184E-1,-3.9892916E-2,4.2381525E-2,-7.028097E-2,-7.780099E-3,-3.7797824E-2,-1.1066863E-3,-4.1905977E-2,-6.0004634E-3,3.3402506E-2,4.3066433E-3,-4.7716927E-2,2.943695E-2,5.27635E-2,-6.8832682E-3],"categories":[],"categories_nodes":[],"categories_segments":[],"categories_sizes":[],"default_left":[0,0,0,0,0,0,0,0,0,0,0,0,0,0,0,0,0,0,0,0,0,0,0,0,0,0,0,0,0,0,0,0,0,0,0,0,0,0,0,0,0,0,0,0,0],"id":13,"left_children":[1,3,5,7,9,11,-1,13,15,-1,17,19,-1,21,23,-1,25,-1,27,29,-1,31,33,-1,-1,35,-1,37,39,41,43,-1,-1,-1,-1,-1,-1,-1,-1,-1,-1,-1,-1,-1,-1],"loss_changes":[2.4213297E1,1.9778452E1,9.286513E0,1.6385702E1,3.1195292E0,9.540201E0,0E0,5.4906883E0,2.30457E0,0E0,4.423414E0,7.903185E0,0E0,4.413845E0,2.030342E0,0E0,2.3057933E0,0E0,2.2522743E0,4.2162933E0,0E0,5.7796254E0,4.596573E0,0E0,0E0,3.860199E-1,0E0,3.8037527E-1,2.747537E-1,4.883851E0,2.3471718E0,0E0,0E0,0E0,0E0,0E0,0E0,0E0,0E0,0E0,0E0,0E0,0E0,0E0,0E0],"parents":[2147483647,0,0,1,1,2,2,3,3,4,4,5,5,7,7,8,8,10,10,11,11,13,13,14,14,16,16,18,18,19,19,21,21,22,22,25,25,27,27,28,28,29,29,30,30],"right_children":[2,4,6,8,10,12,-1,14,16,-1,18,20,-1,22,24,-1,26,-1,28,30,-1,32,34,-1,-1,36,-1,38,40,42,44,-1,-1,-1,-1,-1,-1,-1,-1,-1,-1,-1,-1,-1,-1],"split_conditions":[1E0,1E0,1E0,1E0,3E0,1E0,-5.492462E-2,1E0,6E0,-2.5755227E-2,1E0,1E0,-4.7905464E-2,3.13401E2,4.3711E0,5.389889E-2,4.4653E2,5.395902E-2,1E0,1E0,-4.135041E-2,1E0,1E0,4.3022636E-2,-2.4745166E-2,1E0,3.9627068E-2,8E0,1E0,4.073E1,1E0,-3.9892916E-2,4.2381525E-2,-7.028097E-2,-7.780099E-3,-3.7797824E-2,-1.1066863E-3,-4.1905977E-2,-6.0004634E-3,3.3402506E-2,4.3066433E-3,-4.7716927E-2,2.943695E-2,5.27635E-2,-6.8832682E-3],"split_indices":[1145,1939,794,750,2053,2009,0,1063,2051,0,1991,1309,0,2048,2049,0,2048,0,140,1088,0,1285,538,0,0,1028,0,2053,346,2052,1991,0,0,0,0,0,0,0,0,0,0,0,0,0,0],"split_type":[0,0,0,0,0,0,0,0,0,0,0,0,0,0,0,0,0,0,0,0,0,0,0,0,0,0,0,0,0,0,0,0,0,0,0,0,0,0,0,0,0,0,0,0,0],"sum_hessian":[1.1457157E2,6.4953674E1,4.9617893E1,4.7806644E1,1.7147032E1,4.7190815E1,2.4270782E0,4.060627E1,7.2003746E0,1.8844341E0,1.5262597E1,4.4489918E1,2.7008967E0,3.7955105E1,2.6511638E0,3.5685022E0,3.6318724E0,8.814639E0,6.4479585E0,4.224527E1,2.2446465E0,9.542214E0,2.841289E1,1.5697743E0,1.0813895E0,2.3858495E0,1.246023E0,2.8823202E0,3.565638E0,8.388009E0,3.385726E1,7.5995293E0,1.9426848E0,2.4790794E1,3.6220968E0,1.2403853E0,1.1454641E0,1.1577193E0,1.724601E0,1.9897946E0,1.5758435E0,1.8409976E0,6.5470114E0,3.2349854E1,1.5074081E0],"tree_param":{"num_deleted":"0","num_feature":"2054","num_nodes":"45","size_leaf_vector":"1"}},{"base_weights":[4.1842726E-3,-2.6228738E-1,7.4057573E-1,-4.683253E-1,6.526115E-1,6.1659515E-2,1.0869695E0,-6.093009E-1,6.208316E-1,9.370635E-1,-3.395397E-1,-6.0315466E-1,5.0518848E-2,1.6248448E-2,5.784678E-2,-8.2384956E-1,3.1504443E-1,5.382638E-2,8.272837E-3,-2.0102095E-2,1.1101116E0,-3.40482E-2,7.698867E-3,-8.598998E-1,3.8058178E-3,-9.5656747E-1,4.204848E-2,6.5390193E-1,-5.7340004E-2,-4.994875E-1,3.8885117E-2,5.8926076E-2,9.934108E-3,-5.8682628E-2,-4.4170332E-1,-5.8889776E-2,1.5748282E-3,4.417925E-2,-2.6676005E-2,-3.6697954E-2,-1.0770097E-3,-4.614998E-3,-3.076071E-2],"categories":[],"categories_nodes":[],"categories_segments":[],"categories_sizes":[],"default_left":[0,0,0,0,0,0,0,0,0,0,0,0,0,0,0,0,0,0,0,0,0,0,0,0,0,0,0,0,0,0,0,0,0,0,0,0,0,0,0,0,0,0,0],"id":14,"left_children":[1,3,5,7,9,11,13,15,17,19,21,23,-1,-1,-1,25,27,-1,29,-1,31,-1,-1,33,-1,35,-1,37,-1,39,-1,-1,-1,-1,41,-1,-1,-1,-1,-1,-1,-1,-1],"loss_changes":[2.2551765E1,1.6215546E1,7.114151E0,1.1044946E1,4.8143287E0,7.784768E0,6.9880867E-1,1.2557762E1,2.3516908E0,3.3771286E0,8.2667804E-1,1.3412302E0,0E0,0E0,0E0,1.1986198E1,6.895081E0,0E0,2.19154E0,0E0,4.807682E-1,0E0,0E0,1.8882108E-1,0E0,1.0384739E1,0E0,3.3917952E0,0E0,3.6401093E-1,0E0,0E0,0E0,0E0,1.8049818E-1,0E0,0E0,0E0,0E0,0E0,0E0,0E0,0E0],"parents":[2147483647,0,0,1,1,2,2,3,3,4,4,5,5,6,6,7,7,8,8,9,9,10,10,11,11,15,15,16,16,18,18,20,20,23,23,25,25,27,27,29,29,34,34],"right_children":[2,4,6,8,10,12,14,16,18,20,22,24,-1,-1,-1,26,28,-1,30,-1,32,-1,-1,34,-1,36,-1,38,-1,40,-1,-1,-1,-1,42,-1,-1,-1,-1,-1,-1,-1,-1],"split_conditions":[1E0,1E0,1E0,1E0,4.8015E0,1E0,5E0,1E0,6E0,1E0,5.0119E0,1E0,5.0518848E-2,1.6248448E-2,5.784678E-2,1E0,1E0,5.382638E-2,4.4653E2,-2.0102095E-2,1E0,-3.40482E-2,7.698867E-3,1E0,3.8058178E-3,1E0,4.204848E-2,1E0,-5.7340004E-2,1E0,3.8885117E-2,5.8926076E-2,9.934108E-3,-5.8682628E-2,4.9799E0,-5.8889776E-2,1.5748282E-3,4.417925E-2,-2.6676005E-2,-3.6697954E-2,-1.0770097E-3,-4.614998E-3,-3.076071E-2],"split_indices":[1482,364,407,750,2049,802,2053,231,2051,1357,2049,1,0,0,0,1781,1309,0,2048,0,1669,0,0,430,0,207,0,1440,0,1028,0,0,0,0,2049,0,0,0,0,0,0,0,0],"split_type":[0,0,0,0,0,0,0,0,0,0,0,0,0,0,0,0,0,0,0,0,0,0,0,0,0,0,0,0,0,0,0,0,0,0,0,0,0,0,0,0,0,0,0],"sum_hessian":[1.1293677E2,8.3400986E1,2.9535778E1,6.846955E1,1.4931432E1,1.0376435E1,1.9159342E1,6.1012894E1,7.4566617E0,1.1647571E1,3.2838614E0,6.3152575E0,4.061178E0,2.0859487E0,1.7073395E1,4.9607323E1,1.1405572E1,3.8414757E0,3.6151857E0,1.1814909E0,1.046608E1,1.7165213E0,1.56734E0,4.3900337E0,1.9252238E0,4.6338665E1,3.268655E0,9.707944E0,1.6976275E0,2.3892865E0,1.2258991E0,9.462776E0,1.0033032E0,1.4761146E0,2.9139192E0,3.7704567E1,8.634098E0,8.348897E0,1.3590473E0,1.243568E0,1.1457187E0,1.4752082E0,1.438711E0],"tree_param":{"num_deleted":"0","num_feature":"2054","num_nodes":"43","size_leaf_vector":"1"}},{"base_weights":[4.792984E-3,-2.517723E-1,7.2323745E-1,-4.085883E-2,-1.122625E0,5.593823E-2,1.0709572E0,-2.2640494E-1,7.7780193E-1,-1.0491046E-2,-1.2472981E0,-7.580004E-1,7.961556E-1,1.5769603E-2,5.713081E-2,-4.7617507E-1,3.286316E-1,1.0020922E0,-2.3015566E-2,-6.7408085E-2,-2.2029882E-2,-4.0439063E-1,-5.3983655E-2,5.1291686E-2,-1.0247119E-2,-8.2477427E-1,3.048605E-1,6.9683444E-1,-2.2736695E-1,1.0650885E0,1.2868266E-2,-3.3971827E-2,5.2854544E-3,-4.787477E-2,2.5533943E-2,3.5697144E-2,-3.710003E-2,4.7292706E-2,-1.9084858E-3,-4.5637716E-2,2.659676E-2,5.6105383E-2,1.4646177E-2],"categories":[],"categories_nodes":[],"categories_segments":[],"categories_sizes":[],"default_left":[0,0,0,0,0,0,0,0,0,0,0,0,0,0,0,0,0,0,0,0,0,0,0,0,0,0,0,0,0,0,0,0,0,0,0,0,0,0,0,0,0,0,0],"id":15,"left_children":[1,3,5,7,9,11,13,15,17,-1,19,21,23,-1,-1,25,27,29,-1,-1,-1,31,-1,-1,-1,33,35,37,39,41,-1,-1,-1,-1,-1,-1,-1,-1,-1,-1,-1,-1,-1],"loss_changes":[2.0862688E1,1.5275041E1,6.8503265E0,1.05337925E1,1.5847797E0,7.385982E0,6.967106E-1,7.9702377E0,4.0225835E0,0E0,5.511093E-1,2.3153567E-1,1.6779809E0,0E0,0E0,1.0946005E1,3.8605864E0,2.5003147E-1,0E0,0E0,0E0,6.887165E-1,0E0,0E0,0E0,5.350376E0,6.033458E0,2.0723715E0,4.627335E0,1.1081123E-1,0E0,0E0,0E0,0E0,0E0,0E0,0E0,0E0,0E0,0E0,0E0,0E0,0E0],"parents":[2147483647,0,0,1,1,2,2,3,3,4,4,5,5,6,6,7,7,8,8,10,10,11,11,12,12,15,15,16,16,17,17,21,21,25,25,26,26,27,27,28,28,29,29],"right_children":[2,4,6,8,10,12,14,16,18,-1,20,22,24,-1,-1,26,28,30,-1,-1,-1,32,-1,-1,-1,34,36,38,40,42,-1,-1,-1,-1,-1,-1,-1,-1,-1,-1,-1,-1,-1],"split_conditions":[1E0,1E0,1E0,1E0,3.57461E2,1E0,5E0,1E0,4.58537E2,-1.0491046E-2,1E0,1E0,1E0,1.5769603E-2,5.713081E-2,1E0,1E0,1E0,-2.3015566E-2,-6.7408085E-2,-2.2029882E-2,4.49558E2,-5.3983655E-2,5.1291686E-2,-1.0247119E-2,1E0,1E0,1E0,1E0,4.7374E0,1.2868266E-2,-3.3971827E-2,5.2854544E-3,-4.787477E-2,2.5533943E-2,3.5697144E-2,-3.710003E-2,4.7292706E-2,-1.9084858E-3,-4.5637716E-2,2.659676E-2,5.6105383E-2,1.4646177E-2],"split_indices":[1482,1683,407,476,2048,1261,2053,1508,2048,0,1349,807,265,0,0,1738,1199,932,0,0,0,2048,0,0,0,66,1171,784,80,2049,0,0,0,0,0,0,0,0,0,0,0,0,0],"split_type":[0,0,0,0,0,0,0,0,0,0,0,0,0,0,0,0,0,0,0,0,0,0,0,0,0,0,0,0,0,0,0,0,0,0,0,0,0,0,0,0,0,0,0],"sum_hessian":[1.1119459E2,8.241334E1,2.8781252E1,6.71879E1,1.5225446E1,1.0257413E1,1.852384E1,5.536344E1,1.1824451E1,2.1520445E0,1.3073401E1,4.8739843E0,5.3834286E0,2.0725343E0,1.6451305E1,3.8279495E1,1.7083944E1,1.0172317E1,1.6521351E0,1.1023859E1,2.0495427E0,3.3969357E0,1.4770488E0,4.3587155E0,1.0247127E0,2.642793E1,1.1851565E1,1.0125297E1,6.9586487E0,8.98233E0,1.1899865E0,1.9912728E0,1.4056629E0,2.4296312E1,2.1316185E0,8.750245E0,3.1013212E0,7.348689E0,2.776607E0,3.551119E0,3.4075294E0,7.9426246E0,1.0397055E0],"tree_param":{"num_deleted":"0","num_feature":"2054","num_nodes":"43","size_leaf_vector":"1"}},{"base_weights":[4.799184E-3,-3.601982E-1,4.8884943E-1,-6.5358573E-1,4.6418288E-1,5.900778E-1,-5.109621E-2,-8.742401E-1,5.5754787E-1,-2.3434788E-2,6.0830694E-1,7.031454E-1,-8.9885134E-1,-9.639067E-1,3.2000822E-1,5.1585086E-2,-1.5736304E-2,5.1771667E-2,-1.0719068E-2,8.017077E-1,-3.832476E-2,-1.7128695E-2,-5.4879576E-2,-3.4795552E-1,-1.153342E0,4.1846883E-2,-2.3267651E-2,-5.0259393E-1,3.731384E-2,-5.2546704E-1,4.411089E-1,1.6750291E-1,9.54892E-1,-3.608368E-2,4.215092E-2,-6.484315E-2,-6.631404E-3,-3.6524754E-2,-1.4087871E-3,-3.975535E-2,-5.9127198E-3,3.1611834E-2,2.3562273E-3,-4.4726178E-2,2.7907772E-2,5.044734E-2,-5.1316596E-3],"categories":[],"categories_nodes":[],"categories_segments":[],"categories_sizes":[],"default_left":[0,0,0,0,0,0,0,0,0,0,0,0,0,0,0,0,0,0,0,0,0,0,0,0,0,0,0,0,0,0,0,0,0,0,0,0,0,0,0,0,0,0,0,0,0,0,0],"id":16,"left_children":[1,3,5,7,9,11,-1,13,15,-1,17,19,21,23,25,-1,27,-1,29,31,-1,-1,-1,33,35,-1,-1,37,-1,39,41,43,45,-1,-1,-1,-1,-1,-1,-1,-1,-1,-1,-1,-1,-1,-1],"loss_changes":[1.969978E1,1.5680005E1,7.932991E0,1.3129015E1,2.6073124E0,8.300923E0,0E0,4.635006E0,2.1638267E0,0E0,4.08176E0,6.8285294E0,2.796483E-2,4.0128937E0,1.8398036E0,0E0,2.0673306E0,0E0,1.9239202E0,3.7932796E0,0E0,0E0,0E0,5.20625E0,4.003151E0,0E0,0E0,3.449487E-1,0E0,3.295139E-1,3.0290425E-1,4.286846E0,1.9649715E0,0E0,0E0,0E0,0E0,0E0,0E0,0E0,0E0,0E0,0E0,0E0,0E0,0E0,0E0],"parents":[2147483647,0,0,1,1,2,2,3,3,4,4,5,5,7,7,8,8,10,10,11,11,12,12,13,13,14,14,16,16,18,18,19,19,23,23,24,24,27,27,29,29,30,30,31,31,32,32],"right_children":[2,4,6,8,10,12,-1,14,16,-1,18,20,22,24,26,-1,28,-1,30,32,-1,-1,-1,34,36,-1,-1,38,-1,40,42,44,46,-1,-1,-1,-1,-1,-1,-1,-1,-1,-1,-1,-1,-1,-1],"split_conditions":[1E0,1E0,1E0,1E0,3E0,1E0,-5.109621E-2,1E0,6E0,-2.3434788E-2,1E0,1E0,1E0,3.13401E2,4.3711E0,5.1585086E-2,4.4653E2,5.1771667E-2,1E0,1E0,-3.832476E-2,-1.7128695E-2,-5.4879576E-2,1E0,1E0,4.1846883E-2,-2.3267651E-2,1E0,3.731384E-2,8E0,1E0,4.073E1,1E0,-3.608368E-2,4.215092E-2,-6.484315E-2,-6.631404E-3,-3.6524754E-2,-1.4087871E-3,-3.975535E-2,-5.9127198E-3,3.1611834E-2,2.3562273E-3,-4.4726178E-2,2.7907772E-2,5.044734E-2,-5.1316596E-3],"split_indices":[1145,1939,794,750,2053,2009,0,1063,2051,0,1991,1309,1589,2048,2049,0,2048,0,140,1088,0,0,0,1285,538,0,0,1028,0,2053,346,2052,1991,0,0,0,0,0,0,0,0,0,0,0,0,0,0],"split_type":[0,0,0,0,0,0,0,0,0,0,0,0,0,0,0,0,0,0,0,0,0,0,0,0,0,0,0,0,0,0,0,0,0,0,0,0,0,0,0,0,0,0,0,0,0,0,0],"sum_hessian":[1.0950499E2,6.257572E1,4.6929268E1,4.630389E1,1.627183E1,4.4553413E1,2.3758516E0,3.9403244E1,6.900646E0,1.876124E0,1.4395706E1,4.1899376E1,2.65404E0,3.683079E1,2.572455E0,3.3392086E0,3.5614378E0,8.120146E0,6.2755604E0,3.9691902E1,2.2074733E0,1.4155678E0,1.2384725E0,9.33023E0,2.750056E1,1.511744E0,1.060711E0,2.380776E0,1.1806619E0,2.8573387E0,3.4182215E0,8.129226E0,3.1562675E1,7.401687E0,1.928543E0,2.3873238E1,3.6273227E0,1.2436032E0,1.1371727E0,1.1459658E0,1.7113729E0,1.8944637E0,1.5237579E0,1.8392441E0,6.2899814E0,3.0071526E1,1.4911515E0],"tree_param":{"num_deleted":"0","num_feature":"2054","num_nodes":"47","size_leaf_vector":"1"}},{"base_weights":[3.771908E-3,-2.355454E-1,6.9078E-1,-3.642258E-2,-1.0605329E0,3.906603E-2,1.0417978E0,-2.1253039E-1,7.5170916E-1,-9.312627E-3,-1.183556E0,-5.7098716E-1,4.8334185E-2,1.3818306E-2,5.5957217E-2,-3.854696E-1,4.8232E-1,9.765605E-1,-2.1877378E-2,-6.405766E-2,-2.0804228E-2,-8.1011707E-1,3.731406E-3,-5.063348E-1,4.846185E-2,8.29015E-1,-1.9603108E-1,1.0409236E0,1.2037314E-2,-5.481548E-2,-4.2310947E-1,-3.9500054E-2,8.311805E-3,7.3253512E-3,5.0724268E-2,1.4276192E-2,-2.8024605E-2,5.5007994E-2,1.3694763E-2,-2.8280968E-2,-2.447145E-3],"categories":[],"categories_nodes":[],"categories_segments":[],"categories_sizes":[],"default_left":[0,0,0,0,0,0,0,0,0,0,0,0,0,0,0,0,0,0,0,0,0,0,0,0,0,0,0,0,0,0,0,0,0,0,0,0,0,0,0,0,0],"id":17,"left_children":[1,3,5,7,9,11,13,15,17,-1,19,21,-1,-1,-1,23,25,27,-1,-1,-1,29,-1,31,-1,33,35,37,-1,-1,39,-1,-1,-1,-1,-1,-1,-1,-1,-1,-1],"loss_changes":[1.8054579E1,1.33421335E1,6.449029E0,9.41081E0,1.4791603E0,6.759717E0,7.7999306E-1,6.826145E0,3.741435E0,0E0,4.905529E-1,1.1791859E0,0E0,0E0,0E0,7.826481E0,2.856857E0,2.576828E-1,0E0,0E0,0E0,1.3114977E-1,0E0,8.104069E0,0E0,8.3529854E-1,9.820452E-1,1.3341522E-1,0E0,0E0,1.8093097E-1,0E0,0E0,0E0,0E0,0E0,0E0,0E0,0E0,0E0,0E0],"parents":[2147483647,0,0,1,1,2,2,3,3,4,4,5,5,6,6,7,7,8,8,10,10,11,11,15,15,16,16,17,17,21,21,23,23,25,25,26,26,27,27,30,30],"right_children":[2,4,6,8,10,12,14,16,18,-1,20,22,-1,-1,-1,24,26,28,-1,-1,-1,30,-1,32,-1,34,36,38,-1,-1,40,-1,-1,-1,-1,-1,-1,-1,-1,-1,-1],"split_conditions":[1E0,1E0,1E0,1E0,3.57461E2,1E0,5E0,1E0,4.58537E2,-9.312627E-3,1E0,1E0,4.8334185E-2,1.3818306E-2,5.5957217E-2,1E0,5.947E1,1E0,-2.1877378E-2,-6.405766E-2,-2.0804228E-2,1E0,3.731406E-3,1E0,4.846185E-2,3.96E1,3.91318E0,4.7374E0,1.2037314E-2,-5.481548E-2,4.49558E2,-3.9500054E-2,8.311805E-3,7.3253512E-3,5.0724268E-2,1.4276192E-2,-2.8024605E-2,5.5007994E-2,1.3694763E-2,-2.8280968E-2,-2.447145E-3],"split_indices":[1482,1683,407,476,2048,802,2053,231,2048,0,1349,1,0,0,0,1781,2052,932,0,0,0,430,0,1508,0,2052,2049,2049,0,0,2048,0,0,0,0,0,0,0,0,0,0],"split_type":[0,0,0,0,0,0,0,0,0,0,0,0,0,0,0,0,0,0,0,0,0,0,0,0,0,0,0,0,0,0,0,0,0,0,0,0,0,0,0,0,0],"sum_hessian":[1.0782277E2,8.0453995E1,2.7368774E1,6.5652054E1,1.4801934E1,9.969774E0,1.7399E1,5.4258377E1,1.1393682E1,2.1360133E0,1.2665921E1,6.24631E0,3.723464E0,2.0165043E0,1.5382496E1,4.3801903E1,1.0456473E1,9.732431E0,1.6612507E0,1.0643144E1,2.0227778E0,4.3721194E0,1.8741907E0,4.0789E1,3.0129018E0,6.7728624E0,3.6836112E0,8.56829E0,1.1641414E0,1.4598062E0,2.9123135E0,2.8566202E1,1.2222797E1,1.8297032E0,4.943159E0,1.6801928E0,2.0034182E0,7.550837E0,1.0174527E0,1.7384914E0,1.173822E0],"tree_param":{"num_deleted":"0","num_feature":"2054","num_nodes":"41","size_leaf_vector":"1"}},{"base_weights":[4.4287327E-3,-2.255318E-1,6.7516893E-1,-3.874965E-1,7.0752335E-1,3.4678616E-2,1.0273798E0,-1.9310914E-1,-1.0831716E0,1.0262302E0,-1.987561E-1,-5.544885E-1,4.759937E-2,1.3410913E-2,5.5335063E-2,-3.7052616E-1,4.952747E-1,-8.995358E-3,-1.2198236E0,5.5509895E-2,1.1755864E-2,-2.4542948E-2,7.99357E-3,-7.867232E-1,3.6119502E-3,-4.8630127E-1,4.7632795E-2,6.8772197E-1,-2.8892279E-2,-1.2864627E0,-1.652412E-2,-5.3386427E-2,-4.096959E-1,-3.343356E-2,2.3733296E-2,4.2735428E-2,-1.8771935E-2,-6.714249E-2,-1.9656956E-2,-3.7084688E-3,-2.9064089E-2],"categories":[],"categories_nodes":[],"categories_segments":[],"categories_sizes":[],"default_left":[0,0,0,0,0,0,0,0,0,0,0,0,0,0,0,0,0,0,0,0,0,0,0,0,0,0,0,0,0,0,0,0,0,0,0,0,0,0,0,0,0],"id":18,"left_children":[1,3,5,7,9,11,13,15,17,19,21,23,-1,-1,-1,25,27,-1,29,-1,-1,-1,-1,31,-1,33,-1,35,-1,37,-1,-1,39,-1,-1,-1,-1,-1,-1,-1,-1],"loss_changes":[1.6708471E1,1.2467101E1,6.2030306E0,9.175155E0,3.753111E0,6.390102E0,7.7552795E-1,6.9564486E0,1.6244774E0,3.5363293E-1,5.0112915E-1,1.1101296E0,0E0,0E0,0E0,7.3054905E0,2.8326454E0,0E0,3.3359718E-1,0E0,0E0,0E0,0E0,1.3088489E-1,0E0,7.6311464E0,0E0,2.1770668E0,0E0,5.4599762E-2,0E0,0E0,1.8218553E-1,0E0,0E0,0E0,0E0,0E0,0E0,0E0,0E0],"parents":[2147483647,0,0,1,1,2,2,3,3,4,4,5,5,6,6,7,7,8,8,9,9,10,10,11,11,15,15,16,16,18,18,23,23,25,25,27,27,29,29,32,32],"right_children":[2,4,6,8,10,12,14,16,18,20,22,24,-1,-1,-1,26,28,-1,30,-1,-1,-1,-1,32,-1,34,-1,36,-1,38,-1,-1,40,-1,-1,-1,-1,-1,-1,-1,-1],"split_conditions":[1E0,1E0,1E0,1E0,4.8015E0,1E0,5E0,1E0,3.57461E2,1E0,5.0119E0,1E0,4.759937E-2,1.3410913E-2,5.5335063E-2,1E0,1E0,-8.995358E-3,1E0,5.5509895E-2,1.1755864E-2,-2.4542948E-2,7.99357E-3,1E0,3.6119502E-3,1E0,4.7632795E-2,1E0,-2.8892279E-2,1E0,-1.652412E-2,-5.3386427E-2,4.9799E0,-3.343356E-2,2.3733296E-2,4.2735428E-2,-1.8771935E-2,-6.714249E-2,-1.9656956E-2,-3.7084688E-3,-2.9064089E-2],"split_indices":[1482,1752,407,1683,2049,802,2053,231,2048,932,2049,1,0,0,0,1781,1309,0,538,0,0,0,0,430,0,750,0,1440,0,1070,0,0,2049,0,0,0,0,0,0,0,0],"split_type":[0,0,0,0,0,0,0,0,0,0,0,0,0,0,0,0,0,0,0,0,0,0,0,0,0,0,0,0,0,0,0,0,0,0,0,0,0,0,0,0,0],"sum_hessian":[1.0633788E2,7.968274E1,2.6655142E1,6.839506E1,1.128768E1,9.846991E0,1.6808151E1,5.4456318E1,1.3938742E1,8.253024E0,3.0346556E0,6.236775E0,3.6102157E0,2.0045574E0,1.4803595E1,4.3664436E1,1.0791882E1,2.1360526E0,1.1802689E1,7.0964756E0,1.1565484E0,1.4692404E0,1.565415E0,4.3642926E0,1.8724823E0,4.0732887E1,2.931549E0,9.455351E0,1.3365308E0,1.0564545E1,1.2381442E0,1.4509254E0,2.9133673E0,3.449137E1,6.241515E0,8.341285E0,1.1140654E0,9.463968E0,1.1005765E0,1.4703802E0,1.4429872E0],"tree_param":{"num_deleted":"0","num_feature":"2054","num_nodes":"41","size_leaf_vector":"1"}},{"base_weights":[4.5217783E-3,-3.26156E-1,4.518347E-1,-5.8656085E-1,4.2267135E-1,5.5001646E-1,-4.7974106E-2,-7.949698E-1,5.3725874E-1,-2.123252E-2,5.6025296E-1,6.6180146E-1,-8.560917E-1,-8.8140583E-1,3.3502632E-1,5.0564945E-2,-2.8054373E-2,4.9728226E-2,-3.6612142E-2,7.594894E-1,-3.5949554E-2,-1.599022E-2,-5.207474E-2,-9.774382E-1,1.2962373E-1,4.1535653E-2,-2.1664215E-2,-4.947469E-1,3.6088556E-2,-5.0738883E-1,3.942049E-1,1.4780432E-1,9.125049E-1,-5.568248E-2,-2.3816025E-3,4.1917935E-2,-4.3982092E-2,-3.613285E-2,-1.2233368E-3,-3.8193665E-2,-5.838474E-3,2.9656187E-2,5.009853E-4,-3.0628202E-2,3.2725535E-2,4.8294123E-2,-4.118849E-3],"categories":[],"categories_nodes":[],"categories_segments":[],"categories_sizes":[],"default_left":[0,0,0,0,0,0,0,0,0,0,0,0,0,0,0,0,0,0,0,0,0,0,0,0,0,0,0,0,0,0,0,0,0,0,0,0,0,0,0,0,0,0,0,0,0,0,0],"id":19,"left_children":[1,3,5,7,9,11,-1,13,15,-1,17,19,21,23,25,-1,27,-1,29,31,-1,-1,-1,33,35,-1,-1,37,-1,39,41,43,45,-1,-1,-1,-1,-1,-1,-1,-1,-1,-1,-1,-1,-1,-1],"loss_changes":[1.5796791E1,1.2222946E1,6.816967E0,1.1197279E1,2.1528578E0,7.3366365E0,0E0,4.123461E0,2.1160357E0,0E0,3.8115458E0,6.004074E0,2.5666475E-2,3.688448E0,1.6965314E0,0E0,1.940954E0,0E0,1.6396625E0,3.447691E0,0E0,0E0,0E0,4.204838E0,3.6452353E0,0E0,0E0,3.449219E-1,0E0,2.9442513E-1,3.2031417E-1,3.8115854E0,1.6952152E0,0E0,0E0,0E0,0E0,0E0,0E0,0E0,0E0,0E0,0E0,0E0,0E0,0E0,0E0],"parents":[2147483647,0,0,1,1,2,2,3,3,4,4,5,5,7,7,8,8,10,10,11,11,12,12,13,13,14,14,16,16,18,18,19,19,23,23,24,24,27,27,29,29,30,30,31,31,32,32],"right_children":[2,4,6,8,10,12,-1,14,16,-1,18,20,22,24,26,-1,28,-1,30,32,-1,-1,-1,34,36,-1,-1,38,-1,40,42,44,46,-1,-1,-1,-1,-1,-1,-1,-1,-1,-1,-1,-1,-1,-1],"split_conditions":[1E0,1E0,1E0,1E0,3E0,1E0,-4.7974106E-2,1E0,6E0,-2.123252E-2,1E0,1E0,1E0,1E0,4.3711E0,5.0564945E-2,4.4653E2,4.9728226E-2,1E0,1E0,-3.5949554E-2,-1.599022E-2,-5.207474E-2,1E0,1E0,4.1535653E-2,-2.1664215E-2,1E0,3.6088556E-2,8E0,1E0,4E0,1E0,-5.568248E-2,-2.3816025E-3,4.1917935E-2,-4.3982092E-2,-3.613285E-2,-1.2233368E-3,-3.8193665E-2,-5.838474E-3,2.9656187E-2,5.009853E-4,-3.0628202E-2,3.2725535E-2,4.8294123E-2,-4.118849E-3],"split_indices":[1145,1939,794,750,2053,2009,0,1063,2051,0,1991,1309,1589,1607,2049,0,2048,0,140,1088,0,0,0,538,378,0,0,1028,0,2053,346,2051,1991,0,0,0,0,0,0,0,0,0,0,0,0,0,0],"split_type":[0,0,0,0,0,0,0,0,0,0,0,0,0,0,0,0,0,0,0,0,0,0,0,0,0,0,0,0,0,0,0,0,0,0,0,0,0,0,0,0,0,0,0,0,0,0,0],"sum_hessian":[1.0479908E2,6.0410927E1,4.4388153E1,4.4984318E1,1.5426609E1,4.2071617E1,2.3165357E0,3.8193977E1,6.790341E0,1.863481E0,1.3563128E1,3.9463615E1,2.6080017E0,3.5684387E1,2.509589E0,3.2642248E0,3.5261161E0,7.464927E0,6.0982013E0,3.7276356E1,2.187257E0,1.3700325E0,1.2379692E0,3.2619278E1,3.0651095E0,1.4760644E0,1.0335245E0,2.3830724E0,1.1430438E0,2.8290317E0,3.2691693E0,7.852327E0,2.942403E1,2.8278862E1,4.3404155E0,1.9001254E0,1.1649841E0,1.2436937E0,1.1393785E0,1.1309168E0,1.698115E0,1.795611E0,1.4735583E0,3.0566204E0,4.7957063E0,2.7953417E1,1.4706141E0],"tree_param":{"num_deleted":"0","num_feature":"2054","num_nodes":"47","size_leaf_vector":"1"}},{"base_weights":[3.727625E-3,-3.138695E-1,4.3522412E-1,-5.6468964E-1,4.0889293E-1,5.315505E-1,-4.6571378E-2,-7.6636165E-1,5.2413523E-1,6.4761716E-1,-1.0836863E-1,7.2279745E-1,-3.2303372E-1,-8.5033536E-1,3.265572E-1,4.967282E-2,-2.6951253E-2,8.3340454E-1,2.7334532E-2,-3.7346056E-1,2.218957E-2,7.947278E-1,-2.6786843E-2,9.560581E-2,-5.8008578E-2,-2.5914833E-1,-1.0385342E0,4.0772647E-2,-2.1094298E-2,-4.8075008E-1,3.5464015E-2,5.2599903E-2,2.0693007E-3,-2.095114E-2,1.9425876E-2,-6.6365314E-1,1.5268489E-2,-1.724817E-1,9.13475E-1,-2.9870758E-2,3.531025E-1,-3.1705443E-2,4.35662E-2,-5.9148807E-2,-4.2744516E-3,-3.5102975E-2,-1.1906017E-3,-8.949709E-3,-4.4735204E-2,-3.652878E-2,4.0332194E-2,5.1056683E-2,-9.744096E-3,-1.690623E-2,4.612954E-2],"categories":[],"categories_nodes":[],"categories_segments":[],"categories_sizes":[],"default_left":[0,0,0,0,0,0,0,0,0,0,0,0,0,0,0,0,0,0,0,0,0,0,0,0,0,0,0,0,0,0,0,0,0,0,0,0,0,0,0,0,0,0,0,0,0,0,0,0,0,0,0,0,0,0,0],"id":20,"left_children":[1,3,5,7,9,11,-1,13,15,17,19,21,23,25,27,-1,29,31,33,35,-1,37,-1,39,-1,41,43,-1,-1,45,-1,-1,-1,-1,-1,47,-1,49,51,-1,53,-1,-1,-1,-1,-1,-1,-1,-1,-1,-1,-1,-1,-1,-1],"loss_changes":[1.4405868E1,1.1209162E1,6.361802E0,1.0365831E1,2.0683162E0,7.1414776E0,0E0,3.8286953E0,2.0144336E0,1.2696495E0,1.0390621E0,3.580328E0,3.0619006E0,3.7594662E0,1.6185966E0,0E0,1.8471988E0,1.4447298E0,7.462114E-1,1.1037225E0,0E0,3.9896965E0,0E0,1.3774997E0,0E0,4.823484E0,3.633974E0,0E0,0E0,3.2560194E-1,0E0,0E0,0E0,0E0,0E0,2.3396373E-1,0E0,3.0426393E0,3.7639103E0,0E0,2.4355555E0,0E0,0E0,0E0,0E0,0E0,0E0,0E0,0E0,0E0,0E0,0E0,0E0,0E0,0E0],"parents":[2147483647,0,0,1,1,2,2,3,3,4,4,5,5,7,7,8,8,9,9,10,10,11,11,12,12,13,13,14,14,16,16,17,17,18,18,19,19,21,21,23,23,25,25,26,26,29,29,35,35,37,37,38,38,40,40],"right_children":[2,4,6,8,10,12,-1,14,16,18,20,22,24,26,28,-1,30,32,34,36,-1,38,-1,40,-1,42,44,-1,-1,46,-1,-1,-1,-1,-1,48,-1,50,52,-1,54,-1,-1,-1,-1,-1,-1,-1,-1,-1,-1,-1,-1,-1,-1],"split_conditions":[1E0,1E0,1E0,1E0,1E0,2E0,-4.6571378E-2,1E0,6E0,1E0,1E0,1E0,5.10516E2,3.13401E2,4.3711E0,4.967282E-2,4.4653E2,1E0,1E0,1E0,2.218957E-2,1E0,-2.6786843E-2,5E0,-5.8008578E-2,1E0,1E0,4.0772647E-2,-2.1094298E-2,1E0,3.5464015E-2,5.2599903E-2,2.0693007E-3,-2.095114E-2,1.9425876E-2,1E0,1.5268489E-2,1E0,1E0,-2.9870758E-2,4.813E1,-3.1705443E-2,4.35662E-2,-5.9148807E-2,-4.2744516E-3,-3.5102975E-2,-1.1906017E-3,-8.949709E-3,-4.4735204E-2,-3.652878E-2,4.0332194E-2,5.1056683E-2,-9.744096E-3,-1.690623E-2,4.612954E-2],"split_indices":[1145,1939,794,750,1028,2050,0,1063,2051,1991,140,811,2048,2048,2049,0,2048,809,1951,667,0,1480,0,2053,0,1285,538,0,0,1028,0,0,0,0,0,67,0,29,90,0,2052,0,0,0,0,0,0,0,0,0,0,0,0,0,0],"split_type":[0,0,0,0,0,0,0,0,0,0,0,0,0,0,0,0,0,0,0,0,0,0,0,0,0,0,0,0,0,0,0,0,0,0,0,0,0,0,0,0,0,0,0,0,0,0,0,0,0,0,0,0,0,0,0],"sum_hessian":[1.0312325E2,5.9558575E1,4.356468E1,4.43771E1,1.5181473E1,4.1267086E1,2.297593E0,3.769196E1,6.685143E0,1.0215055E1,4.9664173E0,3.3846752E1,7.4203343E0,3.5208683E1,2.483277E0,3.1768897E0,3.5082536E0,7.596238E0,2.6188173E0,3.57412E0,1.3922974E0,3.2365463E1,1.4812876E0,5.5371075E0,1.8832269E0,9.075834E0,2.6132849E1,1.4479314E0,1.0353456E0,2.3851228E0,1.1231308E0,5.695936E0,1.9003017E0,1.0996758E0,1.5191416E0,2.5194433E0,1.0546769E0,3.4896178E0,2.8875845E1,1.1423969E0,4.3947105E0,7.1450167E0,1.9308176E0,2.2483955E1,3.648892E0,1.2454625E0,1.1396602E0,1.3862667E0,1.1331766E0,2.3843856E0,1.1052321E0,2.6391083E1,2.484763E0,2.1686895E0,2.2260213E0],"tree_param":{"num_deleted":"0","num_feature":"2054","num_nodes":"55","size_leaf_vector":"1"}},{"base_weights":[3.4423568E-3,-2.0308207E-1,6.280591E-1,-3.740227E-1,5.7562673E-1,8.791092E-3,9.874044E-1,-4.9477616E-1,5.4680276E-1,8.607774E-1,-3.0277026E-1,-6.84667E-1,7.186019E-1,1.0598517E-2,5.3817537E-2,-6.7591405E-1,2.893368E-1,5.0104838E-2,-2.5811967E-2,-1.6083604E-2,1.0338823E0,-3.0660814E-2,7.3388442E-3,-3.5964823E-1,-4.9359508E-2,4.7070857E-2,-7.870178E-3,-7.813815E-1,3.7394077E-2,5.9735346E-1,-4.9910538E-2,-4.672598E-1,3.4858555E-2,5.5718362E-2,1.0621009E-2,-3.125592E-2,5.8474583E-3,-4.361001E-2,5.348074E-2,4.0383752E-2,-2.2385096E-2,-3.4114644E-2,-1.1587412E-3],"categories":[],"categories_nodes":[],"categories_segments":[],"categories_sizes":[],"default_left":[0,0,0,0,0,0,0,0,0,0,0,0,0,0,0,0,0,0,0,0,0,0,0,0,0,0,0,0,0,0,0,0,0,0,0,0,0,0,0,0,0,0,0],"id":21,"left_children":[1,3,5,7,9,11,13,15,17,19,21,23,25,-1,-1,27,29,-1,31,-1,33,-1,-1,35,-1,-1,-1,37,-1,39,-1,41,-1,-1,-1,-1,-1,-1,-1,-1,-1,-1,-1],"loss_changes":[1.334153E1,1.05631485E1,5.709857E0,7.4258595E0,3.8641796E0,5.633353E0,8.9281845E-1,8.350381E0,2.0946822E0,2.6089678E0,6.853109E-1,2.1480751E-1,1.2509162E0,0E0,0E0,7.6331444E0,5.1469917E0,0E0,1.7586967E0,0E0,4.203663E-1,0E0,0E0,6.256292E-1,0E0,0E0,0E0,8.361845E0,0E0,2.534336E0,0E0,3.0756003E-1,0E0,0E0,0E0,0E0,0E0,0E0,0E0,0E0,0E0,0E0,0E0],"parents":[2147483647,0,0,1,1,2,2,3,3,4,4,5,5,6,6,7,7,8,8,9,9,10,10,11,11,12,12,15,15,16,16,18,18,20,20,23,23,27,27,29,29,31,31],"right_children":[2,4,6,8,10,12,14,16,18,20,22,24,26,-1,-1,28,30,-1,32,-1,34,-1,-1,36,-1,-1,-1,38,-1,40,-1,42,-1,-1,-1,-1,-1,-1,-1,-1,-1,-1,-1],"split_conditions":[1E0,1E0,1E0,1E0,4.8015E0,1E0,5E0,1E0,6E0,1E0,5.0119E0,1E0,8.014E1,1.0598517E-2,5.3817537E-2,1E0,1E0,5.0104838E-2,4.4653E2,-1.6083604E-2,1E0,-3.0660814E-2,7.3388442E-3,4.49558E2,-4.9359508E-2,4.7070857E-2,-7.870178E-3,1E0,3.7394077E-2,1E0,-4.9910538E-2,1E0,3.4858555E-2,5.5718362E-2,1.0621009E-2,-3.125592E-2,5.8474583E-3,-4.361001E-2,5.348074E-2,4.0383752E-2,-2.2385096E-2,-3.4114644E-2,-1.1587412E-3],"split_indices":[1482,364,407,750,2049,1261,2053,231,2051,1357,2049,807,2052,0,0,1781,1309,0,2048,0,932,0,0,2048,0,0,0,548,0,1440,0,1028,0,0,0,0,0,0,0,0,0,0,0],"split_type":[0,0,0,0,0,0,0,0,0,0,0,0,0,0,0,0,0,0,0,0,0,0,0,0,0,0,0,0,0,0,0,0,0,0,0,0,0,0,0,0,0,0,0],"sum_hessian":[1.01435074E2,7.673736E1,2.4697712E1,6.3350475E1,1.3386885E1,9.445143E0,1.5252568E1,5.64151E1,6.9353743E0,1.0121304E1,3.2655811E0,4.7955227E0,4.6496196E0,1.917647E0,1.3334922E1,4.59404E1,1.0474701E1,3.4456518E0,3.4897223E0,1.1828964E0,8.938407E0,1.7162833E0,1.5492978E0,3.366991E0,1.4285316E0,3.6472564E0,1.0023632E0,4.3192146E1,2.7482533E0,8.885176E0,1.5895246E0,2.3863447E0,1.1033777E0,7.8160443E0,1.1223629E0,1.9623258E0,1.4046654E0,4.1676113E1,1.516035E0,7.5856752E0,1.2995008E0,1.246411E0,1.1399337E0],"tree_param":{"num_deleted":"0","num_feature":"2054","num_nodes":"43","size_leaf_vector":"1"}},{"base_weights":[4.7474885E-3,-2.9305565E-1,4.1361985E-1,-5.2555984E-1,3.818087E-1,5.076133E-1,-4.4413216E-2,-7.144657E-1,4.991558E-1,-2.0600906E-2,5.1761967E-1,6.9515675E-1,-3.1037885E-1,-7.949141E-1,3.211856E-1,4.796613E-2,-2.4641603E-2,4.7753617E-2,-5.031523E-2,7.673138E-1,-2.5892762E-2,9.617424E-2,-5.5903573E-2,-2.2264153E-1,-9.8015624E-1,3.995577E-2,-2.037951E-2,-4.542502E-1,3.4271132E-2,-4.8286688E-1,3.5717723E-1,-1.6712049E-1,8.863405E-1,-2.8370092E-2,3.4462124E-1,-2.9773816E-2,4.3567512E-2,-5.6425918E-2,-2.3809946E-3,-3.3165272E-2,-1.1277354E-3,-3.5779912E-2,-5.9494637E-3,2.8096078E-2,-9.287046E-4,-3.5172056E-2,3.9058156E-2,4.97246E-2,-8.840165E-3,-1.5643813E-2,4.51478E-2],"categories":[],"categories_nodes":[],"categories_segments":[],"categories_sizes":[],"default_left":[0,0,0,0,0,0,0,0,0,0,0,0,0,0,0,0,0,0,0,0,0,0,0,0,0,0,0,0,0,0,0,0,0,0,0,0,0,0,0,0,0,0,0,0,0,0,0,0,0,0,0],"id":22,"left_children":[1,3,5,7,9,11,-1,13,15,-1,17,19,21,23,25,-1,27,-1,29,31,-1,33,-1,35,37,-1,-1,39,-1,41,43,45,47,-1,49,-1,-1,-1,-1,-1,-1,-1,-1,-1,-1,-1,-1,-1,-1,-1,-1],"loss_changes":[1.2396548E1,9.444826E0,5.700351E0,8.920152E0,1.9032407E0,6.45129E0,0E0,3.4016933E0,1.8252939E0,0E0,3.4836924E0,3.3185024E0,2.823915E0,3.5270596E0,1.5218787E0,0E0,1.6751132E0,0E0,1.4004636E0,3.6964855E0,0E0,1.2545213E0,0E0,4.570508E0,3.5982895E0,0E0,0E0,2.906921E-1,0E0,2.3705685E-1,3.306452E-1,2.8106613E0,3.447857E0,0E0,2.2265882E0,0E0,0E0,0E0,0E0,0E0,0E0,0E0,0E0,0E0,0E0,0E0,0E0,0E0,0E0,0E0,0E0],"parents":[2147483647,0,0,1,1,2,2,3,3,4,4,5,5,7,7,8,8,10,10,11,11,12,12,13,13,14,14,16,16,18,18,19,19,21,21,23,23,24,24,27,27,29,29,30,30,31,31,32,32,34,34],"right_children":[2,4,6,8,10,12,-1,14,16,-1,18,20,22,24,26,-1,28,-1,30,32,-1,34,-1,36,38,-1,-1,40,-1,42,44,46,48,-1,50,-1,-1,-1,-1,-1,-1,-1,-1,-1,-1,-1,-1,-1,-1,-1,-1],"split_conditions":[1E0,1E0,1E0,1E0,3E0,2E0,-4.4413216E-2,1E0,6E0,-2.0600906E-2,1E0,1E0,5.10516E2,3.13401E2,4.3711E0,4.796613E-2,4.4653E2,4.7753617E-2,1E0,1E0,-2.5892762E-2,5E0,-5.5903573E-2,1E0,1E0,3.995577E-2,-2.037951E-2,1E0,3.4271132E-2,8E0,1E0,1E0,1E0,-2.8370092E-2,4.813E1,-2.9773816E-2,4.3567512E-2,-5.6425918E-2,-2.3809946E-3,-3.3165272E-2,-1.1277354E-3,-3.5779912E-2,-5.9494637E-3,2.8096078E-2,-9.287046E-4,-3.5172056E-2,3.9058156E-2,4.97246E-2,-8.840165E-3,-1.5643813E-2,4.51478E-2],"split_indices":[1145,1939,794,750,2053,2050,0,1063,2051,0,1991,811,2048,2048,2049,0,2048,0,140,1480,0,2053,0,1285,538,0,0,1028,0,2053,346,29,90,0,2052,0,0,0,0,0,0,0,0,0,0,0,0,0,0,0,0],"split_type":[0,0,0,0,0,0,0,0,0,0,0,0,0,0,0,0,0,0,0,0,0,0,0,0,0,0,0,0,0,0,0,0,0,0,0,0,0,0,0,0,0,0,0,0,0,0,0,0,0,0,0],"sum_hessian":[9.981296E1,5.7914246E1,4.1898716E1,4.323884E1,1.4675405E1,3.9646416E1,2.2523E0,3.6764153E1,6.4746866E0,1.8468205E0,1.2828584E1,3.2374084E1,7.272333E0,3.4329887E1,2.4342654E0,3.0040717E0,3.4706151E0,6.8616953E0,5.9668884E0,3.0903212E1,1.4708717E0,5.4233904E0,1.848943E0,8.933455E0,2.5396433E1,1.4118556E0,1.0224097E0,2.3868024E0,1.0838127E0,2.804719E0,3.1621695E0,3.445989E0,2.7457222E1,1.12768E0,4.29571E0,7.0026293E0,1.9308264E0,2.1729252E1,3.66718E0,1.2466033E0,1.1401992E0,1.1210924E0,1.6836264E0,1.7261442E0,1.4360253E0,2.3660293E0,1.0799596E0,2.4980574E1,2.4766486E0,2.1745622E0,2.121148E0],"tree_param":{"num_deleted":"0","num_feature":"2054","num_nodes":"51","size_leaf_vector":"1"}},{"base_weights":[4.2806235E-3,-1.8769808E-1,5.990433E-1,-1.5067108E-2,-9.2057514E-1,-4.0264423E-3,9.620941E-1,-1.6601503E-1,6.859407E-1,-5.6534447E-3,-1.0465357E0,-6.5602994E-1,6.916204E-1,9.330388E-3,5.284371E-2,-3.7435573E-1,2.926589E-1,9.163369E-1,-2.0002946E-2,-5.7170797E-2,-1.682966E-2,-3.380219E-1,-4.794576E-2,4.5251038E-2,-2.872648E-3,-6.504462E-1,2.573441E-1,6.4020234E-1,-2.0841096E-1,4.928599E-2,1.0132614E-2,-2.9844722E-2,6.027862E-3,-4.0116977E-2,2.5702914E-2,3.2143258E-2,-3.2688886E-2,4.4118863E-2,-1.5929466E-3,-4.134014E-2,2.4616014E-2],"categories":[],"categories_nodes":[],"categories_segments":[],"categories_sizes":[],"default_left":[0,0,0,0,0,0,0,0,0,0,0,0,0,0,0,0,0,0,0,0,0,0,0,0,0,0,0,0,0,0,0,0,0,0,0,0,0,0,0,0,0],"id":23,"left_children":[1,3,5,7,9,11,13,15,17,-1,19,21,23,-1,-1,25,27,29,-1,-1,-1,31,-1,-1,-1,33,35,37,39,-1,-1,-1,-1,-1,-1,-1,-1,-1,-1,-1,-1],"loss_changes":[1.1431617E1,9.56402E0,5.3524294E0,6.704942E0,1.3479795E0,5.069067E0,9.2388535E-1,5.0841694E0,3.176691E0,0E0,4.645338E-1,2.312305E-1,9.1678023E-1,0E0,0E0,6.4871755E0,3.06273E0,2.74086E-1,0E0,0E0,0E0,5.892081E-1,0E0,0E0,0E0,4.9227037E0,4.5430384E0,1.6846123E0,3.7191458E0,0E0,0E0,0E0,0E0,0E0,0E0,0E0,0E0,0E0,0E0,0E0,0E0],"parents":[2147483647,0,0,1,1,2,2,3,3,4,4,5,5,6,6,7,7,8,8,10,10,11,11,12,12,15,15,16,16,17,17,21,21,25,25,26,26,27,27,28,28],"right_children":[2,4,6,8,10,12,14,16,18,-1,20,22,24,-1,-1,26,28,30,-1,-1,-1,32,-1,-1,-1,34,36,38,40,-1,-1,-1,-1,-1,-1,-1,-1,-1,-1,-1,-1],"split_conditions":[1E0,1E0,1E0,1E0,3.57461E2,1E0,5E0,1E0,4.58537E2,-5.6534447E-3,1E0,1E0,4.76528E2,9.330388E-3,5.284371E-2,1E0,1E0,1E0,-2.0002946E-2,-5.7170797E-2,-1.682966E-2,4.49558E2,-4.794576E-2,4.5251038E-2,-2.872648E-3,1E0,1E0,1E0,1E0,4.928599E-2,1.0132614E-2,-2.9844722E-2,6.027862E-3,-4.0116977E-2,2.5702914E-2,3.2143258E-2,-3.2688886E-2,4.4118863E-2,-1.5929466E-3,-4.134014E-2,2.4616014E-2],"split_indices":[1482,1683,407,476,2048,1261,2053,1508,2048,0,1349,807,2048,0,0,1738,1199,932,0,0,0,2048,0,0,0,140,1171,784,80,0,0,0,0,0,0,0,0,0,0,0,0],"split_type":[0,0,0,0,0,0,0,0,0,0,0,0,0,0,0,0,0,0,0,0,0,0,0,0,0,0,0,0,0,0,0,0,0,0,0,0,0,0,0,0,0],"sum_hessian":[9.8132965E1,7.470421E1,2.342876E1,6.1288185E1,1.3416022E1,9.175724E0,1.42530365E1,5.1057217E1,1.02309675E1,2.0664034E0,1.1349619E1,4.765836E0,4.409888E0,1.8756224E0,1.2377415E1,3.5236008E1,1.582121E1,8.569223E0,1.6617447E0,9.44954E0,1.9000785E0,3.3571124E0,1.4087232E0,3.2700968E0,1.139791E0,2.4498867E1,1.0737139E1,9.177795E0,6.643415E0,7.4625597E0,1.1066635E0,1.9530047E0,1.4041078E0,2.1947168E1,2.5516996E0,7.751632E0,2.9855068E0,6.5166144E0,2.6611807E0,3.4334757E0,3.2099392E0],"tree_param":{"num_deleted":"0","num_feature":"2054","num_nodes":"41","size_leaf_vector":"1"}},{"base_weights":[4.3216604E-3,-2.7588066E-1,3.9269525E-1,-4.5035842E-1,5.195011E-1,4.8432297E-1,-4.2360112E-2,-6.0393417E-1,4.773727E-1,9.331262E-1,-4.6179456E-1,6.693663E-1,-3.0530962E-1,-8.0003816E-1,3.8337433E-1,4.7045257E-2,-3.834677E-2,5.0665297E-2,1.7363839E-2,-3.8644336E-2,3.0410849E-3,7.4138075E-1,-2.472015E-2,8.896757E-2,-5.4017562E-2,2.9416895E-2,-8.8661474E-1,7.57295E-1,-2.6085986E-2,-4.482191E-1,3.297676E-2,-1.5406924E-1,8.599783E-1,-2.7032772E-2,3.282979E-1,-4.945017E-2,1.4487289E-2,5.092093E-2,-8.089089E-3,-3.271012E-2,-1.0808931E-3,-3.402956E-2,3.857934E-2,4.841755E-2,-7.820163E-3,-1.47721935E-2,4.3803774E-2],"categories":[],"categories_nodes":[],"categories_segments":[],"categories_sizes":[],"default_left":[0,0,0,0,0,0,0,0,0,0,0,0,0,0,0,0,0,0,0,0,0,0,0,0,0,0,0,0,0,0,0,0,0,0,0,0,0,0,0,0,0,0,0,0,0,0,0],"id":24,"left_children":[1,3,5,7,9,11,-1,13,15,17,19,21,23,25,27,-1,29,-1,-1,-1,-1,31,-1,33,-1,-1,35,37,-1,39,-1,41,43,-1,45,-1,-1,-1,-1,-1,-1,-1,-1,-1,-1,-1,-1],"loss_changes":[1.0725509E1,8.180533E0,5.102577E0,7.0553846E0,4.800601E0,5.916916E0,0E0,8.282046E0,1.7821873E0,1.9402504E-2,6.747734E-1,3.0472927E0,2.5741253E0,4.6913643E0,2.9340024E0,0E0,1.559451E0,0E0,0E0,0E0,0E0,3.3739662E0,0E0,1.1266471E0,0E0,0E0,4.2675915E0,1.5367155E0,0E0,2.827729E-1,0E0,2.6783004E0,3.1370144E0,0E0,2.03079E0,0E0,0E0,0E0,0E0,0E0,0E0,0E0,0E0,0E0,0E0,0E0,0E0],"parents":[2147483647,0,0,1,1,2,2,3,3,4,4,5,5,7,7,8,8,9,9,10,10,11,11,12,12,13,13,14,14,16,16,21,21,23,23,26,26,27,27,29,29,31,31,32,32,34,34],"right_children":[2,4,6,8,10,12,-1,14,16,18,20,22,24,26,28,-1,30,-1,-1,-1,-1,32,-1,34,-1,-1,36,38,-1,40,-1,42,44,-1,46,-1,-1,-1,-1,-1,-1,-1,-1,-1,-1,-1,-1],"split_conditions":[1E0,1E0,1E0,1E0,4.8015E0,2E0,-4.2360112E-2,1E0,6E0,1E0,5.0119E0,1E0,5.10516E2,2.183E2,2E0,4.7045257E-2,4.4653E2,5.0665297E-2,1.7363839E-2,-3.8644336E-2,3.0410849E-3,1E0,-2.472015E-2,5E0,-5.4017562E-2,2.9416895E-2,1E0,1E0,-2.6085986E-2,1E0,3.297676E-2,1E0,1E0,-2.7032772E-2,4.813E1,-4.945017E-2,1.4487289E-2,5.092093E-2,-8.089089E-3,-3.271012E-2,-1.0808931E-3,-3.402956E-2,3.857934E-2,4.841755E-2,-7.820163E-3,-1.47721935E-2,4.3803774E-2],"split_indices":[1145,476,794,750,2049,2050,0,231,2051,294,2049,811,2048,2048,2050,0,2048,0,0,0,0,1480,0,2053,0,0,1430,1060,0,1028,0,29,90,0,2052,0,0,0,0,0,0,0,0,0,0,0,0],"split_type":[0,0,0,0,0,0,0,0,0,0,0,0,0,0,0,0,0,0,0,0,0,0,0,0,0,0,0,0,0,0,0,0,0,0,0,0,0,0,0,0,0,0,0,0,0,0,0],"sum_hessian":[9.6563515E1,5.626169E1,4.0301823E1,4.6495956E1,9.765735E0,3.809594E1,2.2058837E0,4.019168E1,6.304274E0,6.9045086E0,2.861226E0,3.0986773E1,7.109166E0,3.368974E1,6.5019403E0,2.8859286E0,3.4183452E0,5.431513E0,1.4729959E0,1.4933913E0,1.3678348E0,2.9522839E1,1.4639344E0,5.298789E0,1.8103771E0,1.6373279E0,3.2052414E1,4.7166514E0,1.785289E0,2.378925E0,1.0394201E0,3.4178526E0,2.6104986E1,1.1126442E0,4.186145E0,2.9632511E1,2.4199016E0,3.5889015E0,1.1277498E0,1.2444996E0,1.1344255E0,2.347385E0,1.0704677E0,2.3632412E1,2.4725728E0,2.1727426E0,2.0134022E0],"tree_param":{"num_deleted":"0","num_feature":"2054","num_nodes":"47","size_leaf_vector":"1"}},{"base_weights":[4.5076855E-3,-1.7440017E-1,5.713011E-1,-1.0532286E-2,-8.735011E-1,-1.5411329E-2,9.3784636E-1,-1.6851977E-1,6.010836E-1,-4.463037E-3,-1.0002979E0,-6.2970114E-1,6.663401E-1,8.133333E-3,5.193795E-2,-3.8285363E-1,2.7749607E-1,5.3724136E-2,1.2789417E-2,-5.4989964E-2,-1.5239625E-2,-3.179039E-1,-4.6668407E-2,4.3997627E-2,-2.94273E-3,-6.6721576E-1,3.272946E-1,6.158381E-1,-2.0501111E-1,-3.6045358E-1,2.6833946E-2,-2.85303E-2,6.1892984E-3,-4.134767E-2,2.5110925E-2,3.451054E-2,-2.8020037E-2,4.273201E-2,-1.7092221E-3,-3.961082E-2,2.3454702E-2,-2.8131787E-2,-2.0888455E-3],"categories":[],"categories_nodes":[],"categories_segments":[],"categories_sizes":[],"default_left":[0,0,0,0,0,0,0,0,0,0,0,0,0,0,0,0,0,0,0,0,0,0,0,0,0,0,0,0,0,0,0,0,0,0,0,0,0,0,0,0,0,0,0],"id":25,"left_children":[1,3,5,7,9,11,13,15,17,-1,19,21,23,-1,-1,25,27,-1,29,-1,-1,31,-1,-1,-1,33,35,37,39,41,-1,-1,-1,-1,-1,-1,-1,-1,-1,-1,-1,-1,-1],"loss_changes":[9.822655E0,8.427687E0,5.0120053E0,5.96404E0,1.300106E0,4.573766E0,9.511318E-1,4.7903895E0,3.516025E0,0E0,4.903679E-1,2.4599814E-1,8.5537195E-1,0E0,0E0,6.986472E0,2.8172708E0,0E0,1.4963963E0,0E0,0E0,5.5556685E-1,0E0,0E0,0E0,4.9474144E0,3.6902285E0,1.5720391E0,3.358071E0,2.657485E-1,0E0,0E0,0E0,0E0,0E0,0E0,0E0,0E0,0E0,0E0,0E0,0E0,0E0],"parents":[2147483647,0,0,1,1,2,2,3,3,4,4,5,5,6,6,7,7,8,8,10,10,11,11,12,12,15,15,16,16,18,18,21,21,25,25,26,26,27,27,28,28,29,29],"right_children":[2,4,6,8,10,12,14,16,18,-1,20,22,24,-1,-1,26,28,-1,30,-1,-1,32,-1,-1,-1,34,36,38,40,42,-1,-1,-1,-1,-1,-1,-1,-1,-1,-1,-1,-1,-1],"split_conditions":[1E0,1E0,1E0,1E0,3.57461E2,1E0,5E0,1E0,1E0,-4.463037E-3,1E0,1E0,6.939E1,8.133333E-3,5.193795E-2,1E0,1E0,5.3724136E-2,1E0,-5.4989964E-2,-1.5239625E-2,4.49558E2,-4.6668407E-2,4.3997627E-2,-2.94273E-3,1E0,6.204E1,1E0,1E0,1E0,2.6833946E-2,-2.85303E-2,6.1892984E-3,-4.134767E-2,2.5110925E-2,3.451054E-2,-2.8020037E-2,4.273201E-2,-1.7092221E-3,-3.961082E-2,2.3454702E-2,-2.8131787E-2,-2.0888455E-3],"split_indices":[1482,1683,407,364,2048,1261,2053,1508,1391,0,1349,807,2052,0,0,1738,1199,0,140,0,0,2048,0,0,0,140,2052,784,80,486,0,0,0,0,0,0,0,0,0,0,0,0,0],"split_type":[0,0,0,0,0,0,0,0,0,0,0,0,0,0,0,0,0,0,0,0,0,0,0,0,0,0,0,0,0,0,0,0,0,0,0,0,0,0,0,0,0,0,0],"sum_hessian":[9.4884186E1,7.264588E1,2.2238304E1,5.9673576E1,1.2972302E1,8.919392E0,1.33189125E1,4.7999275E1,1.1674302E1,2.0426211E0,1.0929681E1,4.731993E0,4.1873984E0,1.8349961E0,1.1483916E1,3.25155E1,1.5483778E1,6.010903E0,5.663399E0,9.053205E0,1.8764765E0,3.3446639E0,1.3873295E0,3.0697696E0,1.1176286E0,2.3261452E1,9.254046E0,8.93916E0,6.5446167E0,3.4893746E0,2.1740246E0,1.9418254E0,1.4028383E0,2.0723595E1,2.5378573E0,6.7265153E0,2.5275307E0,6.307249E0,2.6319115E0,3.404117E0,3.1404998E0,1.6665233E0,1.8228514E0],"tree_param":{"num_deleted":"0","num_feature":"2054","num_nodes":"43","size_leaf_vector":"1"}},{"base_weights":[4.7366973E-3,-2.5789368E-1,3.7169427E-1,-4.6420893E-1,3.4607765E-1,4.6724665E-1,-7.6542246E-1,-6.3631177E-1,4.600072E-1,6.149747E-1,-5.934827E-2,5.6852365E-1,-4.041593E-2,-1.2336626E-2,-4.731215E-2,-7.2348344E-1,2.4258494E-1,4.618833E-2,-4.494385E-2,-1.8046636E-2,9.1305983E-1,2.4610472E-1,-2.7604291E-2,6.6224104E-1,-3.2456737E-2,-8.1092453E-1,2.7240264E-1,4.363248E-2,-3.811045E-2,-2.5279293E-2,2.6782343E-2,4.905187E-2,1.4544949E-2,-1.635214E-2,2.504442E-2,8.724054E-2,8.202679E-1,-4.63639E-2,4.9843974E-3,2.6548726E-2,-4.1278373E-3,-4.0525135E-2,2.2764483E-2,4.3774154E-2,-4.472916E-3],"categories":[],"categories_nodes":[],"categories_segments":[],"categories_sizes":[],"default_left":[0,0,0,0,0,0,0,0,0,0,0,0,0,0,0,0,0,0,0,0,0,0,0,0,0,0,0,0,0,0,0,0,0,0,0,0,0,0,0,0,0,0,0,0,0],"id":26,"left_children":[1,3,5,7,9,11,13,15,17,19,21,23,-1,-1,-1,25,27,-1,29,-1,31,33,-1,35,-1,37,39,-1,-1,-1,-1,-1,-1,-1,-1,41,43,-1,-1,-1,-1,-1,-1,-1,-1],"loss_changes":[9.187158E0,7.0855093E0,4.6777797E0,6.949383E0,1.6415528E0,5.2780733E0,9.1151714E-2,2.9106483E0,1.7159046E0,2.930203E0,1.1567631E0,4.4402227E0,0E0,0E0,0E0,3.071045E0,3.1786277E0,0E0,1.4413261E0,0E0,1.6229153E-2,8.762742E-1,0E0,2.9384756E0,0E0,3.3069801E0,3.5500914E-1,0E0,0E0,0E0,0E0,0E0,0E0,0E0,0E0,3.098366E0,1.3775787E0,0E0,0E0,0E0,0E0,0E0,0E0,0E0,0E0],"parents":[2147483647,0,0,1,1,2,2,3,3,4,4,5,5,6,6,7,7,8,8,9,9,10,10,11,11,15,15,16,16,18,18,20,20,21,21,23,23,25,25,26,26,35,35,36,36],"right_children":[2,4,6,8,10,12,14,16,18,20,22,24,-1,-1,-1,26,28,-1,30,-1,32,34,-1,36,-1,38,40,-1,-1,-1,-1,-1,-1,-1,-1,42,44,-1,-1,-1,-1,-1,-1,-1,-1],"split_conditions":[1E0,1E0,1E0,1E0,1E0,1E0,1E0,1E0,6E0,3E0,4.58537E2,1E0,-4.041593E-2,-1.2336626E-2,-4.731215E-2,1E0,1E0,4.618833E-2,4.1933E0,-1.8046636E-2,1E0,1E0,-2.7604291E-2,1E0,-3.2456737E-2,1E0,3.00229E2,4.363248E-2,-3.811045E-2,-2.5279293E-2,2.6782343E-2,4.905187E-2,1.4544949E-2,-1.635214E-2,2.504442E-2,4.073E1,1E0,-4.63639E-2,4.9843974E-3,2.6548726E-2,-4.1278373E-3,-4.0525135E-2,2.2764483E-2,4.3774154E-2,-4.472916E-3],"split_indices":[1145,1939,2009,750,1991,794,1589,1607,2051,2053,2048,1309,0,0,0,1430,378,0,2049,0,650,140,0,1088,0,1697,2048,0,0,0,0,0,0,0,0,2052,1991,0,0,0,0,0,0,0,0],"split_type":[0,0,0,0,0,0,0,0,0,0,0,0,0,0,0,0,0,0,0,0,0,0,0,0,0,0,0,0,0,0,0,0,0,0,0,0,0,0,0,0,0,0,0,0,0],"sum_hessian":[9.333334E1,5.4572903E1,3.876044E1,4.085003E1,1.3722873E1,3.6299294E1,2.4611487E0,3.46999E1,6.1501284E0,7.9399047E0,5.782968E0,3.4142735E1,2.1565592E0,1.2474142E0,1.2137344E0,3.1729681E1,2.9702187E0,2.7734792E0,3.3766491E0,1.8084252E0,6.1314797E0,3.8789215E0,1.9040467E0,3.2126263E1,2.0164707E0,2.9339346E1,2.3903356E0,1.9063436E0,1.0638752E0,1.9548521E0,1.421797E0,5.0075316E0,1.1239477E0,1.1064045E0,2.772517E0,7.2604117E0,2.486585E1,2.599902E1,3.3403263E0,1.0960435E0,1.2942921E0,1.7615328E0,5.498879E0,2.3478483E1,1.3873678E0],"tree_param":{"num_deleted":"0","num_feature":"2054","num_nodes":"45","size_leaf_vector":"1"}},{"base_weights":[4.146388E-3,-1.6303402E-1,5.447835E-1,-7.2692432E-3,-8.320412E-1,-2.7632091E-2,9.1473716E-1,-1.5782101E-1,5.8016247E-1,-9.3938506E-1,9.61768E-4,-5.9042615E-1,6.8259025E-1,6.5857875E-3,5.1150657E-2,-3.0888152E-1,4.2566073E-1,5.2580476E-2,1.6033456E-2,-1.0156716E0,-3.3806171E-3,-2.371724E-1,-4.1236605E-2,2.5723798E-3,4.2587593E-2,-3.9525256E-1,5.2266788E-2,7.7832E-1,-2.0464788E-1,-3.3436012E-1,5.162466E-1,-1.7382918E-2,-1.0934263E0,-2.568454E-2,7.647391E-3,-2.511606E-2,4.208399E-2,4.508335E-2,2.0287428E-3,1.3507082E-2,-2.728796E-2,-2.6983244E-2,-1.2017841E-3,7.520491E-3,3.0974671E-2,-5.775399E-2,-1.5993776E-2],"categories":[],"categories_nodes":[],"categories_segments":[],"categories_sizes":[],"default_left":[0,0,0,0,0,0,0,0,0,0,0,0,0,0,0,0,0,0,0,0,0,0,0,0,0,0,0,0,0,0,0,0,0,0,0,0,0,0,0,0,0,0,0,0,0,0,0],"id":27,"left_children":[1,3,5,7,9,11,13,15,17,19,-1,21,23,-1,-1,25,27,-1,29,31,-1,33,-1,-1,-1,35,-1,37,39,41,43,-1,45,-1,-1,-1,-1,-1,-1,-1,-1,-1,-1,-1,-1,-1,-1],"loss_changes":[8.485102E0,7.468175E0,4.720477E0,5.326027E0,1.2550602E0,4.2700963E0,1.0095434E0,4.3533497E0,3.2513056E0,7.3211765E-1,0E0,2.9553223E-1,4.623475E-1,0E0,0E0,4.931298E0,2.442378E0,0E0,1.331114E0,1.9126034E-1,0E0,4.8524946E-1,0E0,0E0,0E0,5.327935E0,0E0,5.816879E-1,8.7247014E-1,2.7333933E-1,2.4512947E-2,0E0,7.8240395E-2,0E0,0E0,0E0,0E0,0E0,0E0,0E0,0E0,0E0,0E0,0E0,0E0,0E0,0E0],"parents":[2147483647,0,0,1,1,2,2,3,3,4,4,5,5,6,6,7,7,8,8,9,9,11,11,12,12,15,15,16,16,18,18,19,19,21,21,25,25,27,27,28,28,29,29,30,30,32,32],"right_children":[2,4,6,8,10,12,14,16,18,20,-1,22,24,-1,-1,26,28,-1,30,32,-1,34,-1,-1,-1,36,-1,38,40,42,44,-1,46,-1,-1,-1,-1,-1,-1,-1,-1,-1,-1,-1,-1,-1,-1],"split_conditions":[1E0,1E0,1E0,1E0,1E0,1E0,5E0,1E0,1E0,1E0,9.61768E-4,1E0,1E0,6.5857875E-3,5.1150657E-2,1E0,5.947E1,5.2580476E-2,1E0,3.57461E2,-3.3806171E-3,1E0,-4.1236605E-2,2.5723798E-3,4.2587593E-2,1E0,5.2266788E-2,1E0,3.91318E0,1E0,1E0,-1.7382918E-2,1E0,-2.568454E-2,7.647391E-3,-2.511606E-2,4.208399E-2,4.508335E-2,2.0287428E-3,1.3507082E-2,-2.728796E-2,-2.6983244E-2,-1.2017841E-3,7.520491E-3,3.0974671E-2,-5.775399E-2,-1.5993776E-2],"split_indices":[1482,1683,407,364,538,378,2053,231,1391,1911,0,807,650,0,0,548,2052,0,140,2048,0,1088,0,0,0,1781,0,1535,2049,486,1096,0,249,0,0,0,0,0,0,0,0,0,0,0,0,0,0],"split_type":[0,0,0,0,0,0,0,0,0,0,0,0,0,0,0,0,0,0,0,0,0,0,0,0,0,0,0,0,0,0,0,0,0,0,0,0,0,0,0,0,0,0,0,0,0,0,0],"sum_hessian":[9.189577E1,7.072425E1,2.1171516E1,5.818737E1,1.2536884E1,8.674733E0,1.2496782E1,4.689904E1,1.1288329E1,1.1041124E1,1.4957595E0,4.933782E0,3.7409513E0,1.7873865E0,1.0709395E1,3.762797E1,9.2710705E0,5.6785727E0,5.6097565E0,1.0000907E1,1.0402175E0,2.7699187E0,2.1638634E0,1.0663875E0,2.674564E0,3.6037647E1,1.5903242E0,5.794313E0,3.476757E0,3.493891E0,2.1158657E0,1.6131442E0,8.387763E0,1.4356065E0,1.3343122E0,3.3713326E1,2.3243213E0,4.773943E0,1.0203702E0,1.5405437E0,1.9362134E0,1.6579732E0,1.8359177E0,1.0064582E0,1.1094077E0,7.311782E0,1.0759811E0],"tree_param":{"num_deleted":"0","num_feature":"2054","num_nodes":"47","size_leaf_vector":"1"}},{"base_weights":[5.411276E-3,-1.554058E-1,5.3266376E-1,-3.997094E-3,-8.120475E-1,-2.7814396E-2,9.0298104E-1,-1.4853005E-1,5.668325E-1,-9.188918E-1,9.329412E-4,-6.023619E-1,6.3956434E-1,6.38891E-3,5.0701786E-2,-3.5094532E-1,2.6935256E-1,5.185911E-2,1.6921742E-2,-9.9526054E-1,-3.2934172E-3,-3.1099465E-1,-4.414159E-2,4.314063E-2,-1.8314511E-3,-6.15607E-1,3.1127778E-1,5.982544E-1,-1.9330144E-1,-3.2400438E-1,5.074934E-1,-1.0542872E0,-1.2551747E-2,-2.8038157E-2,6.1918176E-3,-3.869735E-2,2.5130162E-2,3.3175897E-2,-2.6038824E-2,4.1732084E-2,-1.72475E-3,-3.763073E-2,2.2569712E-2,-2.6160091E-2,-1.1626102E-3,7.347575E-3,3.0515281E-2,-5.8378E-2,-2.0335782E-2],"categories":[],"categories_nodes":[],"categories_segments":[],"categories_sizes":[],"default_left":[0,0,0,0,0,0,0,0,0,0,0,0,0,0,0,0,0,0,0,0,0,0,0,0,0,0,0,0,0,0,0,0,0,0,0,0,0,0,0,0,0,0,0,0,0,0,0,0,0],"id":28,"left_children":[1,3,5,7,9,11,13,15,17,19,-1,21,23,-1,-1,25,27,-1,29,31,-1,33,-1,-1,-1,35,37,39,41,43,45,47,-1,-1,-1,-1,-1,-1,-1,-1,-1,-1,-1,-1,-1,-1,-1,-1,-1],"loss_changes":[7.8542786E0,7.05636E0,4.518167E0,4.927734E0,1.1976042E0,4.05961E0,9.9518776E-1,4.124036E0,3.1040685E0,7.034235E-1,0E0,1.8833876E-1,7.740481E-1,0E0,0E0,5.8924885E0,2.5672188E0,0E0,1.265002E0,2.0816422E-1,0E0,5.388521E-1,0E0,0E0,0E0,4.5631466E0,3.262282E0,1.4738064E0,3.026144E0,2.569882E-1,2.4771512E-2,2.337122E-1,0E0,0E0,0E0,0E0,0E0,0E0,0E0,0E0,0E0,0E0,0E0,0E0,0E0,0E0,0E0,0E0,0E0],"parents":[2147483647,0,0,1,1,2,2,3,3,4,4,5,5,6,6,7,7,8,8,9,9,11,11,12,12,15,15,16,16,18,18,19,19,21,21,25,25,26,26,27,27,28,28,29,29,30,30,31,31],"right_children":[2,4,6,8,10,12,14,16,18,20,-1,22,24,-1,-1,26,28,-1,30,32,-1,34,-1,-1,-1,36,38,40,42,44,46,48,-1,-1,-1,-1,-1,-1,-1,-1,-1,-1,-1,-1,-1,-1,-1,-1,-1],"split_conditions":[1E0,1E0,1E0,1E0,1E0,1E0,5E0,1E0,1E0,1E0,9.329412E-4,1E0,1E0,6.38891E-3,5.0701786E-2,1E0,1E0,5.185911E-2,1E0,1E0,-3.2934172E-3,4.49558E2,-4.414159E-2,4.314063E-2,-1.8314511E-3,1E0,6.204E1,1E0,1E0,1E0,1E0,1E0,-1.2551747E-2,-2.8038157E-2,6.1918176E-3,-3.869735E-2,2.5130162E-2,3.3175897E-2,-2.6038824E-2,4.1732084E-2,-1.72475E-3,-3.763073E-2,2.2569712E-2,-2.6160091E-2,-1.1626102E-3,7.347575E-3,3.0515281E-2,-5.8378E-2,-2.0335782E-2],"split_indices":[1482,1683,407,364,538,1261,2053,1508,1391,1911,0,807,319,0,0,1738,1199,0,140,1816,0,2048,0,0,0,140,2052,784,80,486,1096,816,0,0,0,0,0,0,0,0,0,0,0,0,0,0,0,0,0],"split_type":[0,0,0,0,0,0,0,0,0,0,0,0,0,0,0,0,0,0,0,0,0,0,0,0,0,0,0,0,0,0,0,0,0,0,0,0,0,0,0,0,0,0,0,0,0,0,0,0,0],"sum_hessian":[9.065454E1,7.000699E1,2.064755E1,5.7706974E1,1.2300012E1,8.5826025E0,1.2064948E1,4.66381E1,1.1068877E1,1.0804229E1,1.4957823E0,4.6644177E0,3.9181848E0,1.7813122E0,1.0283636E1,3.152709E1,1.5111008E1,5.4884253E0,5.580452E0,9.763395E0,1.0408336E0,3.322088E0,1.34233E0,2.738178E0,1.1800067E0,2.2575172E1,8.95192E0,8.660877E0,6.4501305E0,3.4927077E0,2.0877442E0,8.659928E0,1.1034667E0,1.9261113E0,1.3959765E0,2.004469E1,2.530483E0,6.4316936E0,2.5202253E0,6.0730057E0,2.5878713E0,3.3641384E0,3.0859919E0,1.6561468E0,1.8365611E0,1.0022775E0,1.0854667E0,6.6872215E0,1.972707E0],"tree_param":{"num_deleted":"0","num_feature":"2054","num_nodes":"49","size_leaf_vector":"1"}},{"base_weights":[5.5612857E-3,-1.4980428E-1,5.2064013E-1,-2.3637414E-3,-7.9200554E-1,-2.9186668E-2,8.913732E-1,-1.4222063E-1,5.5389786E-1,-2.2728636E-3,-9.2288923E-1,-5.622501E-1,6.621021E-1,6.1978092E-3,5.0263714E-2,-2.8595078E-1,4.144736E-1,5.1159143E-2,1.7808193E-2,-1.0237935E0,-1.317913E-2,-2.2255576E-1,-3.9578047E-2,2.1899103E-3,4.1617405E-2,-3.703341E-1,5.151645E-2,7.612504E-1,-1.9210412E-1,-3.1400675E-1,2.4946509E-2,-1.0814995E0,-1.4453945E-2,-2.4774669E-2,7.907946E-3,-3.3948425E-2,3.0856945E-3,4.7032516E-2,8.828368E-3,1.37744425E-2,-2.652335E-2,-2.5366684E-2,-1.12472E-3,-1.6736498E-2,-5.8359504E-2],"categories":[],"categories_nodes":[],"categories_segments":[],"categories_sizes":[],"default_left":[0,0,0,0,0,0,0,0,0,0,0,0,0,0,0,0,0,0,0,0,0,0,0,0,0,0,0,0,0,0,0,0,0,0,0,0,0,0,0,0,0,0,0,0,0],"id":29,"left_children":[1,3,5,7,9,11,13,15,17,-1,19,21,23,-1,-1,25,27,-1,29,31,-1,33,-1,-1,-1,35,-1,37,39,41,-1,43,-1,-1,-1,-1,-1,-1,-1,-1,-1,-1,-1,-1,-1],"loss_changes":[7.295962E0,6.6328907E0,4.332112E0,4.590251E0,1.2361593E0,3.8641317E0,9.810438E-1,3.8899841E0,2.9642763E0,0E0,4.6709728E-1,2.8271663E-1,4.4616485E-1,0E0,0E0,4.6083694E0,2.2666645E0,0E0,1.2025558E0,7.9981804E-2,0E0,4.6961617E-1,0E0,0E0,0E0,4.9086685E0,0E0,5.2781034E-1,8.526128E-1,2.4169174E-1,0E0,1.3539696E-1,0E0,0E0,0E0,0E0,0E0,0E0,0E0,0E0,0E0,0E0,0E0,0E0,0E0],"parents":[2147483647,0,0,1,1,2,2,3,3,4,4,5,5,6,6,7,7,8,8,10,10,11,11,12,12,15,15,16,16,18,18,19,19,21,21,25,25,27,27,28,28,29,29,31,31],"right_children":[2,4,6,8,10,12,14,16,18,-1,20,22,24,-1,-1,26,28,-1,30,32,-1,34,-1,-1,-1,36,-1,38,40,42,-1,44,-1,-1,-1,-1,-1,-1,-1,-1,-1,-1,-1,-1,-1],"split_conditions":[1E0,1E0,1E0,1E0,3.57461E2,1E0,5E0,1E0,1E0,-2.2728636E-3,1E0,1E0,1E0,6.1978092E-3,5.0263714E-2,1E0,5.947E1,5.1159143E-2,1E0,4.88595E2,-1.317913E-2,1E0,-3.9578047E-2,2.1899103E-3,4.1617405E-2,1E0,5.151645E-2,1E0,3.91318E0,1E0,2.4946509E-2,3.66505E2,-1.4453945E-2,-2.4774669E-2,7.907946E-3,-3.3948425E-2,3.0856945E-3,4.7032516E-2,8.828368E-3,1.37744425E-2,-2.652335E-2,-2.5366684E-2,-1.12472E-3,-1.6736498E-2,-5.8359504E-2],"split_indices":[1482,1683,407,364,2048,378,2053,231,1391,0,1349,807,650,0,0,548,2052,0,140,2048,0,1088,0,0,0,1855,0,1199,2049,486,0,2048,0,0,0,0,0,0,0,0,0,0,0,0,0],"split_type":[0,0,0,0,0,0,0,0,0,0,0,0,0,0,0,0,0,0,0,0,0,0,0,0,0,0,0,0,0,0,0,0,0,0,0,0,0,0,0,0,0,0,0,0,0],"sum_hessian":[8.919583E1,6.907085E1,2.0124989E1,5.699033E1,1.2080512E1,8.475869E0,1.1649119E1,4.6135212E1,1.085512E1,2.0029855E0,1.0077526E1,4.891004E0,3.5848649E0,1.7754136E0,9.873706E0,3.7054607E1,9.0806055E0,5.3037186E0,5.551401E0,8.260463E0,1.817064E0,2.7652242E0,2.12578E0,1.0454037E0,2.5394611E0,3.5497597E1,1.5570086E0,5.6153517E0,3.4652543E0,3.4910657E0,2.0603354E0,7.221288E0,1.0391742E0,1.4349873E0,1.3302368E0,2.037276E1,1.5124836E1,3.8310409E0,1.7843106E0,1.5328226E0,1.9324316E0,1.6538831E0,1.8371826E0,1.2483687E0,5.9729195E0],"tree_param":{"num_deleted":"0","num_feature":"2054","num_nodes":"45","size_leaf_vector":"1"}},{"base_weights":[6.0720746E-3,-2.2468303E-1,3.345405E-1,-3.9597493E-1,3.5044286E-1,4.2679214E-1,-7.2187567E-1,-5.589304E-1,4.6656954E-1,7.081878E-1,-3.70032E-1,5.2647984E-1,-3.852538E-2,-1.1757753E-2,-4.388247E-2,-7.602023E-1,4.069665E-1,4.5899905E-2,-2.7867768E-2,9.713614E-1,-1.4142384E-2,-4.2919043E-2,2.8789366E-2,6.1935467E-1,-3.1350274E-2,-9.106322E-1,9.319809E-2,7.1634144E-1,-1.9148262E-2,-2.2729496E-2,2.5663903E-2,5.4068685E-2,1.4278767E-2,5.9478294E-2,7.7904373E-1,-5.0017387E-2,5.587109E-3,-4.4881072E-2,4.711936E-2,4.852726E-2,-8.168316E-3,-3.927219E-2,2.1056203E-2,4.3137334E-2,2.0215444E-3],"categories":[],"categories_nodes":[],"categories_segments":[],"categories_sizes":[],"default_left":[0,0,0,0,0,0,0,0,0,0,0,0,0,0,0,0,0,0,0,0,0,0,0,0,0,0,0,0,0,0,0,0,0,0,0,0,0,0,0,0,0,0,0,0,0],"id":30,"left_children":[1,3,5,7,9,11,13,15,17,19,21,23,-1,-1,-1,25,27,-1,29,31,-1,-1,-1,33,-1,35,37,39,-1,-1,-1,-1,-1,41,43,-1,-1,-1,-1,-1,-1,-1,-1,-1,-1],"loss_changes":[6.825466E0,5.3510084E0,3.9286485E0,6.056789E0,3.5282655E0,4.558704E0,4.800129E-2,7.1406E0,1.6097903E0,2.5727448E0,2.7396529E0,3.8931036E0,0E0,0E0,0E0,3.8627224E0,1.9143492E0,0E0,1.23967E0,2.3345184E-1,0E0,0E0,0E0,2.705616E0,0E0,2.4150124E0,5.31967E0,1.3148198E0,0E0,0E0,0E0,0E0,0E0,2.7488587E0,1.4406595E0,0E0,0E0,0E0,0E0,0E0,0E0,0E0,0E0,0E0,0E0],"parents":[2147483647,0,0,1,1,2,2,3,3,4,4,5,5,6,6,7,7,8,8,9,9,10,10,11,11,15,15,16,16,18,18,19,19,23,23,25,25,26,26,27,27,33,33,34,34],"right_children":[2,4,6,8,10,12,14,16,18,20,22,24,-1,-1,-1,26,28,-1,30,32,-1,-1,-1,34,-1,36,38,40,-1,-1,-1,-1,-1,42,44,-1,-1,-1,-1,-1,-1,-1,-1,-1,-1],"split_conditions":[1E0,1E0,1E0,1E0,4.7374E0,1E0,1E0,1E0,6E0,5E0,1E0,1E0,-3.852538E-2,-1.1757753E-2,-4.388247E-2,1E0,2E0,4.5899905E-2,4.1933E0,1E0,-1.4142384E-2,-4.2919043E-2,2.8789366E-2,1E0,-3.1350274E-2,1E0,1E0,1E0,-1.9148262E-2,-2.2729496E-2,2.5663903E-2,5.4068685E-2,1.4278767E-2,4.073E1,1E0,-5.0017387E-2,5.587109E-3,-4.4881072E-2,4.711936E-2,4.852726E-2,-8.168316E-3,-3.927219E-2,2.1056203E-2,4.3137334E-2,2.0215444E-3],"split_indices":[1145,1243,2009,750,2049,794,1589,231,2051,2051,667,1309,0,0,0,538,2050,0,2049,294,0,0,0,1088,0,1430,74,1060,0,0,0,0,0,2052,162,0,0,0,0,0,0,0,0,0,0],"split_type":[0,0,0,0,0,0,0,0,0,0,0,0,0,0,0,0,0,0,0,0,0,0,0,0,0,0,0,0,0,0,0,0,0,0,0,0,0,0,0,0,0,0,0,0,0],"sum_hessian":[8.805907E1,5.1908417E1,3.615065E1,4.0236214E1,1.1672204E1,3.379546E1,2.3551917E0,3.4138607E1,6.097607E0,7.8108535E0,3.861351E0,3.171512E1,2.080337E0,1.1794747E0,1.1757169E0,2.8427824E1,5.710783E0,2.7396314E0,3.3579757E0,6.18757E0,1.623283E0,2.6074898E0,1.2538612E0,2.9780361E1,1.9347596E0,2.4110733E1,4.317091E0,4.170555E0,1.5402279E0,1.9669113E0,1.3910643E0,4.8350964E0,1.3524739E0,6.9135685E0,2.2866793E1,2.2185455E1,1.925277E0,1.9660746E0,2.3510163E0,3.1554775E0,1.0150774E0,1.7209679E0,5.1926003E0,2.0388243E1,2.47855E0],"tree_param":{"num_deleted":"0","num_feature":"2054","num_nodes":"45","size_leaf_vector":"1"}},{"base_weights":[5.594024E-3,-1.4068198E-1,4.9928808E-1,8.459715E-5,-7.597907E-1,-3.672353E-2,8.717404E-1,-1.321458E-1,5.3346014E-1,-1.5565169E-3,-8.914099E-1,-5.7478845E-1,6.140372E-1,5.494501E-3,4.9574155E-2,-2.6676294E-1,3.9097834E-1,5.0317563E-2,7.6590064E-3,-9.9500126E-1,-1.2057326E-2,-5.078876E-3,-6.679029E-1,4.1811727E-2,-2.202032E-3,-3.480128E-1,4.980422E-2,7.3443574E-1,-1.956628E-1,3.1234154E-1,-2.3509368E-2,-1.0522834E0,-1.3765539E-2,-4.5464855E-2,-1.3884488E-2,-2.2398697E-2,4.0965654E-2,4.5889314E-2,7.862172E-3,1.3157819E-2,-2.609989E-2,-1.0624311E-2,3.7115496E-2,-1.5928706E-2,-5.6911718E-2],"categories":[],"categories_nodes":[],"categories_segments":[],"categories_sizes":[],"default_left":[0,0,0,0,0,0,0,0,0,0,0,0,0,0,0,0,0,0,0,0,0,0,0,0,0,0,0,0,0,0,0,0,0,0,0,0,0,0,0,0,0,0,0,0,0],"id":31,"left_children":[1,3,5,7,9,11,13,15,17,-1,19,21,23,-1,-1,25,27,-1,29,31,-1,-1,33,-1,-1,35,-1,37,39,41,-1,43,-1,-1,-1,-1,-1,-1,-1,-1,-1,-1,-1,-1,-1],"loss_changes":[6.39543E0,5.956592E0,4.0725927E0,4.06851E0,1.1865659E0,3.5944185E0,9.8412514E-1,3.3596423E0,2.8417795E0,0E0,4.8003578E-1,1.7820096E-1,7.201861E-1,0E0,0E0,4.1800184E0,2.1316805E0,0E0,1.0836074E0,7.718563E-2,0E0,0E0,1.7010355E-1,0E0,0E0,4.549415E0,0E0,5.365336E-1,8.0112386E-1,1.1799207E0,0E0,1.3490105E-1,0E0,0E0,0E0,0E0,0E0,0E0,0E0,0E0,0E0,0E0,0E0,0E0,0E0],"parents":[2147483647,0,0,1,1,2,2,3,3,4,4,5,5,6,6,7,7,8,8,10,10,11,11,12,12,15,15,16,16,18,18,19,19,22,22,25,25,27,27,28,28,29,29,31,31],"right_children":[2,4,6,8,10,12,14,16,18,-1,20,22,24,-1,-1,26,28,-1,30,32,-1,-1,34,-1,-1,36,-1,38,40,42,-1,44,-1,-1,-1,-1,-1,-1,-1,-1,-1,-1,-1,-1,-1],"split_conditions":[1E0,1E0,1E0,1E0,3.57461E2,1E0,5E0,1E0,1E0,-1.5565169E-3,1E0,3.51112E0,1E0,5.494501E-3,4.9574155E-2,1E0,5.947E1,5.0317563E-2,4.7374E0,4.88595E2,-1.2057326E-2,-5.078876E-3,1E0,4.1811727E-2,-2.202032E-3,1E0,4.980422E-2,1E0,3.91318E0,4.28414E2,-2.3509368E-2,3.66505E2,-1.3765539E-2,-4.5464855E-2,-1.3884488E-2,-2.2398697E-2,4.0965654E-2,4.5889314E-2,7.862172E-3,1.3157819E-2,-2.609989E-2,-1.0624311E-2,3.7115496E-2,-1.5928706E-2,-5.6911718E-2],"split_indices":[1482,1683,407,364,2048,1261,2053,231,1391,0,1349,2049,319,0,0,548,2052,0,2049,2048,0,0,875,0,0,1781,0,1199,2049,2048,0,2048,0,0,0,0,0,0,0,0,0,0,0,0,0],"split_type":[0,0,0,0,0,0,0,0,0,0,0,0,0,0,0,0,0,0,0,0,0,0,0,0,0,0,0,0,0,0,0,0,0,0,0,0,0,0,0,0,0,0,0,0,0],"sum_hessian":[8.6587585E1,6.734814E1,1.9239454E1,5.568656E1,1.1661573E1,8.257354E0,1.09821E1,4.5226578E1,1.0459983E1,1.9733541E0,9.688219E0,4.583964E0,3.6733902E0,1.7521217E0,9.229978E0,3.6360004E1,8.866573E0,5.0258927E0,5.4340897E0,7.899607E0,1.7886124E0,1.0974698E0,3.4864943E0,2.5437727E0,1.1296173E0,3.4842697E1,1.5173094E0,5.433512E0,3.4330611E0,3.5297928E0,1.9042971E0,6.8891478E0,1.0104594E0,1.3321438E0,2.1543503E0,3.2662003E1,2.1806924E0,3.6757793E0,1.757733E0,1.5073557E0,1.9257053E0,1.8173318E0,1.7124609E0,1.2159352E0,5.6732125E0],"tree_param":{"num_deleted":"0","num_feature":"2054","num_nodes":"45","size_leaf_vector":"1"}},{"base_weights":[6.6116634E-3,-1.339728E-1,4.8755288E-1,3.1181453E-3,-7.412363E-1,-3.7809007E-2,8.6042124E-1,-1.2379889E-1,5.2133596E-1,-8.526579E-1,2.4481704E-3,-5.3635436E-1,6.37564E-1,5.3296946E-3,4.9158584E-2,-3.055803E-1,2.4892364E-1,4.9659036E-2,7.9234615E-3,-9.3212867E-1,-2.225231E-3,-2.7552602E-1,-4.2570367E-2,2.1481859E-3,4.0196165E-2,-5.5332184E-1,3.070582E-1,5.6719774E-1,-1.881787E-1,3.055234E-1,-2.2708522E-2,-1.4465301E-2,-1.0175527E0,1.03175985E-2,-4.6886864E-1,-3.560644E-2,2.5598023E-2,2.7058769E-2,-3.9937537E-2,4.0124904E-2,-2.1805696E-3,-3.5708632E-2,2.1271693E-2,-1.0268957E-2,3.6557253E-2,-5.4146197E-2,-1.3460088E-2,-3.0642858E-2,-7.014811E-3],"categories":[],"categories_nodes":[],"categories_segments":[],"categories_sizes":[],"default_left":[0,0,0,0,0,0,0,0,0,0,0,0,0,0,0,0,0,0,0,0,0,0,0,0,0,0,0,0,0,0,0,0,0,0,0,0,0,0,0,0,0,0,0,0,0,0,0,0,0],"id":32,"left_children":[1,3,5,7,9,11,13,15,17,19,-1,21,23,-1,-1,25,27,-1,29,31,-1,33,-1,-1,-1,35,37,39,41,