{"learner":{"attributes":{"scikit_learn":"{\"_estimator_type\": \"regressor\"}"},"feature_names":[],"feature_types":[],"gradient_booster":{"model":{"cats":{"enc":[],"feature_segments":[],"sorted_idx":[]},"gbtree_model_param":{"num_parallel_tree":"1","num_trees":"600"},"iteration_indptr":[0,1,2,3,4,5,6,7,8,9,10,11,12,13,14,15,16,17,18,19,20,21,22,23,24,25,26,27,28,29,30,31,32,33,34,35,36,37,38,39,40,41,42,43,44,45,46,47,48,49,50,51,52,53,54,55,56,57,58,59,60,61,62,63,64,65,66,67,68,69,70,71,72,73,74,75,76,77,78,79,80,81,82,83,84,85,86,87,88,89,90,91,92,93,94,95,96,97,98,99,100,101,102,103,104,105,106,107,108,109,110,111,112,113,114,115,116,117,118,119,120,121,122,123,124,125,126,127,128,129,130,131,132,133,134,135,136,137,138,139,140,141,142,143,144,145,146,147,148,149,150,151,152,153,154,155,156,157,158,159,160,161,162,163,164,165,166,167,168,169,170,171,172,173,174,175,176,177,178,179,180,181,182,183,184,185,186,187,188,189,190,191,192,193,194,195,196,197,198,199,200,201,202,203,204,205,206,207,208,209,210,211,212,213,214,215,216,217,218,219,220,221,222,223,224,225,226,227,228,229,230,231,232,233,234,235,236,237,238,239,240,241,242,243,244,245,246,247,248,249,250,251,252,253,254,255,256,257,258,259,260,261,262,263,264,265,266,267,268,269,270,271,272,273,274,275,276,277,278,279,280,281,282,283,284,285,286,287,288,289,290,291,292,293,294,295,296,297,298,299,300,301,302,303,304,305,306,307,308,309,310,311,312,313,314,315,316,317,318,319,320,321,322,323,324,325,326,327,328,329,330,331,332,333,334,335,336,337,338,339,340,341,342,343,344,345,346,347,348,349,350,351,352,353,354,355,356,357,358,359,360,361,362,363,364,365,366,367,368,369,370,371,372,373,374,375,376,377,378,379,380,381,382,383,384,385,386,387,388,389,390,391,392,393,394,395,396,397,398,399,400,401,402,403,404,405,406,407,408,409,410,411,412,413,414,415,416,417,418,419,420,421,422,423,424,425,426,427,428,429,430,431,432,433,434,435,436,437,438,439,440,441,442,443,444,445,446,447,448,449,450,451,452,453,454,455,456,457,458,459,460,461,462,463,464,465,466,467,468,469,470,471,472,473,474,475,476,477,478,479,480,481,482,483,484,485,486,487,488,489,490,491,492,493,494,495,496,497,498,499,500,501,502,503,504,505,506,507,508,509,510,511,512,513,514,515,516,517,518,519,520,521,522,523,524,525,526,527,528,529,530,531,532,533,534,535,536,537,538,539,540,541,542,543,544,545,546,547,548,549,550,551,552,553,554,555,556,557,558,559,560,561,562,563,564,565,566,567,568,569,570,571,572,573,574,575,576,577,578,579,580,581,582,583,584,585,586,587,588,589,590,591,592,593,594,595,596,597,598,599,600],"tree_info":[0,0,0,0,0,0,0,0,0,0,0,0,0,0,0,0,0,0,0,0,0,0,0,0,0,0,0,0,0,0,0,0,0,0,0,0,0,0,0,0,0,0,0,0,0,0,0,0,0,0,0,0,0,0,0,0,0,0,0,0,0,0,0,0,0,0,0,0,0,0,0,0,0,0,0,0,0,0,0,0,0,0,0,0,0,0,0,0,0,0,0,0,0,0,0,0,0,0,0,0,0,0,0,0,0,0,0,0,0,0,0,0,0,0,0,0,0,0,0,0,0,0,0,0,0,0,0,0,0,0,0,0,0,0,0,0,0,0,0,0,0,0,0,0,0,0,0,0,0,0,0,0,0,0,0,0,0,0,0,0,0,0,0,0,0,0,0,0,0,0,0,0,0,0,0,0,0,0,0,0,0,0,0,0,0,0,0,0,0,0,0,0,0,0,0,0,0,0,0,0,0,0,0,0,0,0,0,0,0,0,0,0,0,0,0,0,0,0,0,0,0,0,0,0,0,0,0,0,0,0,0,0,0,0,0,0,0,0,0,0,0,0,0,0,0,0,0,0,0,0,0,0,0,0,0,0,0,0,0,0,0,0,0,0,0,0,0,0,0,0,0,0,0,0,0,0,0,0,0,0,0,0,0,0,0,0,0,0,0,0,0,0,0,0,0,0,0,0,0,0,0,0,0,0,0,0,0,0,0,0,0,0,0,0,0,0,0,0,0,0,0,0,0,0,0,0,0,0,0,0,0,0,0,0,0,0,0,0,0,0,0,0,0,0,0,0,0,0,0,0,0,0,0,0,0,0,0,0,0,0,0,0,0,0,0,0,0,0,0,0,0,0,0,0,0,0,0,0,0,0,0,0,0,0,0,0,0,0,0,0,0,0,0,0,0,0,0,0,0,0,0,0,0,0,0,0,0,0,0,0,0,0,0,0,0,0,0,0,0,0,0,0,0,0,0,0,0,0,0,0,0,0,0,0,0,0,0,0,0,0,0,0,0,0,0,0,0,0,0,0,0,0,0,0,0,0,0,0,0,0,0,0,0,0,0,0,0,0,0,0,0,0,0,0,0,0,0,0,0,0,0,0,0,0,0,0,0,0,0,0,0,0,0,0,0,0,0,0,0,0,0,0,0,0,0,0,0,0,0,0,0,0,0,0,0,0,0,0,0,0,0,0,0,0,0,0,0,0,0,0,0,0,0,0,0,0,0,0,0,0,0,0,0,0,0,0,0,0,0,0,0,0,0,0,0,0,0,0,0,0,0,0,0,0,0,0,0,0,0,0,0,0,0,0,0,0,0,0,0,0,0,0,0,0,0,0,0,0,0,0,0,0,0,0,0,0,0,0,0,0],"trees":[{"base_weights":[5.9912936E-3,-1.16430365E-1,6.2470937E-1,-1.7727104E-1,1.2452109E0,6.7889667E-1,-2.1351948E0,-2.6707944E-1,7.064973E-1,1.2863771E0,-5.5588246E-3,7.8846514E-1,-3.1409478E-1,-6.991517E-2,-1.4449947E-2,-3.3164006E-1,1.2060322E0,1.0129781E0,1.8025844E-1,1.3133764E0,-1.0268641E-2,5.874154E-1,1.1773112E0,3.1738147E-2,-1.0715246E0,-3.8069418E-1,1.1077086E0,-1.2717277E0,1.3464355E0,1.1053555E0,8.028302E-2,-5.3247803E-1,2.5611326E-1,1.3409421E0,-1.0070214E-2,2.6821348E-1,1.0334063E0,1.2373086E0,1.1995789E-2,-6.079969E-1,4.295889E-1,-1.2871747E0,1.627463E-2,-3.360787E-1,-1.6873271E0,5.747257E-1,1.3986429E0,-4.4023346E-2,-1.0268641E-2,1.3666161E0,1.7313337E-3,1.1602023E0,-1.0916976E-2,-1.6028428E-1,3.5290718E-1,-2.2651616E-2,-5.8217525E-2,6.5798366E-1,1.8226056E-1,1.3747838E0,1.26581555E-2,-1.0740693E-1,6.711201E-1,1.0794121E0,-1.7976789E-2,5.224031E-1,1.2787046E0,-9.0896124E-1,7.068992E-2,7.44399E-1,-8.150966E-2,-4.4803124E-2,-9.242463E-3,-3.7358296E-1,1.0796659E0,-1.8084011E0,6.631851E-2,7.212986E-1,-1.5524745E-1,1.8110296E0,1.0428709E0,1.3825208E0,6.185009E-3,1.2027727E0,-2.382803E-2,1.7839687E-1,-3.7422407E-1,1.1697761E-2,3.0725168E-3,-5.513763E-4,-2.0684123E-3,7.316617E-1,2.1335648E-3,1.4250045E-1,2.1537265E-2,1.3925115E0,2.5394368E-3,-4.7321242E-1,8.5371894E-1,1.1133702E0,3.5764456E-1,1.1391423E0,2.596456E-1,1.8155841E-2,6.3084792E-3,1.2178757E0,5.8124054E-2,-3.398137E-2,-1.3739093E-2,-5.4872558E-3,6.485767E-3,2.9587306E-2,1.2563863E-2,1.5392049E-1,-2.0646581E-1,-1.3488058E-2,1.0860422E-2,-1.4888637E-2,4.049584E-2,-5.6431446E-2,1.973136E-2,-1.2719983E-2,2.3059087E-2,3.198678E-2,3.7650734E-3,-8.5155485E-4,-8.037514E-3,5.6832775E-2,1.2154112E-2,3.2882616E-2,1.2746286E-3,4.19605E-2,6.433997E-3,3.672433E-2,-8.566002E-3,-3.6934328E-3,4.110467E-3,1.5087032E-3,6.5191556E-3,-1.3140096E-2,-2.743299E-3,2.3435105E-2,6.5191556E-3,6.017549E-3,-3.363746E-3,1.5161226E-2,4.2770438E-2,-2.4595369E-2,-7.4837636E-3,2.7623959E-2,-4.299538E-3,3.6200684E-2,1.7371558E-3,-1.8187167E-2,1.5979972E-2,3.5866838E-2,7.885599E-3,-6.3120145E-3,2.8695216E-2,3.7376784E-2,1.5444522E-2,6.0241483E-3,9.0227363E-4,-7.1235965E-3,-1.2377428E-3],"categories":[],"categories_nodes":[],"categories_segments":[],"categories_sizes":[],"default_left":[0,0,0,0,0,0,0,0,0,0,0,0,0,0,0,0,0,0,0,0,0,0,0,0,0,0,0,0,0,0,0,0,0,0,0,0,0,0,0,0,0,0,0,0,0,0,0,0,0,0,0,0,0,0,0,0,0,0,0,0,0,0,0,0,0,0,0,0,0,0,0,0,0,0,0,0,0,0,0,0,0,0,0,0,0,0,0,0,0,0,0,0,0,0,0,0,0,0,0,0,0,0,0,0,0,0,0,0,0,0,0,0,0,0,0,0,0,0,0,0,0,0,0,0,0,0,0,0,0,0,0,0,0,0,0,0,0,0,0,0,0,0,0,0,0,0,0,0,0,0,0,0,0,0,0,0,0,0,0,0,0,0,0,0,0],"id":0,"left_children":[1,3,5,7,9,11,13,15,17,19,-1,21,23,-1,-1,25,27,29,31,33,-1,35,37,39,41,43,45,47,49,51,53,55,57,59,-1,61,63,65,-1,67,69,71,-1,73,75,77,79,-1,-1,81,-1,83,-1,85,87,-1,89,91,93,95,-1,97,99,101,-1,103,105,107,109,111,113,-1,-1,115,117,119,121,123,125,127,129,131,-1,133,135,137,139,-1,-1,-1,-1,141,-1,143,-1,145,-1,147,149,151,153,155,157,-1,-1,159,-1,-1,-1,-1,-1,-1,-1,161,163,-1,-1,-1,-1,-1,-1,-1,-1,-1,-1,-1,-1,-1,-1,-1,-1,-1,-1,-1,-1,-1,-1,-1,-1,-1,-1,-1,-1,-1,-1,-1,-1,-1,-1,-1,-1,-1,-1,-1,-1,-1,-1,-1,-1,-1,-1,-1,-1,-1,-1],"loss_changes":[1.6095404E2,1.4718451E2,5.3942245E1,1.3503802E2,4.7138977E0,3.778386E1,1.1381397E0,1.47147E2,2.5138687E1,3.7035446E0,0E0,2.3621613E1,9.202055E0,0E0,0E0,1.04847946E2,2.4324875E1,8.441093E0,3.3261802E0,3.768486E0,0E0,2.9191582E1,4.4029846E0,6.6241655E0,4.5269547E0,8.285458E1,6.7942505E0,2.2534037E-1,1.5335693E0,7.6747437E0,7.1241003E-1,5.8939636E-1,1.4827528E0,1.6591644E0,0E0,1.8535559E1,7.106331E0,2.2026367E0,0E0,2.1068592E0,2.6350596E0,1.5594044E0,0E0,7.3941895E1,1.0098999E1,2.1448708E0,2.6595154E0,0E0,0E0,8.4082794E-1,0E0,4.413872E0,0E0,5.015046E-1,6.428361E-3,0E0,1.5148893E-5,2.9387712E-1,8.9867735E-1,1.4602509E0,0E0,2.2905437E1,7.781248E0,3.8172684E0,0E0,5.362475E-2,1.2869415E0,1.8762112E-1,1.8714006E-1,3.7442017E-1,2.3770848E-1,0E0,0E0,7.5653885E1,1.5999271E1,9.120071E0,1.7033373E0,3.1542892E0,4.9569264E-2,7.567024E-1,9.649296E-1,8.327484E-1,0E0,3.0213623E0,8.074692E-2,4.0249527E-3,3.208965E-2,0E0,0E0,0E0,0E0,8.503199E-3,0E0,6.880311E-1,0E0,1.2804565E0,0E0,3.4408236E0,1.335825E0,2.294012E0,6.3961234E0,3.5420074E0,2.4941492E0,0E0,0E0,1.0526047E0,0E0,0E0,0E0,0E0,0E0,0E0,0E0,1.1379808E-2,1.5799925E-2,0E0,0E0,0E0,0E0,0E0,0E0,0E0,0E0,0E0,0E0,0E0,0E0,0E0,0E0,0E0,0E0,0E0,0E0,0E0,0E0,0E0,0E0,0E0,0E0,0E0,0E0,0E0,0E0,0E0,0E0,0E0,0E0,0E0,0E0,0E0,0E0,0E0,0E0,0E0,0E0,0E0,0E0,0E0,0E0,0E0,0E0,0E0,0E0,0E0,0E0],"parents":[2147483647,0,0,1,1,2,2,3,3,4,4,5,5,6,6,7,7,8,8,9,9,11,11,12,12,15,15,16,16,17,17,18,18,19,19,21,21,22,22,23,23,24,24,25,25,26,26,27,27,28,28,29,29,30,30,31,31,32,32,33,33,35,35,36,36,37,37,39,39,40,40,41,41,43,43,44,44,45,45,46,46,49,49,51,51,53,53,54,54,56,56,57,57,58,58,59,59,61,61,62,62,63,63,65,65,66,66,67,67,68,68,69,69,70,70,73,73,74,74,75,75,76,76,77,77,78,78,79,79,80,80,81,81,83,83,84,84,85,85,86,86,91,91,93,93,95,95,97,97,98,98,99,99,100,100,101,101,102,102,105,105,113,113,114,114],"right_children":[2,4,6,8,10,12,14,16,18,20,-1,22,24,-1,-1,26,28,30,32,34,-1,36,38,40,42,44,46,48,50,52,54,56,58,60,-1,62,64,66,-1,68,70,72,-1,74,76,78,80,-1,-1,82,-1,84,-1,86,88,-1,90,92,94,96,-1,98,100,102,-1,104,106,108,110,112,114,-1,-1,116,118,120,122,124,126,128,130,132,-1,134,136,138,140,-1,-1,-1,-1,142,-1,144,-1,146,-1,148,150,152,154,156,158,-1,-1,160,-1,-1,-1,-1,-1,-1,-1,162,164,-1,-1,-1,-1,-1,-1,-1,-1,-1,-1,-1,-1,-1,-1,-1,-1,-1,-1,-1,-1,-1,-1,-1,-1,-1,-1,-1,-1,-1,-1,-1,-1,-1,-1,-1,-1,-1,-1,-1,-1,-1,-1,-1,-1,-1,-1,-1,-1,-1,-1],"split_conditions":[1E0,1E0,1E0,1E0,1E0,1E0,1E0,1E0,1E0,1E0,-5.5588246E-3,1E0,2E0,-6.991517E-2,-1.4449947E-2,1E0,1E0,1E0,1E0,1E0,-1.0268641E-2,1E0,1E0,1E0,1E0,1E0,1E0,1E0,1E0,1E0,1E0,4.90545E2,4.73942E2,1E0,-1.0070214E-2,1E0,1E0,1E0,1.1995789E-2,1E0,1E0,1E0,1.627463E-2,1E0,1E0,1E0,2.63337E2,-4.4023346E-2,-1.0268641E-2,1E0,1.7313337E-3,1E0,-1.0916976E-2,1E0,5.04715E2,-2.2651616E-2,1E0,1E0,1E0,1E0,1.26581555E-2,1E0,2E0,1E0,-1.7976789E-2,1E0,1E0,1E0,1E0,1E0,1E0,-4.4803124E-2,-9.242463E-3,1E0,3.6305E0,1E0,1E0,1E0,1E0,1E0,1E0,1E0,6.185009E-3,1E0,1E0,1E0,1E0,1.1697761E-2,3.0725168E-3,-5.513763E-4,-2.0684123E-3,1E0,2.1335648E-3,5E0,2.1537265E-2,1E0,2.5394368E-3,1E0,1E0,1E0,3E0,1E0,1E0,1.8155841E-2,6.3084792E-3,1E0,5.8124054E-2,-3.398137E-2,-1.3739093E-2,-5.4872558E-3,6.485767E-3,2.9587306E-2,1.2563863E-2,1E0,1E0,-1.3488058E-2,1.0860422E-2,-1.4888637E-2,4.049584E-2,-5.6431446E-2,1.973136E-2,-1.2719983E-2,2.3059087E-2,3.198678E-2,3.7650734E-3,-8.5155485E-4,-8.037514E-3,5.6832775E-2,1.2154112E-2,3.2882616E-2,1.2746286E-3,4.19605E-2,6.433997E-3,3.672433E-2,-8.566002E-3,-3.6934328E-3,4.110467E-3,1.5087032E-3,6.5191556E-3,-1.3140096E-2,-2.743299E-3,2.3435105E-2,6.5191556E-3,6.017549E-3,-3.363746E-3,1.5161226E-2,4.2770438E-2,-2.4595369E-2,-7.4837636E-3,2.7623959E-2,-4.299538E-3,3.6200684E-2,1.7371558E-3,-1.8187167E-2,1.5979972E-2,3.5866838E-2,7.885599E-3,-6.3120145E-3,2.8695216E-2,3.7376784E-2,1.5444522E-2,6.0241483E-3,9.0227363E-4,-7.1235965E-3,-1.2377428E-3],"split_indices":[1349,1119,760,1766,519,1060,57,403,1160,266,0,790,2050,0,0,1879,305,586,1039,303,0,507,975,1480,102,547,934,232,140,784,259,2048,2048,389,0,1670,1339,2050,0,139,1928,478,0,1051,832,294,2048,0,0,237,0,1317,0,114,2048,0,36,893,718,571,0,582,2050,389,0,162,1041,94,506,62,1068,0,0,203,2049,455,1,296,251,509,82,262,0,1362,1826,1,366,0,0,0,0,455,0,2051,0,654,0,1243,350,1261,2051,910,82,0,0,1487,0,0,0,0,0,0,0,114,249,0,0,0,0,0,0,0,0,0,0,0,0,0,0,0,0,0,0,0,0,0,0,0,0,0,0,0,0,0,0,0,0,0,0,0,0,0,0,0,0,0,0,0,0,0,0,0,0,0,0],"split_type":[0,0,0,0,0,0,0,0,0,0,0,0,0,0,0,0,0,0,0,0,0,0,0,0,0,0,0,0,0,0,0,0,0,0,0,0,0,0,0,0,0,0,0,0,0,0,0,0,0,0,0,0,0,0,0,0,0,0,0,0,0,0,0,0,0,0,0,0,0,0,0,0,0,0,0,0,0,0,0,0,0,0,0,0,0,0,0,0,0,0,0,0,0,0,0,0,0,0,0,0,0,0,0,0,0,0,0,0,0,0,0,0,0,0,0,0,0,0,0,0,0,0,0,0,0,0,0,0,0,0,0,0,0,0,0,0,0,0,0,0,0,0,0,0,0,0,0,0,0,0,0,0,0,0,0,0,0,0,0,0,0,0,0,0,0],"sum_hessian":[2.123E3,1.773E3,3.5E2,1.698E3,7.5E1,3.44E2,6E0,1.542E3,1.56E2,7.3E1,2E0,3.1E2,3.4E1,5E0,1E0,1.478E3,6.4E1,9.8E1,5.8E1,7.2E1,1E0,2.06E2,1.04E2,2.4E1,1E1,1.43E3,4.8E1,3E0,6.1E1,8.9E1,9E0,5E0,5.3E1,7.1E1,1E0,1.21E2,8.5E1,9.6E1,8E0,9E0,1.5E1,9E0,1E0,1.384E3,4.6E1,1.8E1,3E1,2E0,1E0,6E1,1E0,8.6E1,3E0,5E0,4E0,3E0,2E0,7E0,4.6E1,6.8E1,3E0,6.3E1,5.8E1,8.3E1,2E0,6E0,9E1,6E0,3E0,9E0,6E0,7E0,2E0,1.349E3,3.5E1,4.3E1,3E0,1.5E1,3E0,1.2E1,1.8E1,5.9E1,1E0,8.3E1,3E0,2E0,3E0,3E0,1E0,1E0,1E0,6E0,1E0,4.4E1,2E0,6.7E1,1E0,4.6E1,1.7E1,2.3E1,3.5E1,7.7E1,6E0,4E0,2E0,8.5E1,5E0,3E0,3E0,1E0,2E0,4E0,5E0,2E0,4E0,1.223E3,1.26E2,5E0,3E1,4.2E1,1E0,2E0,1E0,9E0,6E0,2E0,1E0,1.1E1,1E0,1.7E1,1E0,5.8E1,1E0,8.2E1,1E0,2E0,1E0,1E0,1E0,2E0,1E0,5E0,1E0,3.6E1,8E0,3E0,6.4E1,1.7E1,2.9E1,1.6E1,1E0,2.1E1,2E0,5E0,3E1,7.2E1,5E0,4E0,2E0,8.1E1,4E0,1E0,1E0,3E0,1E0],"tree_param":{"num_deleted":"0","num_feature":"2054","num_nodes":"165","size_leaf_vector":"1"}},{"base_weights":[-3.814758E-3,-1.1774401E-1,5.7475287E-1,-1.7023176E-1,1.0875703E0,6.3156384E-1,-1.6984243E0,-2.4936497E-1,6.597044E-1,1.1637076E0,5.3500333E-3,4.2613566E-1,1.0941144E0,-1.7866837E-2,-6.451787E-2,-3.101177E-1,1.0374997E0,8.808447E-1,1.3097139E-1,8.898487E-2,1.226542E0,-1.1432223E-2,8.814919E-3,1.14789814E-1,9.483458E-1,1.1699816E0,4.5553744E-1,-3.4885028E-1,1.4469415E0,1.0789788E0,-8.285432E-3,9.4864017E-1,-1.255454E-2,1.708135E-1,-2.4928864E-2,-3.793707E-3,8.24295E-3,1.2602713E0,8.689308E-2,-1.6311575E-2,8.6220694E-1,1.0041437E0,-1.5488834E-2,1.2374676E0,7.594274E-1,7.02276E-1,-1.8030494E-2,-3.9016667E-1,1.083887E0,1.8637738E0,9.960383E-1,1.1109246E0,-1.6879298E-2,1.0949901E0,2.5169092E-1,2.2293451E-1,-4.1916037E-1,1.2788153E0,1.101923E-3,7.266526E-3,-3.3563375E-3,-4.501487E-1,3.5147142E-1,9.142316E-1,-4.2350437E-3,1.2219534E0,6.8539536E-1,1.2713597E0,4.7481602E-1,7.8505874E-1,5.624356E-3,1.0346493E0,7.5857043E-3,-4.595326E-1,3.4127223E-1,4.3691777E-2,1.3662527E0,5.8044523E-2,1.19718E-2,1.0497053E0,1.2555098E-3,1.1653183E0,-1.9290411E-3,1.1440018E0,2.671698E-1,3.6813322E-1,-5.14916E-4,5.261678E-1,1.3610996E-1,-2.9767442E-3,-1.4781918E-2,1.2973093E0,1.7053628E-3,-5.6226337E-1,4.9505934E-1,4.2303008E-1,-4.3061618E-2,9.667818E-1,-2.8398228E-3,1.2583026E0,-8.932557E-3,8.1964314E-1,-2.6222434E-2,1.2837974E0,5.0779153E-3,6.182308E-3,1.7558493E-2,2.436676E-2,6.0708974E-3,3.4132667E-2,7.786753E-3,-1.5165744E-2,1.8919388E-2,2.1096157E-2,-1.6449867E-2,-1.3202823E-2,9.416975E-3,1.323545E-4,4.506869E-2,3.30072E-2,3.617227E-3,3.5808604E-2,-1.011461E-2,3.49764E-2,-8.437514E-3,1.4860725E-3,9.023683E-3,3.9617117E-3,1.6548568E-2,2.0619784E-3,-2.0890117E-3,2.141973E-2,-2.6242635E-3,5.8380715E-3,-5.078652E-3,3.9342575E-2,6.3374876E-3,-2.5411036E-2,-3.8769739E-3,1.9128725E-2,-5.4049445E-3,2.7737506E-2,9.099579E-3,3.0984113E-2,1.28396265E-2,3.9968587E-2,1.8405141E-2,2.5905063E-2,-8.099799E-3,7.0169447E-3,-8.393622E-3,3.887334E-2,5.958502E-3],"categories":[],"categories_nodes":[],"categories_segments":[],"categories_sizes":[],"default_left":[0,0,0,0,0,0,0,0,0,0,0,0,0,0,0,0,0,0,0,0,0,0,0,0,0,0,0,0,0,0,0,0,0,0,0,0,0,0,0,0,0,0,0,0,0,0,0,0,0,0,0,0,0,0,0,0,0,0,0,0,0,0,0,0,0,0,0,0,0,0,0,0,0,0,0,0,0,0,0,0,0,0,0,0,0,0,0,0,0,0,0,0,0,0,0,0,0,0,0,0,0,0,0,0,0,0,0,0,0,0,0,0,0,0,0,0,0,0,0,0,0,0,0,0,0,0,0,0,0,0,0,0,0,0,0,0,0,0,0,0,0,0,0,0,0,0,0,0,0,0,0,0,0],"id":1,"left_children":[1,3,5,7,9,11,13,15,17,19,21,23,25,-1,-1,27,29,31,33,35,37,-1,-1,39,41,43,45,47,49,51,-1,53,-1,55,-1,-1,-1,57,59,61,63,65,-1,67,69,71,-1,73,75,77,79,81,-1,83,85,87,89,91,-1,-1,-1,93,95,97,-1,99,101,103,105,107,-1,109,-1,111,113,115,117,-1,-1,119,-1,121,-1,123,125,127,129,131,133,-1,-1,135,-1,137,139,141,-1,143,-1,145,-1,147,149,151,-1,-1,-1,-1,-1,-1,-1,-1,-1,-1,-1,-1,-1,-1,-1,-1,-1,-1,-1,-1,-1,-1,-1,-1,-1,-1,-1,-1,-1,-1,-1,-1,-1,-1,-1,-1,-1,-1,-1,-1,-1,-1,-1,-1,-1,-1,-1,-1,-1],"loss_changes":[1.434345E2,1.151995E2,4.7305283E1,1.14636925E2,6.2559814E0,3.2791077E1,3.2073364E0,1.24785126E2,1.7657112E1,4.6854553E0,7.8082645E-1,3.95626E1,4.650879E0,0E0,0E0,1.04017136E2,4.221306E0,9.822464E0,1.9049115E0,2.3486994E-1,2.4659424E0,0E0,0E0,1.5104127E1,7.955307E0,1.6923676E0,3.8110836E0,8.856503E1,4.3460007E0,4.2960587E0,0E0,1.01282425E1,0E0,1.4771967E0,0E0,0E0,0E0,1.4278259E0,1.1972079E-1,2.1219862E1,1.3296661E0,5.272003E0,0E0,1.4641495E0,8.7376595E-2,1.381506E0,0E0,7.36239E1,1.2276352E1,8.928261E-1,8.7782097E-1,4.485756E0,0E0,3.1024857E0,5.581707E-1,1.0341632E0,4.5259833E-2,1.3725967E0,0E0,0E0,0E0,6.742627E0,9.813505E0,1.2578983E0,0E0,3.1919098E0,3.6517525E0,8.2447815E-1,2.7820826E-2,7.308197E-2,0E0,1.8418694E-1,0E0,6.665372E1,4.0954563E1,1.4453704E0,6.1069717E0,0E0,0E0,6.655464E-1,0E0,3.2089386E0,0E0,2.7912827E0,2.9000819E-2,4.9027073E-1,3.8290255E-2,1.0997643E0,6.4030266E-1,0E0,0E0,6.8839264E-1,0E0,6.672844E0,7.887199E-1,3.922452E0,0E0,3.0499077E-1,0E0,1.5678635E0,0E0,1.7624302E0,5.271441E-1,7.1772003E-1,0E0,0E0,0E0,0E0,0E0,0E0,0E0,0E0,0E0,0E0,0E0,0E0,0E0,0E0,0E0,0E0,0E0,0E0,0E0,0E0,0E0,0E0,0E0,0E0,0E0,0E0,0E0,0E0,0E0,0E0,0E0,0E0,0E0,0E0,0E0,0E0,0E0,0E0,0E0,0E0,0E0,0E0,0E0,0E0,0E0,0E0,0E0,0E0,0E0],"parents":[2147483647,0,0,1,1,2,2,3,3,4,4,5,5,6,6,7,7,8,8,9,9,10,10,11,11,12,12,15,15,16,16,17,17,18,18,19,19,20,20,23,23,24,24,25,25,26,26,27,27,28,28,29,29,31,31,33,33,37,37,38,38,39,39,40,40,41,41,43,43,44,44,45,45,47,47,48,48,49,49,50,50,51,51,53,53,54,54,55,55,56,56,57,57,61,61,62,62,63,63,65,65,66,66,67,67,68,68,69,69,71,71,73,73,74,74,75,75,76,76,79,79,81,81,83,83,84,84,85,85,86,86,87,87,88,88,91,91,93,93,94,94,95,95,97,97,99,99,101,101,102,102,103,103],"right_children":[2,4,6,8,10,12,14,16,18,20,22,24,26,-1,-1,28,30,32,34,36,38,-1,-1,40,42,44,46,48,50,52,-1,54,-1,56,-1,-1,-1,58,60,62,64,66,-1,68,70,72,-1,74,76,78,80,82,-1,84,86,88,90,92,-1,-1,-1,94,96,98,-1,100,102,104,106,108,-1,110,-1,112,114,116,118,-1,-1,120,-1,122,-1,124,126,128,130,132,134,-1,-1,136,-1,138,140,142,-1,144,-1,146,-1,148,150,152,-1,-1,-1,-1,-1,-1,-1,-1,-1,-1,-1,-1,-1,-1,-1,-1,-1,-1,-1,-1,-1,-1,-1,-1,-1,-1,-1,-1,-1,-1,-1,-1,-1,-1,-1,-1,-1,-1,-1,-1,-1,-1,-1,-1,-1,-1,-1,-1,-1],"split_conditions":[1E0,1E0,1E0,1E0,4E0,1E0,1E0,1E0,1E0,2.67344E2,1E0,1E0,1E0,-1.7866837E-2,-6.451787E-2,1E0,1E0,1E0,1E0,1E0,1E0,-1.1432223E-2,8.814919E-3,1E0,1E0,1E0,1E0,1E0,2.63337E2,1E0,-8.285432E-3,1E0,-1.255454E-2,1E0,-2.4928864E-2,-3.793707E-3,8.24295E-3,1E0,1E0,1E0,1E0,1E0,-1.5488834E-2,1E0,1E0,1E0,-1.8030494E-2,1E0,3.22235E2,1E0,1E0,1E0,-1.6879298E-2,1E0,1E0,4.73942E2,1E0,1E0,1.101923E-3,7.266526E-3,-3.3563375E-3,1E0,1E0,1E0,-4.2350437E-3,1E0,1E0,1E0,1E0,1E0,5.624356E-3,1E0,7.5857043E-3,1E0,1E0,2.83705E2,1E0,5.8044523E-2,1.19718E-2,1E0,1.2555098E-3,1E0,-1.9290411E-3,1E0,1E0,1E0,1E0,1E0,5.45562E2,-2.9767442E-3,-1.4781918E-2,1E0,1.7053628E-3,1E0,1E0,3.08834E2,-4.3061618E-2,1E0,-2.8398228E-3,1E0,-8.932557E-3,1E0,2.84428E2,1E0,5.0779153E-3,6.182308E-3,1.7558493E-2,2.436676E-2,6.0708974E-3,3.4132667E-2,7.786753E-3,-1.5165744E-2,1.8919388E-2,2.1096157E-2,-1.6449867E-2,-1.3202823E-2,9.416975E-3,1.323545E-4,4.506869E-2,3.30072E-2,3.617227E-3,3.5808604E-2,-1.011461E-2,3.49764E-2,-8.437514E-3,1.4860725E-3,9.023683E-3,3.9617117E-3,1.6548568E-2,2.0619784E-3,-2.0890117E-3,2.141973E-2,-2.6242635E-3,5.8380715E-3,-5.078652E-3,3.9342575E-2,6.3374876E-3,-2.5411036E-2,-3.8769739E-3,1.9128725E-2,-5.4049445E-3,2.7737506E-2,9.099579E-3,3.0984113E-2,1.28396265E-2,3.9968587E-2,1.8405141E-2,2.5905063E-2,-8.099799E-3,7.0169447E-3,-8.393622E-3,3.887334E-2,5.958502E-3],"split_indices":[1349,1945,1313,1766,2051,790,497,1119,1317,2048,403,507,881,0,0,934,303,784,1405,216,69,0,0,582,362,114,1060,1051,2048,191,0,736,0,695,0,0,0,198,216,1487,350,1199,0,41,88,162,0,203,2048,509,839,519,0,586,699,2048,231,140,0,0,0,792,1727,1080,0,1188,1,79,26,235,0,34,0,1065,1480,2048,561,0,0,523,0,266,0,1823,58,667,481,113,2048,0,0,262,0,1911,294,2048,0,1866,0,1209,0,458,2048,523,0,0,0,0,0,0,0,0,0,0,0,0,0,0,0,0,0,0,0,0,0,0,0,0,0,0,0,0,0,0,0,0,0,0,0,0,0,0,0,0,0,0,0,0,0,0,0,0,0],"split_type":[0,0,0,0,0,0,0,0,0,0,0,0,0,0,0,0,0,0,0,0,0,0,0,0,0,0,0,0,0,0,0,0,0,0,0,0,0,0,0,0,0,0,0,0,0,0,0,0,0,0,0,0,0,0,0,0,0,0,0,0,0,0,0,0,0,0,0,0,0,0,0,0,0,0,0,0,0,0,0,0,0,0,0,0,0,0,0,0,0,0,0,0,0,0,0,0,0,0,0,0,0,0,0,0,0,0,0,0,0,0,0,0,0,0,0,0,0,0,0,0,0,0,0,0,0,0,0,0,0,0,0,0,0,0,0,0,0,0,0,0,0,0,0,0,0,0,0,0,0,0,0,0,0],"sum_hessian":[2.174E3,1.817E3,3.57E2,1.742E3,7.5E1,3.49E2,8E0,1.591E3,1.51E2,7E1,5E0,2.43E2,1.06E2,3E0,5E0,1.52E3,7.1E1,1.06E2,4.5E1,4E0,6.6E1,2E0,3E0,1.53E2,9E1,9.4E1,1.2E1,1.488E3,3.2E1,6.9E1,2E0,1.01E2,5E0,4.4E1,1E0,2E0,2E0,6.4E1,2E0,1.31E2,2.2E1,8.7E1,3E0,7.9E1,1.5E1,1E1,2E0,1.447E3,4.1E1,1.5E1,1.7E1,6.8E1,1E0,8.3E1,1.8E1,4.1E1,3E0,6.3E1,1E0,1E0,1E0,6E1,7.1E1,2.1E1,1E0,5E1,3.7E1,7.5E1,4E0,1.4E1,1E0,5E0,5E0,1.322E3,1.25E2,9E0,3.2E1,1.4E1,1E0,1.6E1,1E0,6.5E1,3E0,7.8E1,5E0,1.2E1,6E0,8E0,3.3E1,1E0,2E0,6.2E1,1E0,5.4E1,6E0,6.9E1,2E0,2E1,1E0,4.9E1,1E0,3.1E1,6E0,7.4E1,1E0,2E0,2E0,1.3E1,1E0,4E0,1E0,1.269E3,5.3E1,8.9E1,3.6E1,3E0,6E0,3E0,2.9E1,1.5E1,1E0,6.4E1,1E0,7.7E1,1E0,1E0,4E0,6E0,6E0,3E0,3E0,6E0,2E0,2.8E1,5E0,6.1E1,1E0,3.2E1,2.2E1,5E0,1E0,1.2E1,5.7E1,1.7E1,3E0,4.3E1,6E0,3E1,1E0,3E0,3E0,7.3E1,1E0],"tree_param":{"num_deleted":"0","num_feature":"2054","num_nodes":"153","size_leaf_vector":"1"}},{"base_weights":[5.360545E-3,4.7511473E-2,-1.6171645E0,-7.292004E-2,5.694639E-1,-1.7254478E0,2.5046805E-2,-4.0662694E-1,8.967376E-2,7.0820946E-1,-6.201283E-1,-1.7929642E0,2.678117E-2,-4.815237E-1,6.13945E-1,1.6680558E-1,-8.6176294E-1,8.140034E-1,-1.018218E0,-9.960657E-1,1.2296343E-1,-2.0085654E0,-9.069129E-1,-4.3601757E-1,-2.0026972E0,-7.441209E-1,8.834152E-1,2.4325512E-1,-7.470721E-1,-1.091509E0,3.13785E-1,9.665118E-1,2.098548E-1,-1.1051577E0,-1.1173053E-2,-1.1492678E0,2.1046388E-1,-8.6437106E-2,7.204242E-1,-2.1491642E0,-3.0559037E-2,-1.0951039E0,-1.2732744E-2,-3.137369E-1,-9.070129E-1,-2.130588E0,-3.1833672E-3,-1.116027E0,3.7128876E-3,7.553776E-2,1.0249813E0,1.8940979E-1,1.1212951E0,-8.3366656E-1,5.031678E-1,-1.2112745E0,-1.0525624E-1,4.1413005E-2,2.5507389E-2,9.9743444E-1,-2.5785195E-2,-3.028141E-2,9.4617033E-1,-1.8301276E-2,-3.7459806E-2,-1.4108689E0,-5.2743584E-1,1.387639E-2,-8.186753E-3,1.4995146E-1,-2.2337532E-1,2.5075E-2,5.612948E-3,-6.620437E-2,-2.3959383E-2,-3.616172E-2,-4.846444E-3,-4.2013583E-1,2.8681427E-1,-1.1581018E0,3.8525872E-2,-2.3231583E0,-1.950333E-2,-4.2674836E-2,-1.3126511E-2,2.3167396E-2,-1.3976347E-2,1.1024572E0,-1.6003016E-2,1.27459E-1,1.043881E0,1.1890849E0,-7.419145E-2,-1.7539857E-1,-1.0576314E0,2.0587409E-2,2.7401876E-3,-1.2541032E0,2.2946412E-2,3.170444E-2,-3.8261694E-1,-2.2683585E-1,1.703608E-1,1.0299084E0,-3.4195238E-1,-2.2483005E-1,1.2802995E0,1.0244453E0,-4.5934366E-3,-1.493526E0,-1.581882E-2,-6.488975E-1,6.663866E-3,3.2203197E-1,-2.1633864E-3,-2.9010147E-1,3.6556148E-3,-1.5584664E-2,5.8408263E-3,1.3023721E-2,-1.5678266E-2,-3.6235955E-2,1.7146202E-2,-3.0642768E-2,5.6433883E-3,-7.243423E-2,-1.9780196E-2,3.47148E-2,-4.7972845E-3,1.2039307E-3,2.4743063E-2,3.274253E-2,-8.119722E-3,3.824541E-2,1.6097896E-2,-6.466379E-3,5.2480814E-3,7.6714777E-3,-2.0255882E-2,-3.4774132E-2,4.584074E-4,-3.8157623E-2,-1.9738984E-3,-1.231177E-2,-2.8228355E-3,-7.6994086E-3,-2.061038E-3,8.70938E-3,-3.7898968E-3,4.2614285E-3,3.173255E-2,-1.7167054E-2,1.5596165E-2,-1.6029757E-3,-3.1611413E-2,1.4123845E-2,4.5298275E-2,3.19997E-2,5.8691236E-3,-4.6236426E-2,-1.238835E-2,-2.1151608E-2,-3.837075E-3,8.1064936E-4,1.368079E-2,-9.321217E-3,-2.4970006E-3],"categories":[],"categories_nodes":[],"categories_segments":[],"categories_sizes":[],"default_left":[0,0,0,0,0,0,0,0,0,0,0,0,0,0,0,0,0,0,0,0,0,0,0,0,0,0,0,0,0,0,0,0,0,0,0,0,0,0,0,0,0,0,0,0,0,0,0,0,0,0,0,0,0,0,0,0,0,0,0,0,0,0,0,0,0,0,0,0,0,0,0,0,0,0,0,0,0,0,0,0,0,0,0,0,0,0,0,0,0,0,0,0,0,0,0,0,0,0,0,0,0,0,0,0,0,0,0,0,0,0,0,0,0,0,0,0,0,0,0,0,0,0,0,0,0,0,0,0,0,0,0,0,0,0,0,0,0,0,0,0,0,0,0,0,0,0,0,0,0,0,0,0,0,0,0,0,0,0,0,0,0,0,0,0,0,0,0],"id":2,"left_children":[1,3,5,7,9,11,-1,13,15,17,19,21,-1,23,25,27,29,31,33,35,37,39,41,43,45,47,49,51,53,55,57,59,61,63,-1,65,67,69,71,73,-1,75,-1,77,79,81,-1,83,-1,85,87,89,91,93,95,97,99,101,-1,103,-1,105,107,-1,-1,109,111,-1,-1,113,115,-1,-1,-1,-1,-1,-1,117,119,121,123,125,-1,-1,-1,-1,-1,127,-1,129,131,133,135,137,139,-1,-1,141,-1,-1,143,145,147,149,151,153,155,157,-1,159,-1,161,-1,163,-1,165,-1,-1,-1,-1,-1,-1,-1,-1,-1,-1,-1,-1,-1,-1,-1,-1,-1,-1,-1,-1,-1,-1,-1,-1,-1,-1,-1,-1,-1,-1,-1,-1,-1,-1,-1,-1,-1,-1,-1,-1,-1,-1,-1,-1,-1,-1,-1,-1,-1,-1,-1],"loss_changes":[1.4855357E2,1.3311513E2,1.6043991E1,9.3415634E1,6.5964264E1,1.096933E1,0E0,4.340638E1,8.5124794E1,6.585065E1,1.1855431E1,8.112137E0,0E0,3.553791E1,1.4929739E1,7.5077576E1,2.3839233E1,3.0755478E1,7.6742744E-1,5.4174805E0,1.9389006E0,3.5172882E0,6.2480927E-1,2.9203377E1,3.4122581E0,2.3975217E0,3.696722E0,4.6593174E1,9.405373E0,8.495201E0,2.1565442E0,1.598999E1,1.2228957E1,5.1716995E-1,0E0,3.3226547E0,6.1360705E-1,4.21943E-1,8.981991E-2,9.6247864E-1,0E0,6.289425E-1,0E0,2.6190884E1,2.4973114E1,2.4810333E0,0E0,4.1724253E-1,0E0,2.6230285E0,3.9687939E0,4.9308407E1,4.707611E0,1.1313942E1,3.897015E-1,6.4605865E0,3.3051705E0,4.1913503E-1,0E0,1.18349E1,0E0,1.3801352E1,1.619648E0,0E0,0E0,4.5404816E-1,9.6352935E-1,0E0,0E0,2.1428737E-1,2.1963641E-1,0E0,0E0,0E0,0E0,0E0,0E0,2.1297695E1,7.6195045E0,7.834366E0,3.8389091E0,2.3124695E-1,0E0,0E0,0E0,0E0,0E0,2.0495338E0,0E0,5.306704E1,4.2321854E0,2.3376923E0,1.7856798E-1,4.697528E0,6.334343E0,0E0,0E0,1.2713776E0,0E0,0E0,2.5494933E-2,1.2246817E-3,3.21384E-1,6.227783E0,1.6867328E0,6.6209235E0,5.904074E-1,3.5108376E-1,0E0,1.3652802E-1,0E0,1.4387822E-1,0E0,1.0626656E-1,0E0,3.977537E-3,0E0,0E0,0E0,0E0,0E0,0E0,0E0,0E0,0E0,0E0,0E0,0E0,0E0,0E0,0E0,0E0,0E0,0E0,0E0,0E0,0E0,0E0,0E0,0E0,0E0,0E0,0E0,0E0,0E0,0E0,0E0,0E0,0E0,0E0,0E0,0E0,0E0,0E0,0E0,0E0,0E0,0E0,0E0,0E0,0E0,0E0,0E0,0E0,0E0,0E0,0E0],"parents":[2147483647,0,0,1,1,2,2,3,3,4,4,5,5,7,7,8,8,9,9,10,10,11,11,13,13,14,14,15,15,16,16,17,17,18,18,19,19,20,20,21,21,22,22,23,23,24,24,25,25,26,26,27,27,28,28,29,29,30,30,31,31,32,32,33,33,35,35,36,36,37,37,38,38,39,39,41,41,43,43,44,44,45,45,47,47,49,49,50,50,51,51,52,52,53,53,54,54,55,55,56,56,57,57,59,59,61,61,62,62,65,65,66,66,69,69,70,70,77,77,78,78,79,79,80,80,81,81,87,87,89,89,90,90,91,91,92,92,93,93,94,94,97,97,100,100,101,101,102,102,103,103,104,104,105,105,106,106,107,107,109,109,111,111,113,113,115,115],"right_children":[2,4,6,8,10,12,-1,14,16,18,20,22,-1,24,26,28,30,32,34,36,38,40,42,44,46,48,50,52,54,56,58,60,62,64,-1,66,68,70,72,74,-1,76,-1,78,80,82,-1,84,-1,86,88,90,92,94,96,98,100,102,-1,104,-1,106,108,-1,-1,110,112,-1,-1,114,116,-1,-1,-1,-1,-1,-1,118,120,122,124,126,-1,-1,-1,-1,-1,128,-1,130,132,134,136,138,140,-1,-1,142,-1,-1,144,146,148,150,152,154,156,158,-1,160,-1,162,-1,164,-1,166,-1,-1,-1,-1,-1,-1,-1,-1,-1,-1,-1,-1,-1,-1,-1,-1,-1,-1,-1,-1,-1,-1,-1,-1,-1,-1,-1,-1,-1,-1,-1,-1,-1,-1,-1,-1,-1,-1,-1,-1,-1,-1,-1,-1,-1,-1,-1,-1,-1,-1,-1],"split_conditions":[1E0,1E0,1E0,3.5047E0,1E0,1E0,2.5046805E-2,1E0,1E0,1E0,3.7227E0,1E0,2.678117E-2,1E0,2.1415E0,1E0,1E0,1E0,1E0,1E0,1E0,1E0,1E0,1E0,1E0,1E0,1E0,1E0,1E0,1E0,1E0,1E0,1E0,1E0,-1.1173053E-2,3.44222E0,1E0,1E0,1E0,1E0,-3.0559037E-2,1E0,-1.2732744E-2,1E0,1E0,1E0,-3.1833672E-3,1E0,3.7128876E-3,4E0,1E0,1E0,1E0,3.73E0,4.4388E0,1E0,1E0,1E0,2.5507389E-2,3E0,-2.5785195E-2,1E0,1E0,-1.8301276E-2,-3.7459806E-2,1E0,1E0,1.387639E-2,-8.186753E-3,1E0,1E0,2.5075E-2,5.612948E-3,-6.620437E-2,-2.3959383E-2,-3.616172E-2,-4.846444E-3,1E0,1E0,1E0,1E0,1E0,-1.950333E-2,-4.2674836E-2,-1.3126511E-2,2.3167396E-2,-1.3976347E-2,1E0,-1.6003016E-2,1E0,1E0,1E0,1E0,1E0,1E0,2.0587409E-2,2.7401876E-3,1E0,2.2946412E-2,3.170444E-2,1E0,1E0,1E0,2E0,1E0,1E0,1E0,1E0,-4.5934366E-3,1E0,-1.581882E-2,1E0,6.663866E-3,1E0,-2.1633864E-3,1E0,3.6556148E-3,-1.5584664E-2,5.8408263E-3,1.3023721E-2,-1.5678266E-2,-3.6235955E-2,1.7146202E-2,-3.0642768E-2,5.6433883E-3,-7.243423E-2,-1.9780196E-2,3.47148E-2,-4.7972845E-3,1.2039307E-3,2.4743063E-2,3.274253E-2,-8.119722E-3,3.824541E-2,1.6097896E-2,-6.466379E-3,5.2480814E-3,7.6714777E-3,-2.0255882E-2,-3.4774132E-2,4.584074E-4,-3.8157623E-2,-1.9738984E-3,-1.231177E-2,-2.8228355E-3,-7.6994086E-3,-2.061038E-3,8.70938E-3,-3.7898968E-3,4.2614285E-3,3.173255E-2,-1.7167054E-2,1.5596165E-2,-1.6029757E-3,-3.1611413E-2,1.4123845E-2,4.5298275E-2,3.19997E-2,5.8691236E-3,-4.6236426E-2,-1.238835E-2,-2.1151608E-2,-3.837075E-3,8.1064936E-4,1.368079E-2,-9.321217E-3,-2.4970006E-3],"split_indices":[547,305,1083,2049,614,432,0,94,573,1219,2049,950,0,1224,2049,1581,441,656,366,102,687,207,1199,389,366,3,2050,240,684,486,1970,1922,1349,1057,0,2049,862,338,228,1080,0,75,0,679,888,294,0,193,0,2053,425,1119,562,2049,2049,106,8,711,0,2050,0,1652,222,0,0,142,767,0,0,325,755,0,0,0,0,0,0,455,1168,235,227,816,0,0,0,0,0,389,0,1372,1966,710,255,389,1087,0,0,14,0,0,695,13,1068,2051,1411,389,834,88,0,330,0,1226,0,114,0,1905,0,0,0,0,0,0,0,0,0,0,0,0,0,0,0,0,0,0,0,0,0,0,0,0,0,0,0,0,0,0,0,0,0,0,0,0,0,0,0,0,0,0,0,0,0,0,0,0,0,0,0],"split_type":[0,0,0,0,0,0,0,0,0,0,0,0,0,0,0,0,0,0,0,0,0,0,0,0,0,0,0,0,0,0,0,0,0,0,0,0,0,0,0,0,0,0,0,0,0,0,0,0,0,0,0,0,0,0,0,0,0,0,0,0,0,0,0,0,0,0,0,0,0,0,0,0,0,0,0,0,0,0,0,0,0,0,0,0,0,0,0,0,0,0,0,0,0,0,0,0,0,0,0,0,0,0,0,0,0,0,0,0,0,0,0,0,0,0,0,0,0,0,0,0,0,0,0,0,0,0,0,0,0,0,0,0,0,0,0,0,0,0,0,0,0,0,0,0,0,0,0,0,0,0,0,0,0,0,0,0,0,0,0,0,0,0,0,0,0,0,0],"sum_hessian":[2.17E3,2.116E3,5.4E1,1.72E3,3.96E2,5.2E1,2E0,5.63E2,1.157E3,3.55E2,4.1E1,5.1E1,1E0,5.25E2,3.8E1,1.071E3,8.6E1,3.35E2,2E1,2.7E1,1.4E1,4E1,1.1E1,5.11E2,1.4E1,6E0,3.2E1,9.89E2,8.2E1,7.2E1,1.4E1,2.67E2,6.8E1,1.7E1,3E0,2.4E1,3E0,1.1E1,3E0,3.4E1,6E0,7E0,4E0,4.07E2,1.04E2,1.3E1,1E0,4E0,2E0,5E0,2.7E1,9.33E2,5.6E1,7.7E1,5E0,6.4E1,8E0,1E1,4E0,2.63E2,4E0,5.2E1,1.6E1,5E0,1.2E1,1.6E1,8E0,2E0,1E0,4E0,7E0,2E0,1E0,3.2E1,2E0,6E0,1E0,3.46E2,6.1E1,8.2E1,2.2E1,1.1E1,2E0,2E0,2E0,2E0,3E0,2.6E1,1E0,8.71E2,6.2E1,5.3E1,3E0,2E1,5.7E1,3E0,2E0,6.3E1,1E0,1E0,7E0,3E0,7E0,2.57E2,6E0,4.6E1,6E0,1.5E1,1E0,1.4E1,2E0,7E0,1E0,2E0,2E0,6E0,1E0,2.98E2,4.8E1,5.2E1,9E0,8E1,2E0,2E0,2E1,1E1,1E0,2.5E1,1E0,7.75E2,9.6E1,6E1,2E0,4.6E1,7E0,2E0,1E0,1.1E1,9E0,5.2E1,5E0,6.2E1,1E0,6E0,1E0,2E0,1E0,5E0,2E0,8E0,2.49E2,5E0,1E0,3.9E1,7E0,2E0,4E0,1.4E1,1E0,1.3E1,1E0,6E0,1E0,1E0,1E0,5E0,1E0],"tree_param":{"num_deleted":"0","num_feature":"2054","num_nodes":"167","size_leaf_vector":"1"}},{"base_weights":[1.811056E-2,-8.985872E-2,5.43357E-1,-1.4275011E-1,1.1152986E0,6.075876E-1,-2.1076486E0,-1.9281156E-1,1.0651469E0,1.1659225E0,-2.6223492E-3,4.1394278E-1,1.016349E0,-6.763732E-2,-1.3983256E-2,-2.612216E-1,8.0381256E-1,1.2105174E0,-1.0376978E0,1.1979653E0,-1.7117249E-2,1.470904E-1,8.8902634E-1,1.0418777E0,-2.9252496E-1,-3.202315E-1,8.172951E-1,4.622217E-1,1.1839817E0,1.228797E0,6.0940505E-4,-9.395647E-3,-4.248924E-2,1.2194489E0,-4.9106455E-3,-1.5603685E-1,5.197465E-1,9.4301593E-1,-1.4820185E-2,1.0893621E0,1.1005578E-2,-1.7125275E-2,3.961651E-3,-2.7879104E-1,-1.5742654E0,1.0223116E0,-5.802932E-1,1.18296735E-1,9.114708E-1,1.2448474E0,1.7281318E-1,1.2470278E0,1.2037968E-3,1.2593977E0,1.320732E-2,-3.863859E-1,7.7402806E-1,1.2151613E0,3.7442312E-1,1.1888058E0,6.163255E-1,-8.6256824E-2,1.1127995E0,-5.678106E-1,-5.623365E-2,-1.621537E0,9.00341E-3,1.099434E0,-3.276822E-2,-8.1897575E-1,9.875569E-3,2.161749E-1,-2.8955078E-2,9.628383E-1,-4.820237E-3,1.2638218E0,5.580375E-3,1.0926318E-3,6.1841058E-3,1.0090005E0,1.408621E0,1.2769916E0,1.4730763E-3,-5.0011104E-1,3.6872095E-1,8.4173423E-1,-5.654647E-3,4.2463444E-2,4.607253E-1,8.9721906E-1,2.7858186E-1,1.2262824E0,-8.588919E-3,6.857812E-1,-1.33721065E-2,5.7810904E-3,-9.662647E-3,4.726226E-1,1.1471714E0,-1.765614E-2,6.3229755E-2,-3.1545425E-3,3.789335E-2,-4.997266E-2,-1.2974634E-2,3.8050275E-2,5.742712E-3,2.2014498E-3,-2.8190793E-2,1.0486998E-2,-1.2603506E-2,1.5022067E-2,3.4877807E-2,4.646985E-2,3.313625E-2,3.2640137E-2,7.2967205E-3,4.3146502E-2,6.035385E-3,3.8733434E-2,5.3850673E-3,-2.3260849E-2,-2.3575989E-3,1.4538761E-2,-1.0116284E-2,2.7239429E-2,-3.2732105E-3,3.036754E-3,1.640451E-2,3.4715448E-2,-2.5300027E-4,-2.2806412E-2,1.0683415E-2,3.873395E-2,1.7038701E-2,2.3726165E-2,3.2996177E-4,1.659574E-2,5.424013E-3,3.632511E-2,2.1424979E-2],"categories":[],"categories_nodes":[],"categories_segments":[],"categories_sizes":[],"default_left":[0,0,0,0,0,0,0,0,0,0,0,0,0,0,0,0,0,0,0,0,0,0,0,0,0,0,0,0,0,0,0,0,0,0,0,0,0,0,0,0,0,0,0,0,0,0,0,0,0,0,0,0,0,0,0,0,0,0,0,0,0,0,0,0,0,0,0,0,0,0,0,0,0,0,0,0,0,0,0,0,0,0,0,0,0,0,0,0,0,0,0,0,0,0,0,0,0,0,0,0,0,0,0,0,0,0,0,0,0,0,0,0,0,0,0,0,0,0,0,0,0,0,0,0,0,0,0,0,0,0,0,0,0,0,0,0,0,0,0,0,0],"id":3,"left_children":[1,3,5,7,9,11,13,15,17,19,-1,21,23,-1,-1,25,27,29,31,33,-1,35,37,39,41,43,45,47,49,51,-1,-1,-1,53,-1,55,57,59,-1,61,-1,-1,-1,63,65,67,69,71,73,75,77,79,-1,81,-1,83,85,87,89,91,93,95,97,99,101,103,-1,105,-1,107,-1,109,-1,111,-1,113,-1,-1,-1,115,117,119,-1,121,123,125,-1,-1,127,129,131,133,-1,135,-1,-1,-1,137,139,-1,-1,-1,-1,-1,-1,-1,-1,-1,-1,-1,-1,-1,-1,-1,-1,-1,-1,-1,-1,-1,-1,-1,-1,-1,-1,-1,-1,-1,-1,-1,-1,-1,-1,-1,-1,-1,-1,-1,-1,-1,-1],"loss_changes":[1.2339413E2,1.15214325E2,6.445281E1,1.0481691E2,4.729248E0,2.8312393E1,1.1198273E0,1.1352356E2,2.2348854E1,4.7453995E0,0E0,3.1309975E1,4.180786E0,0E0,0E0,9.9290504E1,1.3348007E1,1.3892059E0,9.279628E-1,2.3058472E0,0E0,1.8155052E1,7.1114197E0,3.254425E0,4.298868E-1,7.626543E1,2.3802063E1,8.85364E0,2.8621597E0,1.3368683E0,0E0,0E0,0E0,1.6556702E0,0E0,1.9366394E1,6.8213367E0,6.172867E0,0E0,3.0166626E0,0E0,0E0,0E0,9.19506E1,4.6510773E0,1.2779701E1,2.6574395E0,3.8142657E0,1.531538E0,7.091751E-1,1.0672621E-2,1.0019073E0,0E0,1.3639755E0,0E0,6.3673744E0,1.3316851E0,1.1611099E0,2.8064814E0,3.0046158E0,3.1825638E0,2.5942984E-1,1.7462311E0,3.5733765E1,5.234522E1,1.6981583E0,0E0,1.0339783E1,0E0,1.0384636E0,0E0,2.8628922E0,0E0,1.6332283E0,0E0,3.785019E-1,0E0,0E0,0E0,1.4898567E0,9.614029E-1,7.912216E-1,0E0,7.2486334E0,9.816251E-1,1.1699E0,0E0,0E0,6.8448246E-2,2.1286812E0,4.539338E0,1.2732086E0,0E0,2.6151066E0,0E0,0E0,0E0,6.456494E-2,1.8368835E0,0E0,0E0,0E0,0E0,0E0,0E0,0E0,0E0,0E0,0E0,0E0,0E0,0E0,0E0,0E0,0E0,0E0,0E0,0E0,0E0,0E0,0E0,0E0,0E0,0E0,0E0,0E0,0E0,0E0,0E0,0E0,0E0,0E0,0E0,0E0,0E0,0E0,0E0,0E0,0E0,0E0,0E0],"parents":[2147483647,0,0,1,1,2,2,3,3,4,4,5,5,6,6,7,7,8,8,9,9,11,11,12,12,15,15,16,16,17,17,18,18,19,19,21,21,22,22,23,23,24,24,25,25,26,26,27,27,28,28,29,29,33,33,35,35,36,36,37,37,39,39,43,43,44,44,45,45,46,46,47,47,48,48,49,49,50,50,51,51,53,53,55,55,56,56,57,57,58,58,59,59,60,60,61,61,62,62,63,63,64,64,65,65,67,67,69,69,71,71,73,73,75,75,79,79,80,80,81,81,83,83,84,84,85,85,88,88,89,89,90,90,91,91,93,93,97,97,98,98],"right_children":[2,4,6,8,10,12,14,16,18,20,-1,22,24,-1,-1,26,28,30,32,34,-1,36,38,40,42,44,46,48,50,52,-1,-1,-1,54,-1,56,58,60,-1,62,-1,-1,-1,64,66,68,70,72,74,76,78,80,-1,82,-1,84,86,88,90,92,94,96,98,100,102,104,-1,106,-1,108,-1,110,-1,112,-1,114,-1,-1,-1,116,118,120,-1,122,124,126,-1,-1,128,130,132,134,-1,136,-1,-1,-1,138,140,-1,-1,-1,-1,-1,-1,-1,-1,-1,-1,-1,-1,-1,-1,-1,-1,-1,-1,-1,-1,-1,-1,-1,-1,-1,-1,-1,-1,-1,-1,-1,-1,-1,-1,-1,-1,-1,-1,-1,-1,-1,-1],"split_conditions":[1E0,1E0,1E0,1E0,1E0,1E0,1E0,1E0,4.375E1,1E0,-2.6223492E-3,1E0,1E0,-6.763732E-2,-1.3983256E-2,1E0,1E0,1E0,1E0,1E0,-1.7117249E-2,1E0,1E0,1E0,1E0,1E0,1E0,1E0,1E0,1E0,6.0940505E-4,-9.395647E-3,-4.248924E-2,1E0,-4.9106455E-3,1E0,2.81432E0,1E0,-1.4820185E-2,2.3291E0,1.1005578E-2,-1.7125275E-2,3.961651E-3,1E0,1E0,1E0,1E0,1E0,1E0,1E0,1E0,1E0,1.2037968E-3,1E0,1.320732E-2,1E0,1E0,1E0,3.226E1,1E0,1E0,1E0,1E0,1E0,1E0,1E0,9.00341E-3,1E0,-3.276822E-2,2.55764E2,9.875569E-3,1E0,-2.8955078E-2,1E0,-4.820237E-3,4.0149E0,5.580375E-3,1.0926318E-3,6.1841058E-3,1E0,1E0,1E0,1.4730763E-3,4.21531E2,1E0,1E0,-5.654647E-3,4.2463444E-2,1E0,1E0,3E0,1E0,-8.588919E-3,1E0,-1.33721065E-2,5.7810904E-3,-9.662647E-3,1E0,1E0,-1.765614E-2,6.3229755E-2,-3.1545425E-3,3.789335E-2,-4.997266E-2,-1.2974634E-2,3.8050275E-2,5.742712E-3,2.2014498E-3,-2.8190793E-2,1.0486998E-2,-1.2603506E-2,1.5022067E-2,3.4877807E-2,4.646985E-2,3.313625E-2,3.2640137E-2,7.2967205E-3,4.3146502E-2,6.035385E-3,3.8733434E-2,5.3850673E-3,-2.3260849E-2,-2.3575989E-3,1.4538761E-2,-1.0116284E-2,2.7239429E-2,-3.2732105E-3,3.036754E-3,1.640451E-2,3.4715448E-2,-2.5300027E-4,-2.2806412E-2,1.0683415E-2,3.873395E-2,1.7038701E-2,2.3726165E-2,3.2996177E-4,1.659574E-2,5.424013E-3,3.632511E-2,2.1424979E-2],"split_indices":[1349,1119,760,403,519,790,57,1372,2052,1095,0,507,157,0,0,806,410,198,248,144,0,1670,1281,975,1,1270,590,294,586,140,0,0,0,389,0,582,2049,1199,0,2049,0,0,0,875,1463,1017,341,194,1070,94,58,45,0,571,0,974,140,3,2052,1276,310,28,2050,431,747,231,0,1862,0,2048,0,308,0,252,0,2049,0,0,0,949,948,112,0,2048,67,903,0,0,832,1325,2051,965,0,1,0,0,0,162,114,0,0,0,0,0,0,0,0,0,0,0,0,0,0,0,0,0,0,0,0,0,0,0,0,0,0,0,0,0,0,0,0,0,0,0,0,0,0,0,0,0,0],"split_type":[0,0,0,0,0,0,0,0,0,0,0,0,0,0,0,0,0,0,0,0,0,0,0,0,0,0,0,0,0,0,0,0,0,0,0,0,0,0,0,0,0,0,0,0,0,0,0,0,0,0,0,0,0,0,0,0,0,0,0,0,0,0,0,0,0,0,0,0,0,0,0,0,0,0,0,0,0,0,0,0,0,0,0,0,0,0,0,0,0,0,0,0,0,0,0,0,0,0,0,0,0,0,0,0,0,0,0,0,0,0,0,0,0,0,0,0,0,0,0,0,0,0,0,0,0,0,0,0,0,0,0,0,0,0,0,0,0,0,0,0,0],"sum_hessian":[2.174E3,1.804E3,3.7E2,1.729E3,7.5E1,3.62E2,8E0,1.661E3,6.8E1,7.2E1,3E0,2.47E2,1.15E2,7E0,1E0,1.555E3,1.06E2,6.4E1,4E0,7.1E1,1E0,1.59E2,8.8E1,1.13E2,2E0,1.475E3,8E1,5.7E1,4.9E1,6.3E1,1E0,2E0,2E0,7E1,1E0,8.8E1,7.1E1,8.5E1,3E0,1.05E2,8E0,1E0,1E0,1.429E3,4.6E1,7E1,1E1,3.3E1,2.4E1,4.6E1,3E0,6.2E1,1E0,6.6E1,4E0,7.1E1,1.7E1,1.1E1,6E1,4.7E1,3.8E1,2E0,1.03E2,6.21E2,8.08E2,4.5E1,1E0,6.8E1,2E0,8E0,2E0,3.1E1,2E0,2.3E1,1E0,4.5E1,1E0,1E0,2E0,2.8E1,3.4E1,6.5E1,1E0,6.2E1,9E0,1.6E1,1E0,8E0,3E0,8E0,5.2E1,4.6E1,1E0,3.6E1,2E0,1E0,1E0,6E0,9.7E1,6.17E2,4E0,7.8E2,2.8E1,4.3E1,2E0,5.7E1,1.1E1,1E0,7E0,2.6E1,5E0,8E0,1.5E1,1.3E1,3.2E1,2.5E1,3E0,3.3E1,1E0,6.4E1,1E0,3.7E1,2.5E1,8E0,1E0,1.5E1,1E0,1E0,2E0,6E0,2E0,3E0,4.9E1,4.1E1,5E0,3.1E1,5E0,4E0,2E0,8.3E1,1.4E1],"tree_param":{"num_deleted":"0","num_feature":"2054","num_nodes":"141","size_leaf_vector":"1"}},{"base_weights":[1.0621452E-2,4.9026653E-2,-1.6480731E0,-5.549898E-2,5.489593E-1,-1.7731413E0,2.022295E-1,-1.0561456E-1,1.0207701E0,6.165268E-1,-1.9180952E0,-1.9598302E0,-7.8788334E-1,2.6757143E-2,-2.8001947E-2,-1.5651006E-1,1.0289838E0,1.1011859E0,4.781062E-2,4.230685E-1,1.0097483E0,-1.0493416E-2,-2.053488E0,-2.1197193E0,-1.0952808E0,-2.7752625E-2,-1.1553186E-2,-2.3739113E-1,6.5226483E-1,1.0708576E0,-8.731999E-3,3.84768E-1,1.2240684E0,-1.0586143E-2,8.359732E-3,3.176137E-1,1.0781287E0,1.0662161E0,-1.4051167E-2,-6.586184E-2,-1.3773507E-2,-2.1501489E0,-1.8102514E-2,-3.5795286E-2,-6.1501837E-3,-3.2128298E-1,4.6991456E-1,9.2990685E-1,1.8944895E-1,1.1239077E0,-2.5633513E-3,5.196384E-1,-1.4882445E-2,1.2438025E0,6.0026406E-4,1.334614E-1,7.327484E-1,1.1469628E0,-1.6868398E-2,1.1346301E0,4.5267487E-1,-6.544697E-2,-1.8585877E-2,-3.5752156E-1,8.954416E-1,6.980713E-1,-8.698579E-1,1.0125467E0,-1.2287454E-2,2.2262156E-1,-2.4525668E-2,1.2600211E0,5.186199E-1,1.9794542E-2,1.7945933E-1,-3.26442E-3,1.5809821E-3,1.2625241E0,2.0884823E-3,-1.4741103E-1,4.578064E-1,8.8101006E-1,-1.5596548E-1,1.3117806E0,7.130576E-1,1.1516165E0,-8.460088E-3,5.9864616E-1,7.261072E-3,-1.2748516E-2,3.8690593E-3,1.0207565E-2,3.728184E-2,-1.3157397E-2,2.571778E-2,-1.8556103E-2,-4.9527194E-2,3.2739487E-2,3.2438475E-3,9.579675E-3,-5.7963477E-3,3.8459096E-2,1.4509821E-3,1.9349333E-2,-1.6860494E-2,7.177591E-5,7.1305223E-3,3.8342953E-2,5.388186E-3,-1.0215215E-2,3.2316886E-2,1.5855882E-2,-1.6170273E-2,2.778391E-2,-6.2935445E-3,1.1469354E-2,-1.3238152E-2,4.084826E-2,3.9808843E-3,4.7426317E-3,2.2582375E-2,3.5003934E-2,-5.270197E-3,1.984353E-2,3.3272551E-3],"categories":[],"categories_nodes":[],"categories_segments":[],"categories_sizes":[],"default_left":[0,0,0,0,0,0,0,0,0,0,0,0,0,0,0,0,0,0,0,0,0,0,0,0,0,0,0,0,0,0,0,0,0,0,0,0,0,0,0,0,0,0,0,0,0,0,0,0,0,0,0,0,0,0,0,0,0,0,0,0,0,0,0,0,0,0,0,0,0,0,0,0,0,0,0,0,0,0,0,0,0,0,0,0,0,0,0,0,0,0,0,0,0,0,0,0,0,0,0,0,0,0,0,0,0,0,0,0,0,0,0,0,0,0,0,0,0,0,0,0,0,0,0,0,0],"id":4,"left_children":[1,3,5,7,9,11,13,15,17,19,21,23,25,-1,-1,27,29,31,33,35,37,-1,39,41,43,-1,-1,45,47,49,-1,51,53,-1,-1,55,57,59,-1,-1,-1,61,-1,-1,-1,63,65,67,69,71,-1,73,75,77,-1,79,81,83,-1,85,87,-1,-1,89,91,93,95,97,-1,99,-1,101,103,-1,105,-1,-1,107,-1,109,111,113,115,117,119,121,-1,123,-1,-1,-1,-1,-1,-1,-1,-1,-1,-1,-1,-1,-1,-1,-1,-1,-1,-1,-1,-1,-1,-1,-1,-1,-1,-1,-1,-1,-1,-1,-1,-1,-1,-1,-1,-1,-1],"loss_changes":[1.3793301E2,1.1060369E2,1.1697861E1,9.455298E1,6.2192062E1,6.916977E0,3.9653602E0,9.682775E1,6.0501785E0,2.67305E1,1.4051132E0,2.931137E0,1.4110804E-1,0E0,0E0,1.0501443E2,4.291527E0,5.8675537E0,7.4580437E-1,1.6305672E1,1.0264931E1,0E0,1.028328E0,1.3290405E-1,4.5262337E-1,0E0,0E0,8.66646E1,1.8584412E1,4.389969E0,0E0,6.5454566E-1,1.4245377E0,0E0,0E0,1.5879841E1,4.3711395E0,4.2295227E0,0E0,0E0,0E0,9.107971E-2,0E0,0E0,0E0,5.781656E1,4.7987343E1,1.0487976E1,2.0526145E0,4.8665085E0,0E0,3.1076527E-1,3.1126708E-2,1.2310638E0,0E0,1.3368024E1,8.570187E0,1.3531151E0,0E0,2.755188E0,2.5482035E-1,0E0,0E0,4.1616882E1,6.9039307E0,2.444117E1,3.493616E0,6.008705E0,0E0,2.2733276E0,0E0,1.3740921E0,2.2741458E0,0E0,4.0670007E-2,0E0,0E0,7.655182E-1,0E0,1.90482E1,5.0787306E0,2.9012222E0,1.704442E0,1.1118546E0,1.23283386E-1,2.219986E0,0E0,1.410656E-1,0E0,0E0,0E0,0E0,0E0,0E0,0E0,0E0,0E0,0E0,0E0,0E0,0E0,0E0,0E0,0E0,0E0,0E0,0E0,0E0,0E0,0E0,0E0,0E0,0E0,0E0,0E0,0E0,0E0,0E0,0E0,0E0,0E0,0E0,0E0,0E0,0E0],"parents":[2147483647,0,0,1,1,2,2,3,3,4,4,5,5,6,6,7,7,8,8,9,9,10,10,11,11,12,12,15,15,16,16,17,17,18,18,19,19,20,20,22,22,23,23,24,24,27,27,28,28,29,29,31,31,32,32,35,35,36,36,37,37,41,41,45,45,46,46,47,47,48,48,49,49,51,51,52,52,53,53,55,55,56,56,57,57,59,59,60,60,63,63,64,64,65,65,66,66,67,67,69,69,71,71,72,72,74,74,77,77,79,79,80,80,81,81,82,82,83,83,84,84,85,85,87,87],"right_children":[2,4,6,8,10,12,14,16,18,20,22,24,26,-1,-1,28,30,32,34,36,38,-1,40,42,44,-1,-1,46,48,50,-1,52,54,-1,-1,56,58,60,-1,-1,-1,62,-1,-1,-1,64,66,68,70,72,-1,74,76,78,-1,80,82,84,-1,86,88,-1,-1,90,92,94,96,98,-1,100,-1,102,104,-1,106,-1,-1,108,-1,110,112,114,116,118,120,122,-1,124,-1,-1,-1,-1,-1,-1,-1,-1,-1,-1,-1,-1,-1,-1,-1,-1,-1,-1,-1,-1,-1,-1,-1,-1,-1,-1,-1,-1,-1,-1,-1,-1,-1,-1,-1,-1,-1],"split_conditions":[1E0,1E0,1E0,1E0,1E0,1E0,1E0,1E0,4E0,1E0,1E0,1E0,1E0,2.6757143E-2,-2.8001947E-2,1E0,1E0,2.83705E2,1E0,1E0,1E0,-1.0493416E-2,1E0,1E0,1E0,-2.7752625E-2,-1.1553186E-2,1E0,1E0,1E0,-8.731999E-3,3E0,1E0,-1.0586143E-2,8.359732E-3,1E0,1E0,1E0,-1.4051167E-2,-6.586184E-2,-1.3773507E-2,1E0,-1.8102514E-2,-3.5795286E-2,-6.1501837E-3,1E0,1E0,1E0,1E0,4E0,-2.5633513E-3,1E0,1E0,1E0,6.0026406E-4,1E0,1E0,1E0,-1.6868398E-2,1E0,1E0,-6.544697E-2,-1.8585877E-2,1E0,1E0,1.527E1,7.358E1,1E0,-1.2287454E-2,1E0,-2.4525668E-2,1E0,1E0,1.9794542E-2,1E0,-3.26442E-3,1.5809821E-3,1E0,2.0884823E-3,1E0,1E0,1E0,2.45297E2,1E0,1E0,1E0,-8.460088E-3,1E0,7.261072E-3,-1.2748516E-2,3.8690593E-3,1.0207565E-2,3.728184E-2,-1.3157397E-2,2.571778E-2,-1.8556103E-2,-4.9527194E-2,3.2739487E-2,3.2438475E-3,9.579675E-3,-5.7963477E-3,3.8459096E-2,1.4509821E-3,1.9349333E-2,-1.6860494E-2,7.177591E-5,7.1305223E-3,3.8342953E-2,5.388186E-3,-1.0215215E-2,3.2316886E-2,1.5855882E-2,-1.6170273E-2,2.778391E-2,-6.2935445E-3,1.1469354E-2,-1.3238152E-2,4.084826E-2,3.9808843E-3,4.7426317E-3,2.2582375E-2,3.5003934E-2,-5.270197E-3,1.984353E-2,3.3272551E-3],"split_indices":[547,1349,1754,1945,1313,1840,114,1119,2051,1617,74,950,499,0,0,1766,303,2048,403,790,621,0,57,222,193,0,0,809,1160,519,0,2051,198,0,0,1308,84,591,0,0,0,1080,0,0,0,78,656,333,1405,2053,0,1722,35,1340,0,1670,1812,114,0,1188,162,0,0,1163,84,2052,2052,586,0,1410,0,159,171,0,45,0,0,254,0,811,389,222,2048,1,29,389,0,218,0,0,0,0,0,0,0,0,0,0,0,0,0,0,0,0,0,0,0,0,0,0,0,0,0,0,0,0,0,0,0,0,0,0,0,0,0],"split_type":[0,0,0,0,0,0,0,0,0,0,0,0,0,0,0,0,0,0,0,0,0,0,0,0,0,0,0,0,0,0,0,0,0,0,0,0,0,0,0,0,0,0,0,0,0,0,0,0,0,0,0,0,0,0,0,0,0,0,0,0,0,0,0,0,0,0,0,0,0,0,0,0,0,0,0,0,0,0,0,0,0,0,0,0,0,0,0,0,0,0,0,0,0,0,0,0,0,0,0,0,0,0,0,0,0,0,0,0,0,0,0,0,0,0,0,0,0,0,0,0,0,0,0,0,0],"sum_hessian":[2.163E3,2.115E3,4.8E1,1.75E3,3.65E2,4.5E1,3E0,1.673E3,7.7E1,3.56E2,9E0,3.7E1,8E0,2E0,1E0,1.602E3,7.1E1,7.1E1,6E0,2.4E2,1.16E2,1E0,8E0,3E1,7E0,5E0,3E0,1.457E3,1.45E2,6.9E1,2E0,1.1E1,6E1,2E0,4E0,2.08E2,3.2E1,1.12E2,4E0,7E0,1E0,2.9E1,1E0,6E0,1E0,1.303E3,1.54E2,9E1,5.5E1,6.6E1,3E0,8E0,3E0,5.9E1,1E0,1.45E2,6.3E1,3.1E1,1E0,1E2,1.2E1,2.8E1,1E0,1.266E3,3.7E1,1.32E2,2.2E1,8.5E1,5E0,5.4E1,1E0,5.3E1,1.3E1,5E0,3E0,1E0,2E0,5.8E1,1E0,7.8E1,6.7E1,5.4E1,9E0,2.1E1,1E1,9.9E1,1E0,6E0,6E0,1.112E3,1.54E2,1.5E1,2.2E1,1.6E1,1.16E2,1.8E1,4E0,7.8E1,7E0,4.4E1,1E1,5.2E1,1E0,1.2E1,1E0,1E0,2E0,5.7E1,1E0,6.8E1,1E1,6.3E1,4E0,5.2E1,2E0,3E0,6E0,2E1,1E0,1E0,9E0,9.8E1,1E0,5E0,1E0],"tree_param":{"num_deleted":"0","num_feature":"2054","num_nodes":"125","size_leaf_vector":"1"}},{"base_weights":[8.196201E-3,-9.664922E-2,5.439836E-1,-1.4887516E-1,1.0019109E0,5.946139E-1,-2.0435448E0,-2.017587E-1,9.998215E-1,3.1144437E-1,1.1394857E0,6.8220395E-1,-2.3179448E-1,-6.700177E-2,-1.3566907E-2,-2.805808E-1,6.17208E-1,1.0279148E0,-1.6607586E-2,4.330226E-3,5.15706E-1,1.704634E-1,1.1662673E0,4.8331374E-1,1.0317049E0,-7.286972E-1,1.10511824E-1,-3.3558765E-1,8.023018E-1,8.778126E-1,1.4827521E-1,1.0657365E0,-7.0516537E-3,1.8229266E-1,-8.811517E-3,1.9110236E-2,6.076622E-2,1.1620187E-3,6.508834E-3,1.1836034E0,5.91259E-4,3.693319E-1,1.1244987E0,1.0582381E0,-8.817791E-3,-9.502046E-1,6.262267E-2,3.7734655E-1,-8.188286E-1,-3.8441417E-1,8.0717885E-1,9.993598E-1,-5.390992E-1,9.5490897E-1,-6.06997E-2,-2.3692278E-2,2.0054537E-1,1.0903536E0,-1.0600362E-2,7.595862E-3,-1.5197754E-3,2.663784E-3,7.0695874E-5,1.1999544E0,2.0571542E-3,5.043971E-1,-1.0767149E-1,1.1843613E0,5.7284404E-3,1.1119455E0,9.7801415E-3,-3.4115873E-2,-1.0160132E-2,1.3581819E-2,-1.6615368E-2,2.3616198E-2,8.2222246E-2,-4.5181654E-2,1.413409E-1,-3.4309158E-1,-1.597184E0,1.3399862E0,1.6942842E-1,-1.3699742E-1,1.1878E0,-1.7781383E-1,-3.9684817E-2,1.03717E0,1.358791E-1,4.9263787E-1,-1.47368945E-2,8.632555E-1,1.2577736E-1,1.115216E0,-1.0123108E-2,1.2151991E0,3.5930371E-3,5.452966E-1,-4.430844E-2,-6.827279E-1,3.9457336E-2,1.3514844E0,2.2451742E-2,1.1282935E0,-8.333187E-3,2.0466775E-1,-1.8322432E-1,-2.6528905E-3,9.013231E-3,-1.134938E-2,3.031743E-2,-5.1642403E-2,3.195684E-3,4.510424E-3,4.120535E-2,1.5530094E-2,-1.0140977E-2,-2.2508731E-2,2.9115474E-2,2.7609332E-2,4.731159E-2,-1.1912889E-2,9.600673E-3,4.588314E-2,2.6870595E-2,-8.070035E-3,8.699637E-3,-5.0386763E-3,2.3064632E-2,2.8946377E-2,6.851406E-3,6.3471724E-3,-5.22721E-3,3.408092E-2,-5.1272246E-3,3.6892306E-2,4.7016907E-3,1.8236203E-2,-2.6416767E-2,-2.6618874E-2,1.1238713E-2,2.6430622E-2,-1.3804274E-3,4.3388296E-2,1.0915012E-2,3.426014E-2,-3.8479685E-3,9.826021E-3,-3.2786224E-3,-6.1977003E-3,-1.6969084E-3],"categories":[],"categories_nodes":[],"categories_segments":[],"categories_sizes":[],"default_left":[0,0,0,0,0,0,0,0,0,0,0,0,0,0,0,0,0,0,0,0,0,0,0,0,0,0,0,0,0,0,0,0,0,0,0,0,0,0,0,0,0,0,0,0,0,0,0,0,0,0,0,0,0,0,0,0,0,0,0,0,0,0,0,0,0,0,0,0,0,0,0,0,0,0,0,0,0,0,0,0,0,0,0,0,0,0,0,0,0,0,0,0,0,0,0,0,0,0,0,0,0,0,0,0,0,0,0,0,0,0,0,0,0,0,0,0,0,0,0,0,0,0,0,0,0,0,0,0,0,0,0,0,0,0,0,0,0,0,0,0,0,0,0,0,0,0,0,0,0,0,0],"id":5,"left_children":[1,3,5,7,9,11,13,15,17,19,21,23,25,-1,-1,27,29,31,-1,33,35,37,39,41,43,45,47,49,51,53,55,57,-1,59,-1,-1,61,-1,-1,63,-1,65,67,69,-1,71,73,75,77,79,81,83,85,87,89,-1,91,93,-1,-1,-1,-1,-1,95,-1,97,99,101,-1,103,-1,-1,-1,-1,-1,-1,105,-1,107,109,111,113,115,117,119,121,-1,123,125,127,-1,129,131,133,-1,135,-1,137,-1,139,141,143,-1,145,-1,147,149,-1,-1,-1,-1,-1,-1,-1,-1,-1,-1,-1,-1,-1,-1,-1,-1,-1,-1,-1,-1,-1,-1,-1,-1,-1,-1,-1,-1,-1,-1,-1,-1,-1,-1,-1,-1,-1,-1,-1,-1,-1,-1,-1,-1],"loss_changes":[1.2116556E2,1.0365065E2,4.7460716E1,1.0486905E2,7.4343567E0,2.5275772E1,1.104742E0,1.06555954E2,3.8856964E0,9.3874156E-1,1.5659256E0,2.1328247E1,5.863689E0,0E0,0E0,8.985649E1,1.7589714E1,3.8330994E0,0E0,4.248312E-1,4.5795703E-1,9.971604E-3,1.2885513E0,1.4347546E1,4.2856216E0,2.5134692E0,5.516568E0,8.0212036E1,1.9835114E1,6.787056E0,2.7569878E0,2.9354248E0,0E0,9.54113E-2,0E0,0E0,4.7018295E-3,0E0,0E0,1.1027832E0,0E0,1.1200102E1,1.4503899E0,4.0027313E0,0E0,8.7273026E-1,1.2126898E0,1.9915886E0,3.5121374E0,6.830974E1,1.9821056E1,1.38673935E1,2.5962777E0,5.6532593E0,2.1478262E0,0E0,2.4184465E0,2.93219E0,0E0,0E0,0E0,0E0,0E0,9.083557E-1,0E0,1.1745247E1,3.326626E0,1.0286598E0,0E0,2.653473E0,0E0,0E0,0E0,0E0,0E0,0E0,3.9503023E-1,0E0,1.362375E-1,6.3793854E1,9.707657E0,1.0697594E0,5.1231184E0,7.5204782E0,4.275261E0,1.0004139E0,0E0,4.0626297E0,6.395676E-1,8.5890764E-1,0E0,1.0223293E-1,1.2466462E0,2.0948486E0,0E0,7.77153E-1,0E0,1.2402267E1,0E0,2.0628035E0,2.3422916E0,1.2526093E0,0E0,1.9038086E0,0E0,3.443914E-1,1.5258789E-4,0E0,0E0,0E0,0E0,0E0,0E0,0E0,0E0,0E0,0E0,0E0,0E0,0E0,0E0,0E0,0E0,0E0,0E0,0E0,0E0,0E0,0E0,0E0,0E0,0E0,0E0,0E0,0E0,0E0,0E0,0E0,0E0,0E0,0E0,0E0,0E0,0E0,0E0,0E0,0E0,0E0,0E0,0E0,0E0],"parents":[2147483647,0,0,1,1,2,2,3,3,4,4,5,5,6,6,7,7,8,8,9,9,10,10,11,11,12,12,15,15,16,16,17,17,19,19,20,20,21,21,22,22,23,23,24,24,25,25,26,26,27,27,28,28,29,29,30,30,31,31,33,33,36,36,39,39,41,41,42,42,43,43,45,45,46,46,47,47,48,48,49,49,50,50,51,51,52,52,53,53,54,54,56,56,57,57,63,63,65,65,66,66,67,67,69,69,76,76,78,78,79,79,80,80,81,81,82,82,83,83,84,84,85,85,87,87,88,88,89,89,91,91,92,92,93,93,95,95,97,97,99,99,100,100,101,101,103,103,105,105,106,106],"right_children":[2,4,6,8,10,12,14,16,18,20,22,24,26,-1,-1,28,30,32,-1,34,36,38,40,42,44,46,48,50,52,54,56,58,-1,60,-1,-1,62,-1,-1,64,-1,66,68,70,-1,72,74,76,78,80,82,84,86,88,90,-1,92,94,-1,-1,-1,-1,-1,96,-1,98,100,102,-1,104,-1,-1,-1,-1,-1,-1,106,-1,108,110,112,114,116,118,120,122,-1,124,126,128,-1,130,132,134,-1,136,-1,138,-1,140,142,144,-1,146,-1,148,150,-1,-1,-1,-1,-1,-1,-1,-1,-1,-1,-1,-1,-1,-1,-1,-1,-1,-1,-1,-1,-1,-1,-1,-1,-1,-1,-1,-1,-1,-1,-1,-1,-1,-1,-1,-1,-1,-1,-1,-1,-1,-1,-1,-1],"split_conditions":[1E0,1E0,1E0,1E0,1E0,1E0,1E0,1E0,1E0,3.8647E0,3.44222E0,1E0,1E0,-6.700177E-2,-1.3566907E-2,1E0,1E0,1E0,-1.6607586E-2,2.53349E2,1E0,1E0,1E0,1E0,1E0,1E0,1E0,1E0,1E0,1E0,4.1933E0,1E0,-7.0516537E-3,1E0,-8.811517E-3,1.9110236E-2,1E0,1.1620187E-3,6.508834E-3,1E0,5.91259E-4,4.6464E0,1E0,1E0,-8.817791E-3,1E0,1E0,4.73398E0,1E0,1E0,1E0,2.95432E0,4.628E1,1E0,1E0,-2.3692278E-2,4.6464E0,1E0,-1.0600362E-2,7.595862E-3,-1.5197754E-3,2.663784E-3,7.0695874E-5,1E0,2.0571542E-3,1E0,3E0,5.5687E0,5.7284404E-3,1E0,9.7801415E-3,-3.4115873E-2,-1.0160132E-2,1.3581819E-2,-1.6615368E-2,2.3616198E-2,1E0,-4.5181654E-2,1E0,1E0,1E0,1E0,4.46576E2,1E0,1E0,1E0,-3.9684817E-2,3.8647E0,4.3142E2,1E0,-1.47368945E-2,1E0,1E0,1E0,-1.0123108E-2,1E0,3.5930371E-3,1E0,-4.430844E-2,1E0,6E0,1E0,2.2451742E-2,1E0,-8.333187E-3,1E0,1E0,-2.6528905E-3,9.013231E-3,-1.134938E-2,3.031743E-2,-5.1642403E-2,3.195684E-3,4.510424E-3,4.120535E-2,1.5530094E-2,-1.0140977E-2,-2.2508731E-2,2.9115474E-2,2.7609332E-2,4.731159E-2,-1.1912889E-2,9.600673E-3,4.588314E-2,2.6870595E-2,-8.070035E-3,8.699637E-3,-5.0386763E-3,2.3064632E-2,2.8946377E-2,6.851406E-3,6.3471724E-3,-5.22721E-3,3.408092E-2,-5.1272246E-3,3.6892306E-2,4.7016907E-3,1.8236203E-2,-2.6416767E-2,-2.6618874E-2,1.1238713E-2,2.6430622E-2,-1.3804274E-3,4.3388296E-2,1.0915012E-2,3.426014E-2,-3.8479685E-3,9.826021E-3,-3.2786224E-3,-6.1977003E-3,-1.6969084E-3],"split_indices":[1349,1945,277,1119,664,1060,57,1766,191,2049,2049,1617,1480,0,0,806,1160,519,0,2048,165,164,198,790,389,1114,407,468,590,802,2049,266,0,366,0,0,193,0,0,1093,0,2049,1308,975,0,881,90,2049,246,547,903,2049,2052,714,283,0,2049,303,0,0,0,0,0,548,0,1520,2051,2049,0,1188,0,0,0,0,0,0,1068,0,25,1051,832,455,2048,674,809,341,0,2049,2048,1,0,481,1410,144,0,419,0,60,0,116,2053,1923,0,182,0,114,249,0,0,0,0,0,0,0,0,0,0,0,0,0,0,0,0,0,0,0,0,0,0,0,0,0,0,0,0,0,0,0,0,0,0,0,0,0,0,0,0,0,0,0,0],"split_type":[0,0,0,0,0,0,0,0,0,0,0,0,0,0,0,0,0,0,0,0,0,0,0,0,0,0,0,0,0,0,0,0,0,0,0,0,0,0,0,0,0,0,0,0,0,0,0,0,0,0,0,0,0,0,0,0,0,0,0,0,0,0,0,0,0,0,0,0,0,0,0,0,0,0,0,0,0,0,0,0,0,0,0,0,0,0,0,0,0,0,0,0,0,0,0,0,0,0,0,0,0,0,0,0,0,0,0,0,0,0,0,0,0,0,0,0,0,0,0,0,0,0,0,0,0,0,0,0,0,0,0,0,0,0,0,0,0,0,0,0,0,0,0,0,0,0,0,0,0,0,0],"sum_hessian":[2.155E3,1.803E3,3.52E2,1.722E3,8.1E1,3.46E2,6E0,1.647E3,7.5E1,1.4E1,6.7E1,3.13E2,3.3E1,5E0,1E0,1.503E3,1.44E2,7.4E1,1E0,6E0,8E0,2E0,6.5E1,2.01E2,1.12E2,1.3E1,2E1,1.431E3,7.2E1,9.2E1,5.2E1,7.2E1,2E0,4E0,2E0,6E0,2E0,1E0,1E0,6.4E1,1E0,1.72E2,2.9E1,1.1E2,2E0,1E1,3E0,1.6E1,4E0,1.373E3,5.8E1,6.3E1,9E0,8.5E1,7E0,2E0,5E1,7.1E1,1E0,3E0,1E0,1E0,1E0,6.3E1,1E0,1.34E2,3.8E1,2.7E1,2E0,1.02E2,8E0,7E0,3E0,2E0,1E0,6E0,1E1,2E0,2E0,1.329E3,4.4E1,3.1E1,2.7E1,9E0,5.4E1,7E0,2E0,7.7E1,8E0,3E0,4E0,4E0,4.6E1,7E1,1E0,6.2E1,1E0,1.32E2,2E0,7E0,3.1E1,1.8E1,9E0,1.01E2,1E0,7E0,3E0,1E0,1E0,1.296E3,3.3E1,4.1E1,3E0,1E0,3E1,1.6E1,1.1E1,6E0,3E0,3.4E1,2E1,5E0,2E0,1.5E1,6.2E1,2E0,6E0,1E0,2E0,3E0,1E0,3.6E1,1E1,6.9E1,1E0,6.1E1,1E0,1.27E2,5E0,6E0,1E0,2E0,2.9E1,1.6E1,2E0,1E2,1E0,5E0,2E0,2E0,1E0],"tree_param":{"num_deleted":"0","num_feature":"2054","num_nodes":"151","size_leaf_vector":"1"}},{"base_weights":[9.193349E-4,-1.0541807E-1,5.4159003E-1,-6.1314173E-2,-1.3653506E0,5.885461E-1,-1.8768747E0,-1.7227565E-1,5.731091E-1,-1.5077577E0,1.9134037E-1,6.7573696E-1,-2.6684928E-1,-6.1236147E-2,-1.3363401E-2,-2.5986904E-1,6.038637E-1,8.2700104E-1,-3.882517E-1,-1.5366945E0,1.2565326E-3,-9.6292915E-3,2.4319476E-2,5.2173954E-1,1.0046939E0,-7.143918E-1,1.9639027E-1,-3.2422915E-1,9.087618E-1,8.7577355E-1,1.6502506E-1,8.9763814E-1,8.453914E-2,-6.6986936E-1,1.3807277E-1,-1.561803E0,-2.712593E-3,2.6546004E-1,8.7648726E-1,1.0589772E0,3.3816528E-1,-8.832853E-1,5.5333257E-2,3.334922E-1,-2.9958608E-2,-3.725954E-1,8.8562137E-1,1.1436216E0,-6.1475885E-1,9.519262E-1,-1.16128065E-2,-2.3218436E-2,2.115495E-1,9.3660736E-1,-9.624636E-2,-1.8702538E-1,4.8131853E-1,-7.614837E-1,1.7751498E-2,-2.0177743E-1,2.3941454E-2,-1.5846252E0,-5.283294E-3,-1.2095878E-1,5.773873E-1,9.152932E-1,-1.700756E-2,9.9165636E-1,5.2043382E-2,1.1137347E-2,4.4477317E-3,-7.8829765E-2,-1.010792E0,5.547428E-3,-5.001147E-3,6.3566655E-1,-4.8140466E-2,-4.0491045E-1,1.0164088E0,4.987154E-1,1.135256E0,1.3690294E0,2.060365E-1,1.5425706E-1,-9.6637386E-1,1.0167936E0,-1.04062E-1,8.445174E-1,1.4784405E-1,9.587782E-1,-2.0953603E-2,-2.1225698E-1,1.0737419E-2,7.46024E-2,-1.3832606E-2,1.942503E-1,2.1594726E-2,-3.6778298E-1,-1.1814107E0,7.917537E-3,-2.5790152E-1,-1.6272322E0,-1.967648E-2,-3.8738486E-1,6.026212E-1,6.256383E-1,-2.1745462E-2,9.4479805E-1,-7.363338E-3,4.0871742E-1,1.0302678E0,-5.7073757E-3,2.1600365E-3,-3.5544455E-2,-1.59059E-2,2.6981592E-2,1.06172655E-2,-5.1847887E-3,1.1975193E-1,-1.3321995E-2,2.0333778E-2,-9.986807E-3,3.765489E-2,1.8966129E-2,-1.646696E-3,3.5634764E-2,-5.050313E-3,4.247396E-2,5.399036E-3,-9.996917E-3,1.4482091E-2,9.940534E-3,-5.6553767E-3,-3.4669198E-2,2.5383495E-3,3.1942632E-2,6.7151785E-3,3.0381011E-3,-6.9613657E-3,2.8295083E-2,6.748638E-3,-6.73318E-3,5.484448E-3,3.4265106E-3,3.0242292E-2,-9.439656E-3,-1.7038357E-3,3.9299224E-3,-1.3296604E-5,6.7451084E-3,1.0785556E-3,-1.6783997E-2,1.4726918E-2,-3.9553083E-2,-4.444647E-3,-9.570067E-3,7.1296045E-3,-4.944014E-2,-9.140625E-3,-1.8429497E-2,-2.0520543E-3,-8.004345E-3,2.2376517E-2,2.76371E-2,1.3102423E-2,2.9549444E-2,7.1447417E-3,1.4807985E-2,3.930244E-3,3.1484626E-2,5.6138756E-3,-1.6714525E-3,5.904379E-3],"categories":[],"categories_nodes":[],"categories_segments":[],"categories_sizes":[],"default_left":[0,0,0,0,0,0,0,0,0,0,0,0,0,0,0,0,0,0,0,0,0,0,0,0,0,0,0,0,0,0,0,0,0,0,0,0,0,0,0,0,0,0,0,0,0,0,0,0,0,0,0,0,0,0,0,0,0,0,0,0,0,0,0,0,0,0,0,0,0,0,0,0,0,0,0,0,0,0,0,0,0,0,0,0,0,0,0,0,0,0,0,0,0,0,0,0,0,0,0,0,0,0,0,0,0,0,0,0,0,0,0,0,0,0,0,0,0,0,0,0,0,0,0,0,0,0,0,0,0,0,0,0,0,0,0,0,0,0,0,0,0,0,0,0,0,0,0,0,0,0,0,0,0,0,0,0,0,0,0,0,0,0,0,0,0,0,0,0,0,0,0,0,0],"id":6,"left_children":[1,3,5,7,9,11,13,15,17,19,21,23,25,-1,-1,27,29,31,33,35,-1,-1,-1,37,39,41,43,45,47,49,51,53,55,57,59,61,-1,63,65,67,69,71,73,75,-1,77,79,81,83,85,-1,-1,87,89,91,93,95,97,-1,99,-1,101,-1,103,105,107,-1,109,-1,-1,-1,111,113,-1,-1,115,117,119,121,123,125,127,129,131,133,135,137,139,141,143,-1,145,-1,147,-1,149,-1,151,153,-1,155,157,-1,159,161,163,-1,165,-1,167,169,-1,-1,-1,-1,-1,-1,-1,171,-1,-1,-1,-1,-1,-1,-1,-1,-1,-1,-1,-1,-1,-1,-1,-1,-1,-1,-1,-1,-1,-1,-1,-1,-1,-1,-1,-1,-1,-1,-1,-1,-1,-1,-1,-1,-1,-1,-1,-1,-1,-1,-1,-1,-1,-1,-1,-1,-1,-1,-1,-1,-1,-1],"loss_changes":[1.24185616E2,1.00216415E2,4.1418976E1,1.229407E2,1.3811195E1,2.6209679E1,7.373371E-1,1.01182144E2,6.3782333E1,2.5755157E0,2.1638932E0,1.5534546E1,6.981839E0,0E0,0E0,1.0077953E2,1.7873486E1,1.0727844E1,8.244717E0,1.8560333E0,0E0,0E0,0E0,1.95867E1,3.2600403E0,2.2589006E0,3.118282E0,7.4469635E1,2.5750011E1,9.312347E0,2.7411551E0,7.371567E0,2.137292E0,4.6114426E0,4.646886E0,1.4286652E0,0E0,1.5498263E1,5.6160583E0,2.4652863E0,1.4986992E-3,1.356349E0,1.4591384E-1,1.875715E0,0E0,5.5127243E1,4.1665E0,1.2609604E1,2.8530452E0,6.133751E0,0E0,0E0,2.173583E0,7.2310333E0,4.974691E-1,8.9482343E-1,4.079131E-1,5.1865654E0,0E0,4.3397915E-1,0E0,1.0299835E0,0E0,1.1414721E1,4.9147243E0,3.2799149E0,0E0,1.5146103E0,0E0,0E0,0E0,6.411293E-2,3.75432E-1,0E0,0E0,3.5044503E-1,1.881667E-1,5.0835083E1,9.438086E0,1.5866046E0,2.187317E0,2.470169E0,2.1006596E0,3.052737E-1,1.4901929E0,2.9182053E0,1.8117398E-1,9.3435526E-2,7.310419E-1,7.3375854E0,0E0,9.356281E-2,0E0,2.9683452E-2,0E0,1.6125783E-2,0E0,3.4019449E0,2.0699844E0,0E0,4.694358E-1,8.7150574E-1,0E0,3.0706372E0,2.1919265E0,3.450323E0,0E0,2.2358017E0,0E0,1.00342155E-1,1.1000061E0,0E0,0E0,0E0,0E0,0E0,0E0,0E0,6.505187E-2,0E0,0E0,0E0,0E0,0E0,0E0,0E0,0E0,0E0,0E0,0E0,0E0,0E0,0E0,0E0,0E0,0E0,0E0,0E0,0E0,0E0,0E0,0E0,0E0,0E0,0E0,0E0,0E0,0E0,0E0,0E0,0E0,0E0,0E0,0E0,0E0,0E0,0E0,0E0,0E0,0E0,0E0,0E0,0E0,0E0,0E0,0E0,0E0,0E0,0E0,0E0,0E0,0E0,0E0],"parents":[2147483647,0,0,1,1,2,2,3,3,4,4,5,5,6,6,7,7,8,8,9,9,10,10,11,11,12,12,15,15,16,16,17,17,18,18,19,19,23,23,24,24,25,25,26,26,27,27,28,28,29,29,30,30,31,31,32,32,33,33,34,34,35,35,37,37,38,38,39,39,40,40,41,41,42,42,43,43,45,45,46,46,47,47,48,48,49,49,52,52,53,53,54,54,55,55,56,56,57,57,59,59,61,61,63,63,64,64,65,65,67,67,71,71,72,72,75,75,76,76,77,77,78,78,79,79,80,80,81,81,82,82,83,83,84,84,85,85,86,86,87,87,88,88,89,89,91,91,93,93,95,95,97,97,98,98,100,100,101,101,103,103,104,104,105,105,107,107,109,109,110,110,118,118],"right_children":[2,4,6,8,10,12,14,16,18,20,22,24,26,-1,-1,28,30,32,34,36,-1,-1,-1,38,40,42,44,46,48,50,52,54,56,58,60,62,-1,64,66,68,70,72,74,76,-1,78,80,82,84,86,-1,-1,88,90,92,94,96,98,-1,100,-1,102,-1,104,106,108,-1,110,-1,-1,-1,112,114,-1,-1,116,118,120,122,124,126,128,130,132,134,136,138,140,142,144,-1,146,-1,148,-1,150,-1,152,154,-1,156,158,-1,160,162,164,-1,166,-1,168,170,-1,-1,-1,-1,-1,-1,-1,172,-1,-1,-1,-1,-1,-1,-1,-1,-1,-1,-1,-1,-1,-1,-1,-1,-1,-1,-1,-1,-1,-1,-1,-1,-1,-1,-1,-1,-1,-1,-1,-1,-1,-1,-1,-1,-1,-1,-1,-1,-1,-1,-1,-1,-1,-1,-1,-1,-1,-1,-1,-1,-1,-1],"split_conditions":[1E0,1E0,1E0,1E0,1E0,1E0,1E0,1E0,4E0,1E0,1E0,1E0,1E0,-6.1236147E-2,-1.3363401E-2,1E0,1E0,1E0,1E0,1E0,1.2565326E-3,-9.6292915E-3,2.4319476E-2,1E0,1E0,1E0,1E0,1E0,1E0,1E0,4.1933E0,1E0,3.3725E2,1E0,2.75282E0,1E0,-2.712593E-3,1E0,1E0,1E0,1E0,1E0,1E0,1E0,-2.9958608E-2,1E0,1E0,1E0,2E0,1E0,-1.16128065E-2,-2.3218436E-2,4.6464E0,1E0,1E0,3.1318E2,3.73287E2,4.375E1,1.7751498E-2,1E0,2.3941454E-2,1E0,-5.283294E-3,1E0,1E0,1E0,-1.700756E-2,1E0,5.2043382E-2,1.1137347E-2,4.4477317E-3,1E0,1E0,5.547428E-3,-5.001147E-3,1E0,1E0,1E0,1E0,3.20436E2,1E0,1E0,2.86E1,1E0,1E0,1E0,1E0,1E0,4.8473E0,2.3484E0,-2.0953603E-2,3.62517E2,1.0737419E-2,1E0,-1.3832606E-2,1E0,2.1594726E-2,1E0,1E0,7.917537E-3,1E0,1E0,-1.967648E-2,1E0,2.3291E0,2E0,-2.1745462E-2,1E0,-7.363338E-3,1E0,1E0,-5.7073757E-3,2.1600365E-3,-3.5544455E-2,-1.59059E-2,2.6981592E-2,1.06172655E-2,-5.1847887E-3,4.57578E2,-1.3321995E-2,2.0333778E-2,-9.986807E-3,3.765489E-2,1.8966129E-2,-1.646696E-3,3.5634764E-2,-5.050313E-3,4.247396E-2,5.399036E-3,-9.996917E-3,1.4482091E-2,9.940534E-3,-5.6553767E-3,-3.4669198E-2,2.5383495E-3,3.1942632E-2,6.7151785E-3,3.0381011E-3,-6.9613657E-3,2.8295083E-2,6.748638E-3,-6.73318E-3,5.484448E-3,3.4265106E-3,3.0242292E-2,-9.439656E-3,-1.7038357E-3,3.9299224E-3,-1.3296604E-5,6.7451084E-3,1.0785556E-3,-1.6783997E-2,1.4726918E-2,-3.9553083E-2,-4.444647E-3,-9.570067E-3,7.1296045E-3,-4.944014E-2,-9.140625E-3,-1.8429497E-2,-2.0520543E-3,-8.004345E-3,2.2376517E-2,2.76371E-2,1.3102423E-2,2.9549444E-2,7.1447417E-3,1.4807985E-2,3.930244E-3,3.1484626E-2,5.6138756E-3,-1.6714525E-3,5.904379E-3],"split_indices":[1349,1256,568,1308,1683,1060,57,1766,2051,495,114,790,1480,0,0,806,1160,950,561,686,0,0,0,507,975,654,140,1119,807,333,2049,1745,2048,102,2049,193,0,1670,1339,1041,218,2050,1168,1928,0,432,1039,1862,2050,1317,0,0,2049,1653,24,2048,2048,2052,0,101,0,13,0,570,1285,562,0,2050,0,0,0,2,695,0,0,62,249,363,207,2048,144,352,2052,12,203,586,252,481,2049,2049,0,2048,0,69,0,26,0,378,1613,0,43,402,0,1911,2049,2050,0,910,0,162,1308,0,0,0,0,0,0,0,2048,0,0,0,0,0,0,0,0,0,0,0,0,0,0,0,0,0,0,0,0,0,0,0,0,0,0,0,0,0,0,0,0,0,0,0,0,0,0,0,0,0,0,0,0,0,0,0,0,0,0,0,0,0,0],"split_type":[0,0,0,0,0,0,0,0,0,0,0,0,0,0,0,0,0,0,0,0,0,0,0,0,0,0,0,0,0,0,0,0,0,0,0,0,0,0,0,0,0,0,0,0,0,0,0,0,0,0,0,0,0,0,0,0,0,0,0,0,0,0,0,0,0,0,0,0,0,0,0,0,0,0,0,0,0,0,0,0,0,0,0,0,0,0,0,0,0,0,0,0,0,0,0,0,0,0,0,0,0,0,0,0,0,0,0,0,0,0,0,0,0,0,0,0,0,0,0,0,0,0,0,0,0,0,0,0,0,0,0,0,0,0,0,0,0,0,0,0,0,0,0,0,0,0,0,0,0,0,0,0,0,0,0,0,0,0,0,0,0,0,0,0,0,0,0,0,0,0,0,0,0],"sum_hessian":[2.158E3,1.804E3,3.54E2,1.744E3,6E1,3.48E2,6E0,1.485E3,2.59E2,5.5E1,5E0,3.16E2,3.2E1,5E0,1E0,1.335E3,1.5E2,2.05E2,5.4E1,5.4E1,1E0,3E0,2E0,2.17E2,9.9E1,1.6E1,1.6E1,1.266E3,6.9E1,9.2E1,5.8E1,1.87E2,1.8E1,3.5E1,1.9E1,5.3E1,1E0,1.27E2,9E1,9.1E1,8E0,1.3E1,3E0,1.5E1,1E0,1.218E3,4.8E1,6E1,9E0,8.7E1,5E0,2E0,5.6E1,1.8E2,7E0,1.1E1,7E0,3.3E1,2E0,1.3E1,6E0,5.2E1,1E0,5.7E1,7E1,8.8E1,2E0,8.5E1,6E0,6E0,2E0,2E0,1.1E1,2E0,1E0,8E0,7E0,1.191E3,2.7E1,2E1,2.8E1,4.8E1,1.2E1,3E0,6E0,8.2E1,5E0,4E0,5.2E1,1.78E2,2E0,6E0,1E0,6E0,5E0,4E0,3E0,1.8E1,1.5E1,1E0,1.2E1,4.9E1,3E0,4.2E1,1.5E1,6.8E1,2E0,8.6E1,2E0,6E0,7.9E1,1E0,1E0,7E0,4E0,3E0,5E0,4E0,3E0,1.15E3,4.1E1,4E0,2.3E1,1.6E1,4E0,2.7E1,1E0,4.6E1,2E0,4E0,8E0,2E0,1E0,5E0,1E0,7.7E1,5E0,2E0,3E0,3E0,1E0,4E0,4.8E1,1E1,1.68E2,3E0,3E0,3E0,3E0,3E0,1E0,1.5E1,3E0,1.3E1,2E0,1.1E1,1E0,4.8E1,1E0,2.4E1,1.8E1,2E0,1.3E1,2.5E1,4.3E1,8.1E1,5E0,4E0,2E0,7.7E1,2E0,1E0,2E0],"tree_param":{"num_deleted":"0","num_feature":"2054","num_nodes":"173","size_leaf_vector":"1"}},{"base_weights":[1.8346799E-4,-9.782487E-2,5.0521743E-1,-6.1332244E-2,-1.4147761E0,5.664456E-1,-1.8979987E0,-1.531046E-1,4.1373143E-1,-1.5367686E0,2.9040948E-2,6.4385384E-1,-2.1082442E-1,-1.3162951E-2,-6.0766716E-2,-3.027559E-1,2.7078775E-1,7.2938883E-1,-4.414197E-1,-1.6291546E0,3.612779E-1,4.731866E-1,9.560624E-1,-3.306886E-2,-3.492272E-2,-3.7569034E-1,1.0871769E0,-5.0929356E-1,4.3226185E-1,7.743135E-1,-2.7813032E-2,-1.9447537E-1,-1.1980113E0,-1.867227E0,-8.9949733E-1,-7.4883983E-3,2.3745904E-2,2.195358E-1,8.0132097E-1,9.9891007E-1,4.6883583E-2,-1.4075944E-1,2.733817E-2,-4.3371147E-1,9.5282876E-1,1.3466076E0,1.4543127E-1,-6.991249E-1,3.330156E-1,3.1867233E-1,1.0295968E0,8.0838543E-1,-3.419696E-2,-1.0453267E-2,-6.998828E-1,-4.0492408E-2,6.11612E-2,-2.0331979E0,-2.3444753E-2,-1.0965056E0,-1.094949E-2,1.3972043E-1,3.178765E-2,8.982273E-1,-5.4061748E-2,1.0728858E0,4.835306E-1,6.390978E-3,-5.7082893E-3,-7.449151E-1,7.773304E-2,-4.7985494E-1,9.343721E-1,9.9113744E-1,-1.0416655E-2,1.4453967E0,-1.357142E-2,-8.2445E-2,6.787641E-1,-7.7781063E-1,2.7720932E-2,4.459082E-1,-1.5325434E-2,1.85886E-1,9.6701634E-1,1.0583249E0,6.5151835E-3,8.4501505E-1,-5.290167E-1,-1.678485E-1,4.9130002E-1,-8.112408E-1,1.4557299E-2,-6.211295E-3,8.963549E-3,-6.305958E-2,-2.2779007E-2,-3.633909E-2,-2.671902E-3,1.773343E-1,-3.707629E-2,-7.844262E-3,9.313155E-1,-1.7763478E-1,1.5871432E-2,1.0912151E0,-8.651433E-3,6.466686E-3,6.910637E-1,-3.0228134E-2,-1.3149556E-2,-7.9569376E-1,2.786727E-1,-1.5927766E-2,1.0867739E-2,7.5816066E-4,3.9856028E-2,1.2648288E-2,3.2162953E-2,4.6388894E-2,2.2032386E-2,-5.2661067E-3,1.133073E-2,2.4408497E-2,4.1130995E-3,-2.5556073E-2,1.0271208E-2,-8.1935764E-4,1.8200487E-2,6.9671343E-3,-3.9121874E-2,3.397114E-2,-1.846107E-2,3.2239392E-2,4.1233706E-3,2.6086222E-2,-3.0924821E-2,-2.2706915E-2,9.155788E-3,-2.2081366E-2,-2.12368E-3,7.321097E-3,3.2079708E-2,-2.9979745E-2,-1.325351E-3,6.6223987E-3,-2.954601E-2,2.89559E-2,-7.123384E-3,-1.1822102E-2,5.742806E-3,3.328563E-2,5.7151127E-3,2.2818204E-2,3.0639267E-3,-2.8543662E-2,-4.9261306E-3,1.4672147E-2,1.1193053E-3],"categories":[],"categories_nodes":[],"categories_segments":[],"categories_sizes":[],"default_left":[0,0,0,0,0,0,0,0,0,0,0,0,0,0,0,0,0,0,0,0,0,0,0,0,0,0,0,0,0,0,0,0,0,0,0,0,0,0,0,0,0,0,0,0,0,0,0,0,0,0,0,0,0,0,0,0,0,0,0,0,0,0,0,0,0,0,0,0,0,0,0,0,0,0,0,0,0,0,0,0,0,0,0,0,0,0,0,0,0,0,0,0,0,0,0,0,0,0,0,0,0,0,0,0,0,0,0,0,0,0,0,0,0,0,0,0,0,0,0,0,0,0,0,0,0,0,0,0,0,0,0,0,0,0,0,0,0,0,0,0,0,0,0,0,0,0,0,0,0,0,0,0,0,0,0,0,0,0,0],"id":7,"left_children":[1,3,5,7,9,11,13,15,17,19,-1,21,23,-1,-1,25,27,29,31,33,35,37,39,41,-1,43,45,47,49,51,-1,53,55,57,59,-1,-1,61,63,65,67,69,-1,71,73,75,77,79,81,83,85,87,-1,89,91,-1,93,95,-1,97,-1,99,-1,101,103,105,107,-1,-1,109,111,113,115,117,-1,119,-1,121,123,125,-1,127,-1,129,131,133,-1,135,137,139,141,143,-1,-1,-1,-1,-1,-1,-1,145,-1,-1,147,149,-1,151,-1,-1,153,-1,-1,155,157,-1,-1,-1,-1,-1,-1,-1,-1,-1,-1,-1,-1,-1,-1,-1,-1,-1,-1,-1,-1,-1,-1,-1,-1,-1,-1,-1,-1,-1,-1,-1,-1,-1,-1,-1,-1,-1,-1,-1,-1,-1,-1,-1,-1,-1,-1],"loss_changes":[1.0750857E2,8.733255E1,5.301715E1,7.7274895E1,1.5731194E1,2.0893394E1,7.86499E-1,9.4284515E1,7.779324E1,8.83017E0,0E0,1.6278717E1,5.3838525E0,0E0,0E0,1.1171703E2,4.909376E1,1.634549E1,1.434022E1,6.137436E0,9.860884E-1,1.688655E1,4.2383575E0,2.9757762E0,0E0,8.0887054E1,1.3241638E1,1.09459E1,2.1519917E1,1.4291779E1,0E0,5.5730524E0,3.712719E0,4.3576813E0,9.687433E-1,0E0,0E0,7.6967E0,7.4259415E0,3.4844055E0,2.7695835E-1,3.4899948E0,0E0,6.363965E1,2.5354843E0,8.295853E0,1.6359015E0,7.7432747E0,1.4662485E0,2.3237057E1,9.604683E-1,1.0342697E1,0E0,3.6362746E0,2.505221E0,0E0,2.5305662E-1,8.575897E-1,0E0,9.3298244E-1,0E0,5.807247E0,0E0,3.313324E0,8.1454325E-1,2.5852432E0,6.852405E-1,0E0,0E0,1.22125864E-1,3.7318597E0,4.1866287E1,1.1791409E1,1.5307045E0,0E0,1.8056412E0,0E0,4.946481E-1,1.8062758E-1,4.6884956E0,0E0,9.295516E-1,0E0,1.5979887E1,1.2732971E1,5.88768E-1,0E0,9.95961E0,1.3716005E0,1.8781011E0,1.3112116E0,2.119935E0,0E0,0E0,0E0,0E0,0E0,0E0,0E0,5.565517E0,0E0,0E0,3.3179016E0,7.943372E-1,0E0,1.272583E0,0E0,0E0,2.4996853E-1,0E0,0E0,2.3721433E-1,8.4505343E-1,0E0,0E0,0E0,0E0,0E0,0E0,0E0,0E0,0E0,0E0,0E0,0E0,0E0,0E0,0E0,0E0,0E0,0E0,0E0,0E0,0E0,0E0,0E0,0E0,0E0,0E0,0E0,0E0,0E0,0E0,0E0,0E0,0E0,0E0,0E0,0E0,0E0,0E0,0E0,0E0,0E0,0E0,0E0,0E0,0E0,0E0],"parents":[2147483647,0,0,1,1,2,2,3,3,4,4,5,5,6,6,7,7,8,8,9,9,11,11,12,12,15,15,16,16,17,17,18,18,19,19,20,20,21,21,22,22,23,23,25,25,26,26,27,27,28,28,29,29,31,31,32,32,33,33,34,34,37,37,38,38,39,39,40,40,41,41,43,43,44,44,45,45,46,46,47,47,48,48,49,49,50,50,51,51,53,53,54,54,56,56,57,57,59,59,61,61,63,63,64,64,65,65,66,66,69,69,70,70,71,71,72,72,73,73,75,75,77,77,78,78,79,79,81,81,83,83,84,84,85,85,87,87,88,88,89,89,90,90,91,91,99,99,102,102,103,103,105,105,108,108,111,111,112,112],"right_children":[2,4,6,8,10,12,14,16,18,20,-1,22,24,-1,-1,26,28,30,32,34,36,38,40,42,-1,44,46,48,50,52,-1,54,56,58,60,-1,-1,62,64,66,68,70,-1,72,74,76,78,80,82,84,86,88,-1,90,92,-1,94,96,-1,98,-1,100,-1,102,104,106,108,-1,-1,110,112,114,116,118,-1,120,-1,122,124,126,-1,128,-1,130,132,134,-1,136,138,140,142,144,-1,-1,-1,-1,-1,-1,-1,146,-1,-1,148,150,-1,152,-1,-1,154,-1,-1,156,158,-1,-1,-1,-1,-1,-1,-1,-1,-1,-1,-1,-1,-1,-1,-1,-1,-1,-1,-1,-1,-1,-1,-1,-1,-1,-1,-1,-1,-1,-1,-1,-1,-1,-1,-1,-1,-1,-1,-1,-1,-1,-1,-1,-1,-1,-1],"split_conditions":[1E0,1E0,1E0,1E0,1E0,1E0,1E0,1E0,1E0,1E0,2.9040948E-2,1E0,1E0,-1.3162951E-2,-6.0766716E-2,1E0,1E0,1E0,1E0,1E0,1E0,1E0,1E0,1E0,-3.492272E-2,1E0,1E0,1E0,1E0,1E0,-2.7813032E-2,1E0,1E0,1E0,1E0,-7.4883983E-3,2.3745904E-2,1E0,1E0,1E0,1E0,1E0,2.733817E-2,1E0,1E0,1E0,1E0,1E0,1E0,1E0,6.84178E0,1E0,-3.419696E-2,3.23728E0,1E0,-4.0492408E-2,1E0,1E0,-2.3444753E-2,1E0,-1.094949E-2,1E0,3.178765E-2,2.3291E0,1E0,1E0,1E0,6.390978E-3,-5.7082893E-3,1E0,2.90794E2,1E0,3.64514E2,3.0718E2,-1.0416655E-2,1E0,-1.357142E-2,1E0,1E0,1E0,2.7720932E-2,2.5834E2,-1.5325434E-2,1E0,1E0,1E0,6.5151835E-3,1E0,1E0,1E0,1E0,1E0,1.4557299E-2,-6.211295E-3,8.963549E-3,-6.305958E-2,-2.2779007E-2,-3.633909E-2,-2.671902E-3,1E0,-3.707629E-2,-7.844262E-3,1E0,1E0,1.5871432E-2,1E0,-8.651433E-3,6.466686E-3,1E0,-3.0228134E-2,-1.3149556E-2,1E0,4.73398E0,-1.5927766E-2,1.0867739E-2,7.5816066E-4,3.9856028E-2,1.2648288E-2,3.2162953E-2,4.6388894E-2,2.2032386E-2,-5.2661067E-3,1.133073E-2,2.4408497E-2,4.1130995E-3,-2.5556073E-2,1.0271208E-2,-8.1935764E-4,1.8200487E-2,6.9671343E-3,-3.9121874E-2,3.397114E-2,-1.846107E-2,3.2239392E-2,4.1233706E-3,2.6086222E-2,-3.0924821E-2,-2.2706915E-2,9.155788E-3,-2.2081366E-2,-2.12368E-3,7.321097E-3,3.2079708E-2,-2.9979745E-2,-1.325351E-3,6.6223987E-3,-2.954601E-2,2.89559E-2,-7.123384E-3,-1.1822102E-2,5.742806E-3,3.328563E-2,5.7151127E-3,2.2818204E-2,3.0639267E-3,-2.8543662E-2,-4.9261306E-3,1.4672147E-2,1.1193053E-3],"split_indices":[1349,547,277,1308,455,1060,497,1855,656,832,0,1617,1154,0,0,1879,1057,1791,1855,305,13,305,562,476,0,1119,1862,1060,410,31,0,1295,102,207,213,0,0,811,1812,794,484,441,0,1051,266,1452,303,912,569,207,2049,798,0,2049,102,0,230,1171,0,755,0,251,0,2049,1411,1188,26,0,0,240,2048,651,2048,2048,0,1028,0,326,5,102,0,2048,0,823,807,140,0,207,215,666,1722,1059,0,0,0,0,0,0,0,786,0,0,984,1088,0,34,0,0,218,0,0,139,2049,0,0,0,0,0,0,0,0,0,0,0,0,0,0,0,0,0,0,0,0,0,0,0,0,0,0,0,0,0,0,0,0,0,0,0,0,0,0,0,0,0,0,0,0,0,0],"split_type":[0,0,0,0,0,0,0,0,0,0,0,0,0,0,0,0,0,0,0,0,0,0,0,0,0,0,0,0,0,0,0,0,0,0,0,0,0,0,0,0,0,0,0,0,0,0,0,0,0,0,0,0,0,0,0,0,0,0,0,0,0,0,0,0,0,0,0,0,0,0,0,0,0,0,0,0,0,0,0,0,0,0,0,0,0,0,0,0,0,0,0,0,0,0,0,0,0,0,0,0,0,0,0,0,0,0,0,0,0,0,0,0,0,0,0,0,0,0,0,0,0,0,0,0,0,0,0,0,0,0,0,0,0,0,0,0,0,0,0,0,0,0,0,0,0,0,0,0,0,0,0,0,0,0,0,0,0,0,0],"sum_hessian":[2.17E3,1.818E3,3.52E2,1.77E3,4.8E1,3.44E2,8E0,1.484E3,2.86E2,4.6E1,2E0,3.13E2,3.1E1,1E0,7E0,1.097E3,3.87E2,2.09E2,7.7E1,4.4E1,2E0,2.04E2,1.09E2,2.7E1,4E0,1.043E3,5.4E1,6.6E1,3.21E2,2.04E2,5E0,5.9E1,1.8E1,3.2E1,1.2E1,1E0,1E0,1.16E2,8.8E1,1.04E2,5E0,2.5E1,2E0,1E3,4.3E1,4.2E1,1.2E1,5.4E1,1.2E1,2.71E2,5E1,2.01E2,3E0,4.4E1,1.5E1,1.6E1,2E0,2.7E1,5E0,8E0,4E0,1.07E2,9E0,7.9E1,9E0,9E1,1.4E1,3E0,2E0,6E0,1.9E1,9.68E2,3.2E1,4.2E1,1E0,4E1,2E0,9E0,3E0,5.2E1,2E0,1.1E1,1E0,2.26E2,4.5E1,4.8E1,2E0,1.96E2,5E0,3.4E1,1E1,1.4E1,1E0,1E0,1E0,2.5E1,2E0,7E0,1E0,1.05E2,2E0,2E0,7.7E1,8E0,1E0,8.9E1,1E0,7E0,7E0,2E0,4E0,3E0,1.6E1,9.13E2,5.5E1,1E1,2.2E1,6E0,3.6E1,3.4E1,6E0,8E0,1E0,2E0,1E0,4.9E1,3E0,3E0,8E0,2.2E2,6E0,4.1E1,4E0,4.7E1,1E0,1.94E2,2E0,4E0,1E0,4E0,3E1,8E0,2E0,1.1E1,3E0,1.02E2,3E0,7.5E1,2E0,5E0,3E0,8.7E1,2E0,6E0,1E0,2E0,1E0,8E0,8E0],"tree_param":{"num_deleted":"0","num_feature":"2054","num_nodes":"159","size_leaf_vector":"1"}},{"base_weights":[-2.3188947E-3,-1.0031973E-1,4.8080498E-1,-1.4642872E-1,9.920743E-1,5.300556E-1,-1.8140408E0,-1.9486101E-1,9.384698E-1,1.0397363E0,-3.058337E-3,3.5784593E-1,9.0305865E-1,-5.8491252E-2,-1.2965505E-2,-2.6817018E-1,5.4777455E-1,5.2902363E-2,1.0584275E0,1.0704145E0,-1.6616076E-2,9.330399E-2,7.884849E-1,9.500708E-1,7.4706078E-3,-3.215176E-1,7.8365797E-1,1.9020355E-1,7.9473186E-1,1.9660316E-1,-6.3539883E-3,1.0973033E0,5.445814E-3,1.0960041E0,-1.0429008E-2,-2.3898573E-1,3.4613994E-1,8.346388E-1,-1.41053E-2,-9.23419E-2,9.710051E-1,-1.3857298E-1,-5.632741E-1,9.113099E-1,-8.1494874E-1,9.2258096E-1,1.11161E-1,9.066808E-1,1.3024248E-1,2.553916E-1,-2.3419117E-3,1.115284E0,-2.6254175E-4,1.1406507E0,8.533275E-2,-3.7241125E-1,6.770716E-1,3.9922574E-1,-2.645221E-2,8.9283663E-1,4.029274E-4,4.563324E-3,-8.718709E-3,9.265864E-1,4.6262372E-2,-4.6685955E-1,8.388069E-2,-6.581372E-1,3.102894E-1,2.4145731E-1,1.0929086E0,-1.0114393E0,2.5125646E-3,3.7600473E-2,-1.09688975E-2,1.9716282E-1,-3.2136402E-1,5.6962335E-1,1.0422034E0,-1.2718773E-1,2.8739125E-1,9.074234E-3,2.9965639E-4,1.1302203E0,3.062575E-3,1.1731358E0,3.438499E-1,1.0253581E-2,-1.0260408E-2,-4.4694993E-1,3.7292853E-1,2.4356764E-2,-6.022396E-3,6.0738E-1,4.6511967E-2,9.1255105E-1,-1.1743355E-2,-2.7321863E-1,4.5630455E-1,9.395642E-1,5.9432746E-3,-1.2289336E-2,-5.248371E-2,4.7694743E-3,-3.523163E-2,-1.8146057E-2,-6.238391E-2,1.6409842E-2,-4.0675383E-2,-5.8494415E-3,2.4913417E-2,3.6699567E-2,5.7040323E-3,-3.68464E-2,-2.1651506E-3,7.0054117E-3,-2.3215204E-2,-1.1574276E-2,3.87964E-3,1.9104566E-2,5.607502E-3,3.2269243E-2,3.7906314E-3,7.514524E-4,-6.287037E-3,2.0520434E-2,2.2906188E-3,3.434551E-2,3.786235E-3,3.5909437E-2,8.916983E-3,1.2489733E-2,1.8963933E-3,-2.6203115E-2,-6.9950344E-3,1.8376568E-2,-2.126379E-3,1.9275188E-2,-1.881473E-2,-1.6666245E-2,5.215869E-3,2.7921177E-2,-9.186852E-3,-9.089287E-3,-2.3128223E-3,4.0309383E-3,1.6502766E-2,2.9037409E-2,1.5095628E-2],"categories":[],"categories_nodes":[],"categories_segments":[],"categories_sizes":[],"default_left":[0,0,0,0,0,0,0,0,0,0,0,0,0,0,0,0,0,0,0,0,0,0,0,0,0,0,0,0,0,0,0,0,0,0,0,0,0,0,0,0,0,0,0,0,0,0,0,0,0,0,0,0,0,0,0,0,0,0,0,0,0,0,0,0,0,0,0,0,0,0,0,0,0,0,0,0,0,0,0,0,0,0,0,0,0,0,0,0,0,0,0,0,0,0,0,0,0,0,0,0,0,0,0,0,0,0,0,0,0,0,0,0,0,0,0,0,0,0,0,0,0,0,0,0,0,0,0,0,0,0,0,0,0,0,0,0,0,0,0,0,0,0,0,0,0,0,0,0,0],"id":8,"left_children":[1,3,5,7,9,11,13,15,17,19,-1,21,23,-1,-1,25,27,29,31,33,-1,35,37,39,-1,41,43,45,47,49,-1,51,-1,53,-1,55,57,59,-1,61,63,65,67,69,71,73,75,77,79,81,-1,83,-1,85,87,89,91,93,-1,95,97,-1,-1,99,-1,101,103,105,107,109,111,113,-1,-1,-1,115,117,119,121,123,125,-1,-1,127,-1,129,131,-1,-1,133,135,-1,-1,137,139,141,-1,143,145,147,-1,-1,-1,-1,-1,-1,-1,-1,-1,-1,-1,-1,-1,-1,-1,-1,-1,-1,-1,-1,-1,-1,-1,-1,-1,-1,-1,-1,-1,-1,-1,-1,-1,-1,-1,-1,-1,-1,-1,-1,-1,-1,-1,-1,-1,-1,-1,-1,-1],"loss_changes":[1.03879196E2,9.201866E1,4.277987E1,9.218764E1,3.9645844E0,2.2994041E1,6.571541E-1,9.1446144E1,7.911293E0,4.0639877E0,0E0,2.8406944E1,3.2686539E0,0E0,0E0,8.593541E1,1.31828575E1,4.2201936E-1,2.050766E0,2.921112E0,0E0,1.3189029E1,5.9111824E0,2.4028168E0,0E0,6.422954E1,1.5843498E1,3.5444503E0,6.5025215E0,1.3296747E-1,0E0,1.26268E0,0E0,3.0161667E0,0E0,8.5634775E0,6.153305E0,4.466301E0,0E0,1.8961854E-1,1.2092361E0,6.0579823E1,5.2080185E1,8.12957E0,1.1442282E0,3.0148563E0,2.2208414E0,2.8779297E0,6.029204E-1,6.6304475E-2,0E0,8.2289124E-1,0E0,1.3049698E0,5.5527306E-1,3.5000792E0,1.2281156E0,6.2857714E0,0E0,2.534645E0,9.978825E-1,0E0,0E0,7.498169E-1,0E0,2.3866913E1,4.6963314E1,4.151953E1,2.5193401E1,4.2748504E0,6.124878E0,9.294019E-1,0E0,0E0,0E0,1.9102472E0,3.4033835E-1,4.9815607E-1,1.487175E0,8.049678E-2,7.010934E-1,0E0,0E0,7.515335E-1,0E0,9.600525E-1,5.503896E-2,0E0,0E0,4.8109865E0,6.814987E-1,0E0,0E0,2.74465E0,2.6267538E0,2.165779E0,0E0,5.823344E-3,1.6669095E-2,7.1294403E-1,0E0,0E0,0E0,0E0,0E0,0E0,0E0,0E0,0E0,0E0,0E0,0E0,0E0,0E0,0E0,0E0,0E0,0E0,0E0,0E0,0E0,0E0,0E0,0E0,0E0,0E0,0E0,0E0,0E0,0E0,0E0,0E0,0E0,0E0,0E0,0E0,0E0,0E0,0E0,0E0,0E0,0E0,0E0,0E0,0E0,0E0,0E0,0E0,0E0],"parents":[2147483647,0,0,1,1,2,2,3,3,4,4,5,5,6,6,7,7,8,8,9,9,11,11,12,12,15,15,16,16,17,17,18,18,19,19,21,21,22,22,23,23,25,25,26,26,27,27,28,28,29,29,31,31,33,33,35,35,36,36,37,37,39,39,40,40,41,41,42,42,43,43,44,44,45,45,46,46,47,47,48,48,49,49,51,51,53,53,54,54,55,55,56,56,57,57,59,59,60,60,63,63,65,65,66,66,67,67,68,68,69,69,70,70,71,71,75,75,76,76,77,77,78,78,79,79,80,80,83,83,85,85,86,86,89,89,90,90,93,93,94,94,95,95,97,97,98,98,99,99],"right_children":[2,4,6,8,10,12,14,16,18,20,-1,22,24,-1,-1,26,28,30,32,34,-1,36,38,40,-1,42,44,46,48,50,-1,52,-1,54,-1,56,58,60,-1,62,64,66,68,70,72,74,76,78,80,82,-1,84,-1,86,88,90,92,94,-1,96,98,-1,-1,100,-1,102,104,106,108,110,112,114,-1,-1,-1,116,118,120,122,124,126,-1,-1,128,-1,130,132,-1,-1,134,136,-1,-1,138,140,142,-1,144,146,148,-1,-1,-1,-1,-1,-1,-1,-1,-1,-1,-1,-1,-1,-1,-1,-1,-1,-1,-1,-1,-1,-1,-1,-1,-1,-1,-1,-1,-1,-1,-1,-1,-1,-1,-1,-1,-1,-1,-1,-1,-1,-1,-1,-1,-1,-1,-1,-1,-1],"split_conditions":[1E0,1E0,1E0,1E0,1E0,1E0,1E0,1E0,3.4671E0,1E0,-3.058337E-3,1E0,1E0,-5.8491252E-2,-1.2965505E-2,1E0,1E0,3.142E1,4E0,1E0,-1.6616076E-2,1E0,1E0,2.3291E0,7.4706078E-3,3.833E1,1E0,1E0,1E0,1E0,-6.3539883E-3,1E0,5.445814E-3,7.938E1,-1.0429008E-2,1E0,1E0,1E0,-1.41053E-2,1E0,1E0,1E0,1E0,3.1109E0,1E0,1E0,1E0,1E0,6.1962E0,1E0,-2.3419117E-3,1E0,-2.6254175E-4,1E0,1E0,1E0,1E0,4.5051E0,-2.645221E-2,1E0,4.0004E0,4.563324E-3,-8.718709E-3,1E0,4.6262372E-2,1E0,1E0,1E0,1E0,1E0,1E0,1E0,2.5125646E-3,3.7600473E-2,-1.09688975E-2,1E0,1E0,1E1,1E0,1E0,6.30254E0,9.074234E-3,2.9965639E-4,1E0,3.062575E-3,1E0,1E0,1.0253581E-2,-1.0260408E-2,3.0793E0,1E0,2.4356764E-2,-6.022396E-3,1E0,3E0,1E0,-1.1743355E-2,1E0,1E0,1E0,5.9432746E-3,-1.2289336E-2,-5.248371E-2,4.7694743E-3,-3.523163E-2,-1.8146057E-2,-6.238391E-2,1.6409842E-2,-4.0675383E-2,-5.8494415E-3,2.4913417E-2,3.6699567E-2,5.7040323E-3,-3.68464E-2,-2.1651506E-3,7.0054117E-3,-2.3215204E-2,-1.1574276E-2,3.87964E-3,1.9104566E-2,5.607502E-3,3.2269243E-2,3.7906314E-3,7.514524E-4,-6.287037E-3,2.0520434E-2,2.2906188E-3,3.434551E-2,3.786235E-3,3.5909437E-2,8.916983E-3,1.2489733E-2,1.8963933E-3,-2.6203115E-2,-6.9950344E-3,1.8376568E-2,-2.126379E-3,1.9275188E-2,-1.881473E-2,-1.6666245E-2,5.215869E-3,2.7921177E-2,-9.186852E-3,-9.089287E-3,-2.3128223E-3,4.0309383E-3,1.6502766E-2,2.9037409E-2,1.5095628E-2],"split_indices":[1349,1119,277,1945,519,790,57,1766,2049,1095,0,507,975,0,0,806,1993,2052,2051,303,0,1410,362,2049,0,2052,1257,80,736,366,0,198,0,2052,0,582,296,389,0,28,1041,875,674,2049,597,235,283,252,2049,35,0,503,0,389,257,895,140,2049,0,1087,2049,0,0,702,0,1517,573,1513,739,674,1862,89,0,0,0,1405,165,2053,586,366,2049,0,0,262,0,833,1138,0,0,2049,294,0,0,102,2051,573,0,41,29,562,0,0,0,0,0,0,0,0,0,0,0,0,0,0,0,0,0,0,0,0,0,0,0,0,0,0,0,0,0,0,0,0,0,0,0,0,0,0,0,0,0,0,0,0,0,0,0,0,0],"split_type":[0,0,0,0,0,0,0,0,0,0,0,0,0,0,0,0,0,0,0,0,0,0,0,0,0,0,0,0,0,0,0,0,0,0,0,0,0,0,0,0,0,0,0,0,0,0,0,0,0,0,0,0,0,0,0,0,0,0,0,0,0,0,0,0,0,0,0,0,0,0,0,0,0,0,0,0,0,0,0,0,0,0,0,0,0,0,0,0,0,0,0,0,0,0,0,0,0,0,0,0,0,0,0,0,0,0,0,0,0,0,0,0,0,0,0,0,0,0,0,0,0,0,0,0,0,0,0,0,0,0,0,0,0,0,0,0,0,0,0,0,0,0,0,0,0,0,0,0,0],"sum_hessian":[2.192E3,1.823E3,3.69E2,1.75E3,7.3E1,3.62E2,7E0,1.676E3,7.4E1,7E1,3E0,2.49E2,1.13E2,6E0,1E0,1.526E3,1.5E2,9E0,6.5E1,6.9E1,1E0,1.55E2,9.4E1,1.05E2,8E0,1.453E3,7.3E1,6.2E1,8.8E1,6E0,3E0,6.2E1,3E0,6.8E1,1E0,6.7E1,8.8E1,9.1E1,3E0,2E0,1.03E2,8.28E2,6.25E2,6.8E1,5E0,5E0,5.7E1,7.5E1,1.3E1,5E0,1E0,6.1E1,1E0,6.5E1,3E0,5.9E1,8E0,8.5E1,3E0,8.5E1,6E0,1E0,1E0,9.8E1,5E0,3.34E2,4.94E2,5.64E2,6.1E1,1.5E1,5.3E1,4E0,1E0,4E0,1E0,4.8E1,9E0,2.3E1,5.2E1,5E0,8E0,4E0,1E0,6E1,1E0,6.2E1,3E0,2E0,1E0,5.4E1,5E0,7E0,1E0,5.3E1,3.2E1,8.4E1,1E0,4E0,2E0,9.6E1,2E0,3.21E2,1.3E1,4.67E2,2.7E1,5.45E2,1.9E1,5.4E1,7E0,9E0,6E0,4.6E1,7E0,3E0,1E0,4.7E1,1E0,8E0,1E0,1.9E1,4E0,5E1,2E0,2E0,3E0,2E0,6E0,5.9E1,1E0,6E1,2E0,2E0,1E0,1.7E1,3.7E1,3E0,2E0,5.2E1,1E0,5E0,2.7E1,8.3E1,1E0,3E0,1E0,1E0,1E0,8.9E1,7E0],"tree_param":{"num_deleted":"0","num_feature":"2054","num_nodes":"149","size_leaf_vector":"1"}},{"base_weights":[-1.2173085E-3,3.292134E-2,-1.5515307E0,-6.4325415E-2,4.4117904E-1,-1.6220616E0,2.433536E-2,-1.2544754E-1,8.3103013E-1,6.340691E-1,-5.32735E-1,-1.8628615E0,-7.084198E-1,-1.7877817E-1,6.259314E-1,9.298587E-1,-5.2055913E-1,7.5217605E-1,-9.326614E-1,-2.8826538E-1,-1.2939651E0,-1.9549167E0,-1.9821128E-2,-9.547894E-3,-8.859003E-1,-2.2598857E-1,8.339472E-1,6.9565976E-1,-2.7233064E-2,9.734267E-1,-1.1100662E-2,-2.465498E-1,-2.198793E-2,8.0256903E-1,-4.7247547E-1,-3.366279E-2,-1.4767956E-2,-3.6718082E-1,2.2515455E-2,-4.202839E-2,-1.0901937E-2,-6.0162485E-2,-2.3948515E-2,-3.0219965E-2,-2.3596357E-3,-2.5675848E-1,1.0286499E0,8.736903E-1,-8.756652E-3,1.0338439E0,4.5695147E-1,9.896813E-1,-9.0490505E-3,-8.303651E-3,-1.8839336E-3,8.2271314E-1,-2.6964286E-2,4.320413E-2,-3.2439068E-2,-7.6851714E-1,-6.3896604E-2,-3.3110222E-1,1.9633934E-1,-4.396733E-1,1.1849288E0,9.0487784E-1,-1.636684E-2,7.785111E-1,1.4245199E0,5.377733E-1,-3.7354445E-1,1.0061991E0,-8.940482E-3,8.704816E-1,3.1287882E-2,4.295503E-1,-2.7451363E-1,-8.310644E-1,-3.486352E-3,-1.0168694E-1,1.4913489E-2,-8.972398E-3,-4.6619743E-2,3.2761453E-3,3.4929935E-2,-2.182374E-3,-1.6132016E-2,3.2968353E-3,3.6513E-2,2.840433E-2,-7.4817417E-3,2.4664514E-2,4.6603726E-3,4.5141466E-2,1.8064965E-2,2.3255762E-2,6.370991E-3,-1.4217896E-2,-6.146078E-3,3.0901704E-2,5.9987674E-3,2.6763594E-2,-8.098686E-3,6.38799E-3,-2.843746E-2,1.7582396E-2,-6.005788E-4,-1.40872765E-2,7.5860308E-3,-2.7210874E-2,-9.583185E-3,7.1531725E-3,-5.049287E-3],"categories":[],"categories_nodes":[],"categories_segments":[],"categories_sizes":[],"default_left":[0,0,0,0,0,0,0,0,0,0,0,0,0,0,0,0,0,0,0,0,0,0,0,0,0,0,0,0,0,0,0,0,0,0,0,0,0,0,0,0,0,0,0,0,0,0,0,0,0,0,0,0,0,0,0,0,0,0,0,0,0,0,0,0,0,0,0,0,0,0,0,0,0,0,0,0,0,0,0,0,0,0,0,0,0,0,0,0,0,0,0,0,0,0,0,0,0,0,0,0,0,0,0,0,0,0,0,0,0,0,0,0,0],"id":9,"left_children":[1,3,5,7,9,11,-1,13,15,17,19,21,23,25,27,29,31,33,35,37,39,41,-1,-1,43,45,47,49,-1,51,-1,53,-1,55,57,-1,-1,59,-1,-1,-1,-1,-1,-1,-1,61,63,65,-1,67,69,71,-1,-1,-1,73,-1,75,-1,77,79,81,83,85,87,89,-1,91,93,95,97,99,-1,101,103,105,107,109,-1,111,-1,-1,-1,-1,-1,-1,-1,-1,-1,-1,-1,-1,-1,-1,-1,-1,-1,-1,-1,-1,-1,-1,-1,-1,-1,-1,-1,-1,-1,-1,-1,-1,-1],"loss_changes":[1.1299432E2,8.29653E1,8.9814E0,9.24818E1,7.585683E1,8.5805435E0,0E0,6.346495E1,1.491021E1,6.287555E1,1.2095537E1,2.5816345E0,4.7974777E-1,7.080558E1,1.1860462E1,6.0801544E0,2.8483105E-1,1.9695618E1,1.449831E0,4.538318E0,1.0837498E0,2.6820374E-1,0E0,0E0,6.06946E-1,5.477455E1,3.2081375E0,7.6810455E0,0E0,2.3296356E0,0E0,1.0400295E-2,0E0,1.1055557E1,4.128191E0,0E0,0E0,5.9151235E0,0E0,0E0,0E0,0E0,0E0,0E0,0E0,4.6516594E1,8.322887E0,3.3264961E0,0E0,2.9808426E0,4.2953386E0,2.3630524E0,0E0,0E0,0E0,1.1238724E1,0E0,1.0999097E0,0E0,7.602196E-1,6.653753E-1,4.59395E1,1.6320219E1,1.0480654E-1,9.3839264E-1,3.285469E0,0E0,6.0653496E-1,8.315086E-2,4.161808E0,4.5015216E-3,1.6405869E0,0E0,7.175064E0,3.4034574E0,2.9321682E-1,6.331015E-1,4.487028E-1,0E0,6.7461413E-1,0E0,0E0,0E0,0E0,0E0,0E0,0E0,0E0,0E0,0E0,0E0,0E0,0E0,0E0,0E0,0E0,0E0,0E0,0E0,0E0,0E0,0E0,0E0,0E0,0E0,0E0,0E0,0E0,0E0,0E0,0E0,0E0,0E0],"parents":[2147483647,0,0,1,1,2,2,3,3,4,4,5,5,7,7,8,8,9,9,10,10,11,11,12,12,13,13,14,14,15,15,16,16,17,17,18,18,19,19,20,20,21,21,24,24,25,25,26,26,27,27,29,29,31,31,33,33,34,34,37,37,45,45,46,46,47,47,49,49,50,50,51,51,55,55,57,57,59,59,60,60,61,61,62,62,63,63,64,64,65,65,67,67,68,68,69,69,70,70,71,71,73,73,74,74,75,75,76,76,77,77,79,79],"right_children":[2,4,6,8,10,12,-1,14,16,18,20,22,24,26,28,30,32,34,36,38,40,42,-1,-1,44,46,48,50,-1,52,-1,54,-1,56,58,-1,-1,60,-1,-1,-1,-1,-1,-1,-1,62,64,66,-1,68,70,72,-1,-1,-1,74,-1,76,-1,78,80,82,84,86,88,90,-1,92,94,96,98,100,-1,102,104,106,108,110,-1,112,-1,-1,-1,-1,-1,-1,-1,-1,-1,-1,-1,-1,-1,-1,-1,-1,-1,-1,-1,-1,-1,-1,-1,-1,-1,-1,-1,-1,-1,-1,-1,-1,-1],"split_conditions":[1E0,1E0,1E0,1E0,1E0,1E0,2.433536E-2,1E0,1E0,1E0,1E0,1E0,1E0,1E0,1E0,1E0,1E0,1E0,2.8423E2,1E0,1E0,1E0,-1.9821128E-2,-9.547894E-3,1E0,1E0,1E0,8E0,-2.7233064E-2,1E0,-1.1100662E-2,1E0,-2.198793E-2,1E0,3.80897E2,-3.366279E-2,-1.4767956E-2,1E0,2.2515455E-2,-4.202839E-2,-1.0901937E-2,-6.0162485E-2,-2.3948515E-2,-3.0219965E-2,-2.3596357E-3,1E0,1E0,1E0,-8.756652E-3,1E0,1E0,1E0,-9.0490505E-3,-8.303651E-3,-1.8839336E-3,1E0,-2.6964286E-2,1E0,-3.2439068E-2,1E0,1E0,1E0,1E0,1E0,1E0,1E0,-1.636684E-2,1E0,6.09239E2,6.23266E2,1E0,1E0,-8.940482E-3,1E0,1E0,1E0,1E0,1E0,-3.486352E-3,2E0,1.4913489E-2,-8.972398E-3,-4.6619743E-2,3.2761453E-3,3.4929935E-2,-2.182374E-3,-1.6132016E-2,3.2968353E-3,3.6513E-2,2.840433E-2,-7.4817417E-3,2.4664514E-2,4.6603726E-3,4.5141466E-2,1.8064965E-2,2.3255762E-2,6.370991E-3,-1.4217896E-2,-6.146078E-3,3.0901704E-2,5.9987674E-3,2.6763594E-2,-8.098686E-3,6.38799E-3,-2.843746E-2,1.7582396E-2,-6.005788E-4,-1.40872765E-2,7.5860308E-3,-2.7210874E-2,-9.583185E-3,7.1531725E-3,-5.049287E-3],"split_indices":[547,305,432,1617,499,950,0,1372,562,1219,1256,138,230,1119,538,362,231,1980,2048,1181,674,603,0,0,686,785,303,2053,0,458,0,228,0,1922,2048,0,0,366,0,0,0,0,0,0,0,1163,1162,191,0,2038,333,1188,0,0,0,1125,0,294,0,1002,994,1017,2000,1,556,867,0,714,2048,2048,8,1068,0,1172,650,596,591,1445,0,2050,0,0,0,0,0,0,0,0,0,0,0,0,0,0,0,0,0,0,0,0,0,0,0,0,0,0,0,0,0,0,0,0,0],"split_type":[0,0,0,0,0,0,0,0,0,0,0,0,0,0,0,0,0,0,0,0,0,0,0,0,0,0,0,0,0,0,0,0,0,0,0,0,0,0,0,0,0,0,0,0,0,0,0,0,0,0,0,0,0,0,0,0,0,0,0,0,0,0,0,0,0,0,0,0,0,0,0,0,0,0,0,0,0,0,0,0,0,0,0,0,0,0,0,0,0,0,0,0,0,0,0,0,0,0,0,0,0,0,0,0,0,0,0,0,0,0,0,0,0],"sum_hessian":[2.133E3,2.088E3,4.5E1,1.687E3,4.01E2,4.4E1,1E0,1.58E3,1.07E2,3.35E2,6.6E1,3.4E1,1E1,1.476E3,1.04E2,1E2,7E0,3.12E2,2.3E1,5.1E1,1.5E1,3.1E1,3E0,4E0,6E0,1.411E3,6.5E1,1E2,4E0,9.7E1,3E0,4E0,3E0,3E2,1.2E1,1.5E1,8E0,4.8E1,3E0,1.3E1,2E0,2.9E1,2E0,5E0,1E0,1.378E3,3.3E1,6.3E1,2E0,4E1,6E1,9.6E1,1E0,3E0,1E0,2.97E2,3E0,7E0,5E0,2E1,2.8E1,1.184E3,1.94E2,3E0,3E1,6.2E1,1E0,2.6E1,1.4E1,5.5E1,5E0,9.5E1,1E0,2.8E2,1.7E1,3E0,4E0,1.8E1,2E0,2.7E1,1E0,1.155E3,2.9E1,1.79E2,1.5E1,1E0,2E0,1E0,2.9E1,6E1,2E0,2.4E1,2E0,1.2E1,2E0,3.1E1,2.4E1,2E0,3E0,9.2E1,3E0,2.75E2,5E0,1.5E1,2E0,2E0,1E0,3E0,1E0,1.5E1,3E0,4E0,2.3E1],"tree_param":{"num_deleted":"0","num_feature":"2054","num_nodes":"113","size_leaf_vector":"1"}},{"base_weights":[-3.7269907E-3,-8.7485954E-2,4.5348904E-1,-4.941611E-2,-1.2192402E0,5.031625E-1,-1.6584367E0,-1.461753E-1,5.0404304E-1,-1.3008678E0,2.2959208E-2,6.158675E-1,1.0341844E-1,-5.325027E-2,-1.2636437E-2,-2.1914794E-1,5.222557E-1,7.439943E-1,-2.974738E-1,-3.0534816E-1,-1.3496171E0,6.3591796E-1,-2.4489472E-2,-3.2153968E-2,1.8588513E-1,-8.313572E-2,-6.483649E-1,3.1174463E-1,9.769556E-1,7.9965657E-1,-2.1787958E-1,-5.713599E-1,3.3891745E-2,1.6118002E-3,-1.328846E-2,-1.3717406E0,-2.3242377E-3,7.19302E-1,2.6133892E-1,2.5382313E-1,-4.2480133E-2,-1.5029846E-1,7.733994E-1,-7.3551434E-1,4.0665478E-2,1.239274E0,2.4231146E-1,1.0123008E0,1.21124424E-1,8.3663976E-1,-7.656354E-1,-2.6450139E-2,2.2422522E-1,-7.701068E-1,1.7083108E-1,-1.0503748E-1,2.1652784E-2,-1.2113561E-2,-1.4012046E0,7.443866E-1,-4.4800997E-1,6.474833E-2,1.1060371E0,3.3043477E-1,-1.7320412E-1,-2.0583816E-1,8.9555496E-1,-3.73702E-1,1.0384498E0,-8.0170155E-1,2.611689E-1,-4.321797E-1,3.0383214E-1,3.964011E-2,1.1203444E-2,3.0778655E-1,-3.6464804E-1,1.1021458E0,5.304607E-1,-9.292602E-5,5.543525E-3,8.7830776E-1,-5.8756334E-1,-2.8464412E-2,-4.9382687E-4,6.627859E-1,-1.7146835E-1,-8.3599573E-1,1.4145083E-2,-1.5899511E-2,4.9276662E-1,-1.6347559E-1,1.9462159E-2,-1.5783244E0,-1.0879354E0,7.585461E-1,-3.1949922E-2,-1.5482737E-2,-2.6352738E-3,-1.8868113E-1,7.500334E-1,3.6392752E-2,1.4626922E-2,2.0643216E-1,6.1735684E-1,-1.4736366E-2,1.7367132E-1,-9.1258455E-3,8.560981E-3,-1.5584119E-2,3.2044783E-2,-1.4830205E-2,1.9728491E-2,3.3087198E-2,-1.7905088E-2,-2.5381904E-2,1.8103434E-2,-1.4415968E-2,2.2016168E-2,-2.0342516E-2,4.38194E-3,1.3695055E-2,-1.8354274E-2,-8.907393E-3,1.0652311E-2,-6.6823848E-3,-1.565443E-2,3.3541657E-2,7.941069E-3,1.8099412E-2,5.5095055E-3,9.316784E-3,2.7906643E-2,-2.8298821E-2,1.786635E-2,2.8234005E-2,-2.5838541E-3,-1.6154145E-3,-6.9580027E-3,-2.8154846E-2,-1.1287916E-3,1.987518E-2,-5.3389547E-3,-1.0388346E-2,-2.4504354E-4,-4.9198307E-2,-1.3696908E-2,-3.8287632E-2,-2.2029819E-2,2.3363473E-2,-1.3287184E-2,-1.2430657E-3,-3.406256E-2,2.9298114E-2,-5.390673E-3,4.284395E-3,1.94595E-2,2.0573147E-2,6.7069815E-3,1.0486731E-2,-4.9839018E-5],"categories":[],"categories_nodes":[],"categories_segments":[],"categories_sizes":[],"default_left":[0,0,0,0,0,0,0,0,0,0,0,0,0,0,0,0,0,0,0,0,0,0,0,0,0,0,0,0,0,0,0,0,0,0,0,0,0,0,0,0,0,0,0,0,0,0,0,0,0,0,0,0,0,0,0,0,0,0,0,0,0,0,0,0,0,0,0,0,0,0,0,0,0,0,0,0,0,0,0,0,0,0,0,0,0,0,0,0,0,0,0,0,0,0,0,0,0,0,0,0,0,0,0,0,0,0,0,0,0,0,0,0,0,0,0,0,0,0,0,0,0,0,0,0,0,0,0,0,0,0,0,0,0,0,0,0,0,0,0,0,0,0,0,0,0,0,0,0,0,0,0,0,0,0,0,0,0,0,0,0,0],"id":10,"left_children":[1,3,5,7,9,11,13,15,17,19,-1,21,23,-1,-1,25,27,29,31,33,35,37,-1,-1,39,41,43,45,47,49,51,53,55,-1,-1,57,-1,59,61,63,-1,65,67,69,71,73,75,77,79,81,83,-1,85,87,89,91,-1,-1,93,95,97,99,101,103,105,107,109,111,113,115,117,119,121,-1,-1,123,125,127,129,-1,-1,131,133,-1,-1,135,137,139,-1,-1,141,143,-1,145,147,149,-1,-1,-1,151,153,-1,-1,155,157,-1,159,-1,-1,-1,-1,-1,-1,-1,-1,-1,-1,-1,-1,-1,-1,-1,-1,-1,-1,-1,-1,-1,-1,-1,-1,-1,-1,-1,-1,-1,-1,-1,-1,-1,-1,-1,-1,-1,-1,-1,-1,-1,-1,-1,-1,-1,-1,-1,-1,-1,-1,-1,-1,-1,-1],"loss_changes":[8.360141E1,7.9432884E1,3.6292915E1,9.5718E1,1.0715195E1,1.4848907E1,4.06147E-1,7.430454E1,5.1379753E1,2.4026947E0,0E0,7.9278183E0,7.371036E0,0E0,0E0,8.004175E1,1.4053341E1,1.1149956E1,5.6462617E0,2.2143367E-1,1.4416504E0,7.7766647E0,0E0,0E0,7.977455E0,6.011716E1,1.9845963E1,6.3974457E0,1.2991142E0,1.1871117E1,3.7192795E0,5.1468353E0,2.8471947E0,0E0,0E0,9.742813E-1,0E0,6.424057E0,7.899252E0,2.2818708E0,0E0,5.6411957E1,2.3495075E1,1.9537903E1,4.859919E0,3.914833E-3,4.006826E0,1.3634453E0,2.4296194E-2,1.1791351E1,6.705446E-1,0E0,1.5019319E0,2.6029987E0,2.0660956E0,1.2072843E0,0E0,0E0,1.1681671E0,6.0343246E0,7.72686E-2,7.0883737E0,4.4345856E-3,1.9361444E0,1.2987106E0,4.453499E1,1.2522625E1,2.1913319E0,7.1933823E0,1.765271E1,7.014138E0,2.089742E0,3.7740583E0,0E0,0E0,2.6505194E0,1.0678971E-1,1.9701004E-1,1.16597176E-1,0E0,0E0,5.163803E0,3.086982E0,0E0,0E0,9.1489255E-1,2.3070931E-2,2.0923252E0,0E0,0E0,8.010007E-1,6.785463E-1,0E0,1.3940353E0,5.2781487E-1,5.2804565E0,0E0,0E0,0E0,4.135041E0,2.4926095E0,0E0,0E0,1.0889692E0,3.046837E-1,0E0,1.8561244E-1,0E0,0E0,0E0,0E0,0E0,0E0,0E0,0E0,0E0,0E0,0E0,0E0,0E0,0E0,0E0,0E0,0E0,0E0,0E0,0E0,0E0,0E0,0E0,0E0,0E0,0E0,0E0,0E0,0E0,0E0,0E0,0E0,0E0,0E0,0E0,0E0,0E0,0E0,0E0,0E0,0E0,0E0,0E0,0E0,0E0,0E0,0E0,0E0,0E0,0E0,0E0,0E0,0E0,0E0],"parents":[2147483647,0,0,1,1,2,2,3,3,4,4,5,5,6,6,7,7,8,8,9,9,11,11,12,12,15,15,16,16,17,17,18,18,19,19,20,20,21,21,24,24,25,25,26,26,27,27,28,28,29,29,30,30,31,31,32,32,35,35,37,37,38,38,39,39,41,41,42,42,43,43,44,44,45,45,46,46,47,47,48,48,49,49,50,50,52,52,53,53,54,54,55,55,58,58,59,59,60,60,61,61,62,62,63,63,64,64,65,65,66,66,67,67,68,68,69,69,70,70,71,71,72,72,75,75,76,76,77,77,78,78,81,81,82,82,85,85,86,86,87,87,90,90,91,91,93,93,94,94,95,95,99,99,100,100,103,103,104,104,106,106],"right_children":[2,4,6,8,10,12,14,16,18,20,-1,22,24,-1,-1,26,28,30,32,34,36,38,-1,-1,40,42,44,46,48,50,52,54,56,-1,-1,58,-1,60,62,64,-1,66,68,70,72,74,76,78,80,82,84,-1,86,88,90,92,-1,-1,94,96,98,100,102,104,106,108,110,112,114,116,118,120,122,-1,-1,124,126,128,130,-1,-1,132,134,-1,-1,136,138,140,-1,-1,142,144,-1,146,148,150,-1,-1,-1,152,154,-1,-1,156,158,-1,160,-1,-1,-1,-1,-1,-1,-1,-1,-1,-1,-1,-1,-1,-1,-1,-1,-1,-1,-1,-1,-1,-1,-1,-1,-1,-1,-1,-1,-1,-1,-1,-1,-1,-1,-1,-1,-1,-1,-1,-1,-1,-1,-1,-1,-1,-1,-1,-1,-1,-1,-1,-1,-1,-1],"split_conditions":[1E0,1E0,1E0,1E0,1E0,1E0,1E0,1E0,1E0,2.023E1,2.2959208E-2,1E0,3E0,-5.325027E-2,-1.2636437E-2,1E0,1E0,1E0,1E0,1E0,1E0,2E0,-2.4489472E-2,-3.2153968E-2,1E0,1E0,1E0,1E0,1E0,7E0,3.66262E0,1E0,3.2319E0,1.6118002E-3,-1.328846E-2,1E0,-2.3242377E-3,1E0,1E0,1E0,-4.2480133E-2,1E0,1E0,1E0,1.613E1,1E0,1E0,5.8182E0,1E0,1E0,1E0,-2.6450139E-2,1E0,1E0,3.23728E0,1E0,2.1652784E-2,-1.2113561E-2,1E0,1E0,1E0,1E0,1E0,1E0,1E0,1E0,2.54404E0,1E0,1E0,1E0,1E0,1E0,1E0,3.964011E-2,1.1203444E-2,1E0,5E0,1E0,6.84178E0,-9.292602E-5,5.543525E-3,2E0,1E0,-2.8464412E-2,-4.9382687E-4,1E0,1E0,1E0,1.4145083E-2,-1.5899511E-2,1E0,2.453E0,1.9462159E-2,1E0,3.1248E0,1E0,-3.1949922E-2,-1.5482737E-2,-2.6352738E-3,1E0,1E0,3.6392752E-2,1.4626922E-2,1E0,1E0,-1.4736366E-2,1E0,-9.1258455E-3,8.560981E-3,-1.5584119E-2,3.2044783E-2,-1.4830205E-2,1.9728491E-2,3.3087198E-2,-1.7905088E-2,-2.5381904E-2,1.8103434E-2,-1.4415968E-2,2.2016168E-2,-2.0342516E-2,4.38194E-3,1.3695055E-2,-1.8354274E-2,-8.907393E-3,1.0652311E-2,-6.6823848E-3,-1.565443E-2,3.3541657E-2,7.941069E-3,1.8099412E-2,5.5095055E-3,9.316784E-3,2.7906643E-2,-2.8298821E-2,1.786635E-2,2.8234005E-2,-2.5838541E-3,-1.6154145E-3,-6.9580027E-3,-2.8154846E-2,-1.1287916E-3,1.987518E-2,-5.3389547E-3,-1.0388346E-2,-2.4504354E-4,-4.9198307E-2,-1.3696908E-2,-3.8287632E-2,-2.2029819E-2,2.3363473E-2,-1.3287184E-2,-1.2430657E-3,-3.406256E-2,2.9298114E-2,-5.390673E-3,4.284395E-3,1.94595E-2,2.0573147E-2,6.7069815E-3,1.0486731E-2,-4.9839018E-5],"split_indices":[1349,1256,277,1308,455,441,57,1766,656,2052,0,609,2053,0,0,389,410,1295,561,13,686,2050,0,0,226,2000,1163,1722,586,2053,2049,687,2049,0,0,1088,0,745,105,841,0,78,1325,1236,2052,165,333,2049,58,1309,94,0,216,183,2049,372,0,0,950,786,183,561,1088,1152,29,1279,2049,210,1722,1627,556,1659,1362,0,0,1039,2051,893,2049,0,0,2051,14,0,0,614,338,602,0,0,216,2049,0,13,2049,362,0,0,0,1727,230,0,0,1738,272,0,4,0,0,0,0,0,0,0,0,0,0,0,0,0,0,0,0,0,0,0,0,0,0,0,0,0,0,0,0,0,0,0,0,0,0,0,0,0,0,0,0,0,0,0,0,0,0,0,0,0,0,0,0,0,0],"split_type":[0,0,0,0,0,0,0,0,0,0,0,0,0,0,0,0,0,0,0,0,0,0,0,0,0,0,0,0,0,0,0,0,0,0,0,0,0,0,0,0,0,0,0,0,0,0,0,0,0,0,0,0,0,0,0,0,0,0,0,0,0,0,0,0,0,0,0,0,0,0,0,0,0,0,0,0,0,0,0,0,0,0,0,0,0,0,0,0,0,0,0,0,0,0,0,0,0,0,0,0,0,0,0,0,0,0,0,0,0,0,0,0,0,0,0,0,0,0,0,0,0,0,0,0,0,0,0,0,0,0,0,0,0,0,0,0,0,0,0,0,0,0,0,0,0,0,0,0,0,0,0,0,0,0,0,0,0,0,0,0,0],"sum_hessian":[2.181E3,1.844E3,3.37E2,1.785E3,5.9E1,3.3E2,7E0,1.52E3,2.65E2,5.7E1,2E0,2.57E2,7.3E1,6E0,1E0,1.371E3,1.49E2,2.04E2,6.1E1,3E0,5.4E1,2.54E2,3E0,4E0,6.9E1,1.042E3,3.29E2,1.03E2,4.6E1,1.93E2,1.1E1,3.3E1,2.8E1,1E0,2E0,5.3E1,1E0,2.07E2,4.7E1,6.7E1,2E0,9.67E2,7.5E1,2.92E2,3.7E1,6E0,9.7E1,4.4E1,2E0,1.89E2,4E0,4E0,7E0,2.6E1,7E0,2.4E1,4E0,2E0,5.1E1,2.03E2,4E0,3.9E1,8E0,5.7E1,1E1,9.19E2,4.8E1,1.4E1,6.1E1,2.74E2,1.8E1,1.3E1,2.4E1,5E0,1E0,8.8E1,9E0,3.6E1,8E0,1E0,1E0,1.84E2,5E0,3E0,1E0,3E0,4E0,2.5E1,1E0,2E0,5E0,2.3E1,1E0,3E1,2.1E1,2.02E2,1E0,3E0,1E0,2.9E1,1E1,6E0,2E0,4.1E1,1.6E1,5E0,5E0,7.66E2,1.53E2,5E0,4.3E1,1.3E1,1E0,5.9E1,2E0,2.66E2,8E0,7E0,1.1E1,9E0,4E0,2.1E1,3E0,6E0,8.2E1,6E0,3E0,3.5E1,1E0,6E0,2E0,1.6E1,1.68E2,4E0,1E0,2E0,1E0,2E0,2E0,2.2E1,3E0,4E0,1E0,1E1,1.3E1,2.8E1,2E0,1.2E1,9E0,1.99E2,3E0,2.6E1,3E0,8E0,2E0,3.7E1,4E0,1.3E1,3E0,2E0,3E0],"tree_param":{"num_deleted":"0","num_feature":"2054","num_nodes":"161","size_leaf_vector":"1"}},{"base_weights":[5.590532E-3,3.8527053E-2,-1.3405622E0,-5.239036E-2,4.85805E-1,-1.4413449E0,2.4587898E-2,-1.0036775E-1,8.199263E-1,5.406942E-1,-1.751543E0,-1.7305807E0,-7.610742E-1,-1.892007E-1,3.7977266E-1,9.057984E-1,-4.015935E-2,3.957948E-1,8.395723E-1,-1.8667619E0,-1.2446887E-2,-1.850913E0,-2.5214674E-2,-1.0628126E0,-3.0751785E-2,-2.6611674E-1,5.280192E-1,6.9129074E-1,-5.6044984E-1,3.255635E-1,1.0646595E0,1.8820673E-1,7.1721405E-1,8.6391413E-1,-1.0958271E-2,-5.940933E-2,-1.6078755E-2,-5.7375062E-2,-1.9773293E-2,-1.1455568E0,-2.2893762E-3,-8.585303E-3,1.8695597E-2,-3.1653854E-1,7.482384E-1,3.065782E-1,9.204814E-1,-1.3757163E-1,7.6861805E-1,-3.8786688E-1,-1.3191327E0,-7.499827E-2,8.6797893E-1,1.2072845E0,3.354645E-1,2.615988E-1,-5.381881E-1,7.5996834E-1,-1.3363151E-2,8.874927E-1,-9.129749E-3,-1.3227588E0,-2.0050881E-2,-3.5046756E-1,9.371171E-1,7.7826387E-1,-1.6249752E-2,1.924013E-1,6.357794E-1,9.4758624E-1,5.3993175E-3,-3.31373E-1,6.235764E-1,8.1650126E-1,-2.5316647E-1,-1.1949056E0,-2.6712412E-1,-1.4049543E0,-5.6264303E-3,-2.2905402E-1,5.1487225E-1,3.6026984E-1,3.606277E-2,1.2404214E0,-1.0719902E-2,5.1711196E-1,-5.859375E-2,2.9657084E-1,-4.1630533E-2,-2.6276606E-1,-2.9441837E-2,2.9004097E-2,8.016444E-1,9.3320376E-1,2.6066595E-1,-4.2669047E-2,-1.0882537E-2,-1.0923173E-2,6.136131E-2,-2.1397047E-2,3.5680383E-2,1.5066819E-2,2.9480938E-2,7.4127167E-3,-9.818636E-3,2.0573547E-2,-6.9651315E-3,2.891645E-2,2.7255176E-3,-4.930479E-3,-2.8340539E-2,5.05497E-3,2.1573076E-2,2.5196223E-2,-2.4338717E-2,-1.715783E-2,1.7249957E-2,-4.1659556E-2,-4.864168E-4,2.4503285E-2,-1.0610623E-2,-4.3955352E-2,-1.2040672E-2,-9.862779E-3,1.1519981E-2,2.3534417E-3,2.0815808E-2,1.5377231E-2,2.6362608E-3,3.686266E-3,3.8344186E-2,1.7901957E-2,-1.7977166E-3,1.9198358E-3,-8.234203E-3,1.0622775E-2,-2.392865E-2,-1.306409E-2,3.1547034E-3,-1.2321119E-2,1.0546024E-2,2.2310048E-2,4.381131E-2,2.84478E-2,-9.263771E-3,4.432082E-3,9.643879E-3],"categories":[],"categories_nodes":[],"categories_segments":[],"categories_sizes":[],"default_left":[0,0,0,0,0,0,0,0,0,0,0,0,0,0,0,0,0,0,0,0,0,0,0,0,0,0,0,0,0,0,0,0,0,0,0,0,0,0,0,0,0,0,0,0,0,0,0,0,0,0,0,0,0,0,0,0,0,0,0,0,0,0,0,0,0,0,0,0,0,0,0,0,0,0,0,0,0,0,0,0,0,0,0,0,0,0,0,0,0,0,0,0,0,0,0,0,0,0,0,0,0,0,0,0,0,0,0,0,0,0,0,0,0,0,0,0,0,0,0,0,0,0,0,0,0,0,0,0,0,0,0,0,0,0,0,0,0,0,0,0,0,0,0,0,0,0,0],"id":11,"left_children":[1,3,5,7,9,11,-1,13,15,17,19,21,23,25,27,29,-1,31,33,35,-1,37,-1,39,41,43,45,47,49,51,53,55,57,59,-1,-1,-1,-1,-1,61,-1,-1,-1,63,65,67,69,71,73,75,77,79,81,83,85,87,89,91,-1,93,-1,95,-1,97,99,101,-1,103,105,107,-1,109,111,113,115,117,119,121,-1,123,125,127,-1,129,-1,131,133,135,-1,137,-1,139,141,143,145,-1,-1,-1,-1,-1,-1,-1,-1,-1,-1,-1,-1,-1,-1,-1,-1,-1,-1,-1,-1,-1,-1,-1,-1,-1,-1,-1,-1,-1,-1,-1,-1,-1,-1,-1,-1,-1,-1,-1,-1,-1,-1,-1,-1,-1,-1,-1,-1,-1,-1,-1,-1],"loss_changes":[9.839242E1,8.8106606E1,1.2719757E1,7.54568E1,4.5894127E1,8.717598E0,0E0,7.292197E1,1.8636478E1,1.5171692E1,6.115494E-1,2.1930618E0,3.713542E0,7.968945E1,7.8590744E1,8.041466E0,0E0,1.6078655E1,3.7176437E0,1.475296E-1,0E0,9.415207E-1,0E0,8.9210796E-1,1.1805347E0,6.687961E1,1.1884815E1,1.2988586E1,8.261044E0,4.6277857E0,6.979103E0,8.084219E0,5.0608215E0,3.410263E0,0E0,0E0,0E0,0E0,0E0,4.6073914E-2,0E0,0E0,0E0,5.3157257E1,2.8228035E0,3.298108E0,8.3301544E-1,2.861844E0,9.209152E0,5.137682E0,9.0187836E-1,1.2992817E0,1.0936136E0,3.5021973E0,9.608351E-1,8.255859E0,1.4510865E0,2.7794037E0,0E0,2.965866E0,0E0,1.5299034E-1,0E0,4.0281616E1,1.4585087E1,2.9487724E0,0E0,2.0419476E0,1.1574736E0,5.8255005E-1,0E0,1.3813055E0,5.2718997E-2,7.3775024E0,2.7047396E0,1.5760546E0,4.9801855E0,7.679176E-2,0E0,7.986145E-1,1.7991215E-1,1.6239196E-1,0E0,2.2877426E0,0E0,4.492507E-1,1.498864E-1,8.716365E0,0E0,6.812087E-1,0E0,9.9529076E-1,2.2365646E0,2.2375946E0,1.4300227E-2,0E0,0E0,0E0,0E0,0E0,0E0,0E0,0E0,0E0,0E0,0E0,0E0,0E0,0E0,0E0,0E0,0E0,0E0,0E0,0E0,0E0,0E0,0E0,0E0,0E0,0E0,0E0,0E0,0E0,0E0,0E0,0E0,0E0,0E0,0E0,0E0,0E0,0E0,0E0,0E0,0E0,0E0,0E0,0E0,0E0,0E0,0E0,0E0,0E0,0E0,0E0,0E0],"parents":[2147483647,0,0,1,1,2,2,3,3,4,4,5,5,7,7,8,8,9,9,10,10,11,11,12,12,13,13,14,14,15,15,17,17,18,18,19,19,21,21,23,23,24,24,25,25,26,26,27,27,28,28,29,29,30,30,31,31,32,32,33,33,39,39,43,43,44,44,45,45,46,46,47,47,48,48,49,49,50,50,51,51,52,52,53,53,54,54,55,55,56,56,57,57,59,59,61,61,63,63,64,64,65,65,67,67,68,68,69,69,71,71,72,72,73,73,74,74,75,75,76,76,77,77,79,79,80,80,81,81,83,83,85,85,86,86,87,87,89,89,91,91,92,92,93,93,94,94],"right_children":[2,4,6,8,10,12,-1,14,16,18,20,22,24,26,28,30,-1,32,34,36,-1,38,-1,40,42,44,46,48,50,52,54,56,58,60,-1,-1,-1,-1,-1,62,-1,-1,-1,64,66,68,70,72,74,76,78,80,82,84,86,88,90,92,-1,94,-1,96,-1,98,100,102,-1,104,106,108,-1,110,112,114,116,118,120,122,-1,124,126,128,-1,130,-1,132,134,136,-1,138,-1,140,142,144,146,-1,-1,-1,-1,-1,-1,-1,-1,-1,-1,-1,-1,-1,-1,-1,-1,-1,-1,-1,-1,-1,-1,-1,-1,-1,-1,-1,-1,-1,-1,-1,-1,-1,-1,-1,-1,-1,-1,-1,-1,-1,-1,-1,-1,-1,-1,-1,-1,-1,-1,-1,-1],"split_conditions":[1E0,1E0,7E0,1E0,1E0,1E0,2.4587898E-2,1E0,1E0,1E0,1E0,1E0,1E0,1E0,4E0,3.23728E0,-4.015935E-2,1E0,1E0,1E0,-1.2446887E-2,1E0,-2.5214674E-2,1E0,1E0,1E0,1E0,2.48722E0,1E0,1E0,1E0,1E0,1E0,1E0,-1.0958271E-2,-5.940933E-2,-1.6078755E-2,-5.7375062E-2,-1.9773293E-2,3.30938E0,-2.2893762E-3,-8.585303E-3,1.8695597E-2,1E0,1E0,1E0,6.84178E0,1E0,1E0,1E0,1E0,1E0,1E0,1E0,2.93435E2,1E0,1E0,2E0,-1.3363151E-2,1E0,-9.129749E-3,1E0,-2.0050881E-2,1E0,1E0,1E0,-1.6249752E-2,1E0,1E0,1E0,5.3993175E-3,1E0,2.41334E2,1E0,3.2932E0,1E0,3.19489E2,1E0,-5.6264303E-3,1E0,1E0,2.39746E2,3.606277E-2,2E0,-1.0719902E-2,1E0,1E0,1E0,-4.1630533E-2,1E0,-2.9441837E-2,1E0,1E0,1E0,1E0,-4.2669047E-2,-1.0882537E-2,-1.0923173E-2,6.136131E-2,-2.1397047E-2,3.5680383E-2,1.5066819E-2,2.9480938E-2,7.4127167E-3,-9.818636E-3,2.0573547E-2,-6.9651315E-3,2.891645E-2,2.7255176E-3,-4.930479E-3,-2.8340539E-2,5.05497E-3,2.1573076E-2,2.5196223E-2,-2.4338717E-2,-1.715783E-2,1.7249957E-2,-4.1659556E-2,-4.864168E-4,2.4503285E-2,-1.0610623E-2,-4.3955352E-2,-1.2040672E-2,-9.862779E-3,1.1519981E-2,2.3534417E-3,2.0815808E-2,1.5377231E-2,2.6362608E-3,3.686266E-3,3.8344186E-2,1.7901957E-2,-1.7977166E-3,1.9198358E-3,-8.234203E-3,1.0622775E-2,-2.392865E-2,-1.306409E-2,3.1547034E-3,-1.2321119E-2,1.0546024E-2,2.2310048E-2,4.381131E-2,2.84478E-2,-9.263771E-3,4.432082E-3,9.643879E-3],"split_indices":[547,1349,2053,806,277,305,0,1308,1017,1617,57,207,1199,1766,2051,2049,0,305,362,1157,0,1171,0,686,455,1119,410,2049,862,674,1063,1,31,389,0,0,0,0,0,2049,0,0,0,785,1095,318,2049,310,1825,305,102,193,455,1013,2048,1520,786,2051,0,975,0,37,0,431,1162,1039,0,333,216,94,0,524,2048,49,2049,1,2048,120,0,326,78,2048,0,2053,0,839,251,802,0,1171,0,476,1849,458,26,0,0,0,0,0,0,0,0,0,0,0,0,0,0,0,0,0,0,0,0,0,0,0,0,0,0,0,0,0,0,0,0,0,0,0,0,0,0,0,0,0,0,0,0,0,0,0,0,0,0,0,0],"split_type":[0,0,0,0,0,0,0,0,0,0,0,0,0,0,0,0,0,0,0,0,0,0,0,0,0,0,0,0,0,0,0,0,0,0,0,0,0,0,0,0,0,0,0,0,0,0,0,0,0,0,0,0,0,0,0,0,0,0,0,0,0,0,0,0,0,0,0,0,0,0,0,0,0,0,0,0,0,0,0,0,0,0,0,0,0,0,0,0,0,0,0,0,0,0,0,0,0,0,0,0,0,0,0,0,0,0,0,0,0,0,0,0,0,0,0,0,0,0,0,0,0,0,0,0,0,0,0,0,0,0,0,0,0,0,0,0,0,0,0,0,0,0,0,0,0,0,0],"sum_hessian":[2.217E3,2.165E3,5.2E1,1.8E3,3.65E2,5E1,2E0,1.707E3,9.3E1,3.57E2,8E0,3.4E1,1.6E1,1.441E3,2.66E2,9E1,3E0,2.42E2,1.15E2,7E0,1E0,2.9E1,5E0,1.1E1,5E0,1.302E3,1.39E2,2E2,6.6E1,2E1,7E1,1.48E2,9.4E1,1.13E2,2E0,6E0,1E0,2.7E1,